<?xml version="1.0"?>
<MethodSetup Method="BDT::evtBDT">
  <GeneralInfo>
    <Info name="TMVA Release" value="4.0.7 [262151]"/>
    <Info name="ROOT Release" value="5.27/06 [334598]"/>
    <Info name="Creator" value="musella"/>
    <Info name="Date" value="Sat Oct 29 00:29:43 2011"/>
    <Info name="Host" value="Linux lxbuild051.cern.ch 2.6.18-238.1.1.el5 #1 SMP Wed Jan 19 11:06:36 CET 2011 x86_64 x86_64 x86_64 GNU/Linux"/>
    <Info name="Dir" value="/afs/cern.ch/user/m/musella/scratch0/Analysis/Higgs_428p7/src/lip/HiggsToGG/macro"/>
    <Info name="Training events" value="81804"/>
    <Info name="TrainingTime" value="103.528"/>
    <Info name="AnalysisType" value="Classification"/>
  </GeneralInfo>
  <Options>
    <Option name="V" modified="Yes">False</Option>
    <Option name="VerbosityLevel" modified="No">Default</Option>
    <Option name="VarTransform" modified="No">None</Option>
    <Option name="H" modified="Yes">False</Option>
    <Option name="CreateMVAPdfs" modified="No">False</Option>
    <Option name="IgnoreNegWeightsInTraining" modified="No">False</Option>
    <Option name="NTrees" modified="Yes">1000</Option>
    <Option name="BoostType" modified="Yes">Grad</Option>
    <Option name="AdaBoostR2Loss" modified="No">quadratic</Option>
    <Option name="UseBaggedGrad" modified="Yes">True</Option>
    <Option name="GradBaggingFraction" modified="Yes">6.000000e-01</Option>
    <Option name="Shrinkage" modified="Yes">3.000000e-01</Option>
    <Option name="AdaBoostBeta" modified="No">1.000000e+00</Option>
    <Option name="UseRandomisedTrees" modified="No">False</Option>
    <Option name="UseNvars" modified="No">2</Option>
    <Option name="UseNTrainEvents" modified="No">81804</Option>
    <Option name="UseWeightedTrees" modified="No">True</Option>
    <Option name="UseYesNoLeaf" modified="No">True</Option>
    <Option name="NodePurityLimit" modified="No">5.000000e-01</Option>
    <Option name="SeparationType" modified="Yes">giniindex</Option>
    <Option name="nEventsMin" modified="No">127</Option>
    <Option name="nCuts" modified="Yes">20</Option>
    <Option name="PruneStrength" modified="No">-1.000000e+00</Option>
    <Option name="PruneMethod" modified="No">costcomplexity</Option>
    <Option name="PruneBeforeBoost" modified="No">False</Option>
    <Option name="PruningValFraction" modified="No">5.000000e-01</Option>
    <Option name="NNodesMax" modified="Yes">5</Option>
    <Option name="MaxDepth" modified="No">3</Option>
  </Options>
  <Variables NVar="8">
    <Variable VarIndex="0" Expression="diphoPt0" Label="diphoPt0" Title="diphoPt0" Unit="" Internal="diphoPt0" Type="F" Min="0.104137" Max="786.305"/>
    <Variable VarIndex="1" Expression="nVert" Label="nVert" Title="nVert" Unit="" Internal="nVert" Type="F" Min="4" Max="31"/>
    <Variable VarIndex="2" Expression="MVA0" Label="MVA0" Title="MVA0" Unit="" Internal="MVA0" Type="F" Min="-0.997671" Max="0.998833"/>
    <Variable VarIndex="3" Expression="MVA1" Label="MVA1" Title="MVA1" Unit="" Internal="MVA1" Type="F" Min="-0.999308" Max="0.998465"/>
    <Variable VarIndex="4" Expression="dZ1" Label="dZ1" Title="dZ1" Unit="" Internal="dZ1" Type="F" Min="-29.918" Max="33.6733"/>
    <Variable VarIndex="5" Expression="MVA2" Label="MVA2" Title="MVA2" Unit="" Internal="MVA2" Type="F" Min="-0.99937" Max="0.864881"/>
    <Variable VarIndex="6" Expression="dZ2" Label="dZ2" Title="dZ2" Unit="" Internal="dZ2" Type="F" Min="-29.6906" Max="31.4843"/>
    <Variable VarIndex="7" Expression="nConv" Label="nConv" Title="nConv" Unit="" Internal="nConv" Type="F" Min="0" Max="2"/>
  </Variables>
  <Transformations NTransformations="0"/>
  <MVAPdfs>
  </MVAPdfs>
  <Weights NTrees="1000" TreeType="1">
    <BinaryTree type="DecisionTree" boostWeight="1.0000000000000000e+00" itree="0">
      <Node pos="s" depth="0" Seq="0" IVar="2" Cut="1.4318339526653290e-01" cType="1" nS="8.1420498046875000e+03" nB="5.7480410156250000e+04" nEv="6.5622460937500000e+04" nSuw="6.7420000000000000e+03" nBuw="4.2340000000000000e+04" nEvuw="4.9082000000000000e+04" sepI="1.0867974162101746e-01" sepG="1.5498402528464794e-02" res="-3.7592586874961853e-01" rms="3.2966610789299011e-01" nType="0" CC="0.0000000000000000e+00">
        <Node pos="l" depth="1" Seq="0" IVar="-1" Cut="0.0000000000000000e+00" cType="1" nS="6.4058017578125000e+03" nB="1.4532223632812500e+04" nEv="2.0938025390625000e+04" nSuw="5.2700000000000000e+03" nBuw="7.3890000000000000e+03" nEvuw="1.2659000000000000e+04" sepI="2.1234112977981567e-01" sepG="-1.0000000000000000e+00" res="-2.8618443757295609e-02" rms="4.6080487966537476e-01" nType="-1" CC="0.0000000000000000e+00"/>
        <Node pos="r" depth="1" Seq="1" IVar="2" Cut="7.1367430686950684e-01" cType="1" nS="1.7362479248046875e+03" nB="4.2948187500000000e+04" nEv="4.4684437500000000e+04" nSuw="1.4720000000000000e+03" nBuw="3.4951000000000000e+04" nEvuw="3.6423000000000000e+04" sepI="3.7345994263887405e-02" sepG="2.5878841988742352e-03" res="-4.6114423871040344e-01" rms="1.9325111806392670e-01" nType="0" CC="0.0000000000000000e+00">
          <Node pos="l" depth="2" Seq="1" IVar="-1" Cut="0.0000000000000000e+00" cType="1" nS="1.5200686035156250e+03" nB="1.1200793945312500e+04" nEv="1.2720862304687500e+04" nSuw="1.2510000000000000e+03" nBuw="5.4970000000000000e+03" nEvuw="6.7480000000000000e+03" sepI="1.0521529614925385e-01" sepG="-1.0000000000000000e+00" res="-5.5769536644220352e-02" rms="3.2436907291412354e-01" nType="-1" CC="0.0000000000000000e+00"/>
          <Node pos="r" depth="2" Seq="3" IVar="-1" Cut="0.0000000000000000e+00" cType="1" nS="2.1617932128906250e+02" nB="3.1747394531250000e+04" nEv="3.1963572265625000e+04" nSuw="2.2100000000000000e+02" nBuw="2.9454000000000000e+04" nEvuw="2.9675000000000000e+04" sepI="6.7175603471696377e-03" sepG="-1.0000000000000000e+00" res="-8.8608838617801666e-02" rms="8.1960722804069519e-02" nType="-1" CC="0.0000000000000000e+00"/>
        </Node>
      </Node>
    </BinaryTree>
    <BinaryTree type="DecisionTree" boostWeight="1.0000000000000000e+00" itree="1">
      <Node pos="s" depth="0" Seq="0" IVar="2" Cut="3.3329623937606812e-01" cType="1" nS="8.1983466796875000e+03" nB="5.6613609375000000e+04" nEv="6.4811957031250000e+04" nSuw="6.8510000000000000e+03" nBuw="4.2231000000000000e+04" nEvuw="4.9082000000000000e+04" sepI="1.0726328194141388e-01" sepG="1.3049800880253315e-02" res="-3.4218251705169678e-01" rms="3.2751074433326721e-01" nType="0" CC="0.0000000000000000e+00">
        <Node pos="l" depth="1" Seq="0" IVar="-1" Cut="0.0000000000000000e+00" cType="1" nS="7.0478222656250000e+03" nB="1.7402042968750000e+04" nEv="2.4449865234375000e+04" nSuw="5.8210000000000000e+03" nBuw="8.7250000000000000e+03" nEvuw="1.4546000000000000e+04" sepI="2.0477926731109619e-01" sepG="-1.0000000000000000e+00" res="-2.9087271541357040e-02" rms="4.5252543687820435e-01" nType="-1" CC="0.0000000000000000e+00"/>
        <Node pos="r" depth="1" Seq="1" IVar="5" Cut="-7.4116075038909912e-01" cType="0" nS="1.1505240478515625e+03" nB="3.9211566406250000e+04" nEv="4.0362093750000000e+04" nSuw="1.0300000000000000e+03" nBuw="3.3506000000000000e+04" nEvuw="3.4536000000000000e+04" sepI="2.7236815541982651e-02" sepG="1.1119151022285223e-03" res="-4.3109306693077087e-01" rms="1.6503579914569855e-01" nType="0" CC="0.0000000000000000e+00">
          <Node pos="l" depth="2" Seq="1" IVar="-1" Cut="0.0000000000000000e+00" cType="1" nS="5.9051446533203125e+02" nB="4.1921840820312500e+03" nEv="4.7826987304687500e+03" nSuw="6.0600000000000000e+02" nBuw="3.7510000000000000e+03" nEvuw="4.3570000000000000e+03" sepI="1.0701042413711548e-01" sepG="-1.0000000000000000e+00" res="-5.9721693396568298e-02" rms="3.2712447643280029e-01" nType="-1" CC="0.0000000000000000e+00"/>
          <Node pos="r" depth="2" Seq="3" IVar="-1" Cut="0.0000000000000000e+00" cType="1" nS="5.6000964355468750e+02" nB="3.5019382812500000e+04" nEv="3.5579394531250000e+04" nSuw="4.2400000000000000e+02" nBuw="2.9755000000000000e+04" nEvuw="3.0179000000000000e+04" sepI="1.5252002514898777e-02" sepG="-1.0000000000000000e+00" res="-7.6528884470462799e-02" rms="1.2349899858236313e-01" nType="-1" CC="0.0000000000000000e+00"/>
        </Node>
      </Node>
    </BinaryTree>
    <BinaryTree type="DecisionTree" boostWeight="1.0000000000000000e+00" itree="2">
      <Node pos="s" depth="0" Seq="0" IVar="2" Cut="1.4329974353313446e-01" cType="1" nS="8.3707792968750000e+03" nB="5.7189960937500000e+04" nEv="6.5560742187500000e+04" nSuw="6.8480000000000000e+03" nBuw="4.2234000000000000e+04" nEvuw="4.9082000000000000e+04" sepI="1.0540971159934998e-01" sepG="1.2226002290844917e-02" res="-3.1212386488914490e-01" rms="3.2466861605644226e-01" nType="0" CC="0.0000000000000000e+00">
        <Node pos="l" depth="1" Seq="0" IVar="-1" Cut="0.0000000000000000e+00" cType="1" nS="6.5900009765625000e+03" nB="1.3756886718750000e+04" nEv="2.0346886718750000e+04" nSuw="5.3530000000000000e+03" nBuw="7.1250000000000000e+03" nEvuw="1.2478000000000000e+04" sepI="2.1898263692855835e-01" sepG="-1.0000000000000000e+00" res="-2.4318046867847443e-02" rms="4.6795579791069031e-01" nType="-1" CC="0.0000000000000000e+00"/>
        <Node pos="r" depth="1" Seq="1" IVar="5" Cut="-8.2179570198059082e-01" cType="0" nS="1.7807779541015625e+03" nB="4.3433074218750000e+04" nEv="4.5213851562500000e+04" nSuw="1.4950000000000000e+03" nBuw="3.5109000000000000e+04" nEvuw="3.6604000000000000e+04" sepI="3.6572378128767014e-02" sepG="1.8914839019998908e-03" res="-3.8629850745201111e-01" rms="1.9123905897140503e-01" nType="0" CC="0.0000000000000000e+00">
          <Node pos="l" depth="2" Seq="1" IVar="-1" Cut="0.0000000000000000e+00" cType="1" nS="1.2330588378906250e+03" nB="7.8344130859375000e+03" nEv="9.0674716796875000e+03" nSuw="1.1080000000000000e+03" nBuw="6.2840000000000000e+03" nEvuw="7.3920000000000000e+03" sepI="1.1507908254861832e-01" sepG="-1.0000000000000000e+00" res="-5.1978260278701782e-02" rms="3.3923307061195374e-01" nType="-1" CC="0.0000000000000000e+00"/>
          <Node pos="r" depth="2" Seq="3" IVar="-1" Cut="0.0000000000000000e+00" cType="1" nS="5.4771911621093750e+02" nB="3.5598660156250000e+04" nEv="3.6146378906250000e+04" nSuw="3.8700000000000000e+02" nBuw="2.8825000000000000e+04" nEvuw="2.9212000000000000e+04" sepI="1.4512669295072556e-02" sepG="-1.0000000000000000e+00" res="-7.0451885461807251e-02" rms="1.2046854197978973e-01" nType="-1" CC="0.0000000000000000e+00"/>
        </Node>
      </Node>
    </BinaryTree>
    <BinaryTree type="DecisionTree" boostWeight="1.0000000000000000e+00" itree="3">
      <Node pos="s" depth="0" Seq="0" IVar="2" Cut="3.3344164490699768e-01" cType="1" nS="8.2181591796875000e+03" nB="5.6752085937500000e+04" nEv="6.4970246093750000e+04" nSuw="6.8480000000000000e+03" nBuw="4.2234000000000000e+04" nEvuw="4.9082000000000000e+04" sepI="1.0252924263477325e-01" sepG="9.6515677869319916e-03" res="-2.8785946965217590e-01" rms="3.2020187377929688e-01" nType="0" CC="0.0000000000000000e+00">
        <Node pos="l" depth="1" Seq="0" IVar="-1" Cut="0.0000000000000000e+00" cType="1" nS="7.1336049804687500e+03" nB="1.7150257812500000e+04" nEv="2.4283863281250000e+04" nSuw="5.8880000000000000e+03" nBuw="8.6520000000000000e+03" nEvuw="1.4540000000000000e+04" sepI="2.0635312795639038e-01" sepG="-1.0000000000000000e+00" res="-2.4825261905789375e-02" rms="4.5426109433174133e-01" nType="-1" CC="0.0000000000000000e+00"/>
        <Node pos="r" depth="1" Seq="1" IVar="5" Cut="-6.6014426946640015e-01" cType="0" nS="1.0845539550781250e+03" nB="3.9601828125000000e+04" nEv="4.0686382812500000e+04" nSuw="9.6000000000000000e+02" nBuw="3.3582000000000000e+04" nEvuw="3.4542000000000000e+04" sepI="2.5149298831820488e-02" sepG="1.2008753838017583e-03" res="-3.6375799775123596e-01" rms="1.5858530998229980e-01" nType="0" CC="0.0000000000000000e+00">
          <Node pos="l" depth="2" Seq="1" IVar="-1" Cut="0.0000000000000000e+00" cType="1" nS="5.4378356933593750e+02" nB="2.8641945800781250e+03" nEv="3.4079780273437500e+03" nSuw="5.3500000000000000e+02" nBuw="2.6610000000000000e+03" nEvuw="3.1960000000000000e+03" sepI="1.3246402144432068e-01" sepG="-1.0000000000000000e+00" res="-4.7504924237728119e-02" rms="3.6395609378814697e-01" nType="-1" CC="0.0000000000000000e+00"/>
          <Node pos="r" depth="2" Seq="3" IVar="-1" Cut="0.0000000000000000e+00" cType="1" nS="5.4077038574218750e+02" nB="3.6737632812500000e+04" nEv="3.7278402343750000e+04" nSuw="4.2500000000000000e+02" nBuw="3.0921000000000000e+04" nEvuw="3.1346000000000000e+04" sepI="1.4027967117726803e-02" sepG="-1.0000000000000000e+00" res="-6.6950850188732147e-02" rms="1.1843971908092499e-01" nType="-1" CC="0.0000000000000000e+00"/>
        </Node>
      </Node>
    </BinaryTree>
    <BinaryTree type="DecisionTree" boostWeight="1.0000000000000000e+00" itree="4">
      <Node pos="s" depth="0" Seq="0" IVar="2" Cut="2.3825991153717041e-01" cType="1" nS="8.1056230468750000e+03" nB="5.7117976562500000e+04" nEv="6.5223601562500000e+04" nSuw="6.6770000000000000e+03" nBuw="4.2405000000000000e+04" nEvuw="4.9082000000000000e+04" sepI="9.9405601620674133e-02" sepG="7.6061883009970188e-03" res="-2.6643189787864685e-01" rms="3.1528654694557190e-01" nType="0" CC="0.0000000000000000e+00">
        <Node pos="l" depth="1" Seq="0" IVar="-1" Cut="0.0000000000000000e+00" cType="1" nS="6.6736416015625000e+03" nB="1.5667493164062500e+04" nEv="2.2341134765625000e+04" nSuw="5.4140000000000000e+03" nBuw="7.9750000000000000e+03" nEvuw="1.3389000000000000e+04" sepI="2.0899315178394318e-01" sepG="-1.0000000000000000e+00" res="-2.1768532693386078e-02" rms="4.5715770125389099e-01" nType="-1" CC="0.0000000000000000e+00"/>
        <Node pos="r" depth="1" Seq="1" IVar="5" Cut="-6.4645278453826904e-01" cType="0" nS="1.4319815673828125e+03" nB="4.1450484375000000e+04" nEv="4.2882464843750000e+04" nSuw="1.2630000000000000e+03" nBuw="3.4430000000000000e+04" nEvuw="3.5693000000000000e+04" sepI="3.0743191018700600e-02" sepG="1.1893227929249406e-03" res="-3.2938197255134583e-01" rms="1.7533735930919647e-01" nType="0" CC="0.0000000000000000e+00">
          <Node pos="l" depth="2" Seq="1" IVar="-1" Cut="0.0000000000000000e+00" cType="1" nS="6.4331982421875000e+02" nB="3.1018798828125000e+03" nEv="3.7451997070312500e+03" nSuw="6.6800000000000000e+02" nBuw="2.6390000000000000e+03" nEvuw="3.3070000000000000e+03" sepI="1.3932232558727264e-01" sepG="-1.0000000000000000e+00" res="-3.9893742650747299e-02" rms="3.7325906753540039e-01" nType="-1" CC="0.0000000000000000e+00"/>
          <Node pos="r" depth="2" Seq="3" IVar="-1" Cut="0.0000000000000000e+00" cType="1" nS="7.8866174316406250e+02" nB="3.8348605468750000e+04" nEv="3.9137265625000000e+04" nSuw="5.9500000000000000e+02" nBuw="3.1791000000000000e+04" nEvuw="3.2386000000000000e+04" sepI="1.9049691036343575e-02" sepG="-1.0000000000000000e+00" res="-6.2182504683732986e-02" rms="1.3802061975002289e-01" nType="-1" CC="0.0000000000000000e+00"/>
        </Node>
      </Node>
    </BinaryTree>
    <BinaryTree type="DecisionTree" boostWeight="1.0000000000000000e+00" itree="5">
      <Node pos="s" depth="0" Seq="0" IVar="2" Cut="4.2916274070739746e-01" cType="1" nS="8.4494843750000000e+03" nB="5.7594964843750000e+04" nEv="6.6044453125000000e+04" nSuw="6.7100000000000000e+03" nBuw="4.2372000000000000e+04" nEvuw="4.9082000000000000e+04" sepI="1.0055528581142426e-01" sepG="6.5520075149834156e-03" res="-2.4167709052562714e-01" rms="3.1710454821586609e-01" nType="0" CC="0.0000000000000000e+00">
        <Node pos="l" depth="1" Seq="0" IVar="-1" Cut="0.0000000000000000e+00" cType="1" nS="7.5719936523437500e+03" nB="1.9540814453125000e+04" nEv="2.7112806640625000e+04" nSuw="5.9640000000000000e+03" nBuw="9.6630000000000000e+03" nEvuw="1.5627000000000000e+04" sepI="1.9867447018623352e-01" sepG="-1.0000000000000000e+00" res="-2.2249910980463028e-02" rms="4.4572913646697998e-01" nType="-1" CC="0.0000000000000000e+00"/>
        <Node pos="r" depth="1" Seq="1" IVar="2" Cut="7.5471723079681396e-01" cType="1" nS="8.7749102783203125e+02" nB="3.8054152343750000e+04" nEv="3.8931644531250000e+04" nSuw="7.4600000000000000e+02" nBuw="3.2709000000000000e+04" nEvuw="3.3455000000000000e+04" sepI="2.1108083426952362e-02" sepG="6.7492248490452766e-04" res="-3.0922672152519226e-01" rms="1.4528621733188629e-01" nType="0" CC="0.0000000000000000e+00">
          <Node pos="l" depth="2" Seq="1" IVar="-1" Cut="0.0000000000000000e+00" cType="1" nS="7.0318493652343750e+02" nB="7.2298251953125000e+03" nEv="7.9330097656250000e+03" nSuw="5.2000000000000000e+02" nBuw="3.8360000000000000e+03" nEvuw="4.3560000000000000e+03" sepI="7.8769236803054810e-02" sepG="-1.0000000000000000e+00" res="-4.2320467531681061e-02" rms="2.8065857291221619e-01" nType="-1" CC="0.0000000000000000e+00"/>
          <Node pos="r" depth="2" Seq="3" IVar="-1" Cut="0.0000000000000000e+00" cType="1" nS="1.7430612182617188e+02" nB="3.0824328125000000e+04" nEv="3.0998634765625000e+04" nSuw="2.2600000000000000e+02" nBuw="2.8873000000000000e+04" nEvuw="2.9099000000000000e+04" sepI="5.5040935985743999e-03" sepG="-1.0000000000000000e+00" res="-6.6146850585937500e-02" rms="7.4189580976963043e-02" nType="-1" CC="0.0000000000000000e+00"/>
        </Node>
      </Node>
    </BinaryTree>
    <BinaryTree type="DecisionTree" boostWeight="1.0000000000000000e+00" itree="6">
      <Node pos="s" depth="0" Seq="0" IVar="2" Cut="-4.6785846352577209e-02" cType="1" nS="8.0590375976562500e+03" nB="5.6739335937500000e+04" nEv="6.4798375000000000e+04" nSuw="6.7170000000000000e+03" nBuw="4.2365000000000000e+04" nEvuw="4.9082000000000000e+04" sepI="9.6773676574230194e-02" sepG="5.9289471246302128e-03" res="-2.2426852583885193e-01" rms="3.1108465790748596e-01" nType="0" CC="0.0000000000000000e+00">
        <Node pos="l" depth="1" Seq="0" IVar="-1" Cut="0.0000000000000000e+00" cType="1" nS="5.6257177734375000e+03" nB="1.1440670898437500e+04" nEv="1.7066388671875000e+04" nSuw="4.7110000000000000e+03" nBuw="6.0000000000000000e+03" nEvuw="1.0711000000000000e+04" sepI="2.2097653150558472e-01" sepG="-1.0000000000000000e+00" res="-1.5097395516932011e-02" rms="4.7008141875267029e-01" nType="-1" CC="0.0000000000000000e+00"/>
        <Node pos="r" depth="1" Seq="1" IVar="5" Cut="-8.2434266805648804e-01" cType="0" nS="2.4333200683593750e+03" nB="4.5298664062500000e+04" nEv="4.7731984375000000e+04" nSuw="2.0060000000000000e+03" nBuw="3.6365000000000000e+04" nEvuw="3.8371000000000000e+04" sepI="4.4316593557596207e-02" sepG="1.9049544353038073e-03" res="-2.7031061053276062e-01" rms="2.1051506698131561e-01" nType="0" CC="0.0000000000000000e+00">
          <Node pos="l" depth="2" Seq="1" IVar="-1" Cut="0.0000000000000000e+00" cType="1" nS="1.7160734863281250e+03" nB="8.7681660156250000e+03" nEv="1.0484239257812500e+04" nSuw="1.5070000000000000e+03" nBuw="6.9350000000000000e+03" nEvuw="8.4420000000000000e+03" sepI="1.2829743325710297e-01" sepG="-1.0000000000000000e+00" res="-3.3972427248954773e-02" rms="3.5818630456924438e-01" nType="-1" CC="0.0000000000000000e+00"/>
          <Node pos="r" depth="2" Seq="3" IVar="-1" Cut="0.0000000000000000e+00" cType="1" nS="7.1724658203125000e+02" nB="3.6530500000000000e+04" nEv="3.7247746093750000e+04" nSuw="4.9900000000000000e+02" nBuw="2.9430000000000000e+04" nEvuw="2.9929000000000000e+04" sepI="1.8237099051475525e-02" sepG="-1.0000000000000000e+00" res="-5.6691534817218781e-02" rms="1.3504479825496674e-01" nType="-1" CC="0.0000000000000000e+00"/>
        </Node>
      </Node>
    </BinaryTree>
    <BinaryTree type="DecisionTree" boostWeight="1.0000000000000000e+00" itree="7">
      <Node pos="s" depth="0" Seq="0" IVar="2" Cut="4.8730690032243729e-02" cType="1" nS="8.2674941406250000e+03" nB="5.6584031250000000e+04" nEv="6.4851527343750000e+04" nSuw="6.8710000000000000e+03" nBuw="4.2211000000000000e+04" nEvuw="4.9082000000000000e+04" sepI="9.7844861447811127e-02" sepG="4.9875671975314617e-03" res="-2.0314569771289825e-01" rms="3.1280162930488586e-01" nType="0" CC="0.0000000000000000e+00">
        <Node pos="l" depth="1" Seq="0" IVar="-1" Cut="0.0000000000000000e+00" cType="1" nS="6.1081147460937500e+03" nB="1.2782346679687500e+04" nEv="1.8890460937500000e+04" nSuw="5.1060000000000000e+03" nBuw="6.5580000000000000e+03" nEvuw="1.1664000000000000e+04" sepI="2.1857759356498718e-01" sepG="-1.0000000000000000e+00" res="-1.4971358701586723e-02" rms="4.6752282977104187e-01" nType="-1" CC="0.0000000000000000e+00"/>
        <Node pos="r" depth="1" Seq="1" IVar="5" Cut="-6.4427417516708374e-01" cType="0" nS="2.1593793945312500e+03" nB="4.3801683593750000e+04" nEv="4.5961062500000000e+04" nSuw="1.7650000000000000e+03" nBuw="3.5653000000000000e+04" nEvuw="3.7418000000000000e+04" sepI="4.1184980422258377e-02" sepG="1.7105320002883673e-03" res="-2.4842196702957153e-01" rms="2.0294082164764404e-01" nType="0" CC="0.0000000000000000e+00">
          <Node pos="l" depth="2" Seq="1" IVar="-1" Cut="0.0000000000000000e+00" cType="1" nS="9.4553723144531250e+02" nB="3.2248364257812500e+03" nEv="4.1703735351562500e+03" nSuw="8.7600000000000000e+02" nBuw="2.7000000000000000e+03" nEvuw="3.5760000000000000e+03" sepI="1.6901899874210358e-01" sepG="-1.0000000000000000e+00" res="-2.6486262679100037e-02" rms="4.1111919283866882e-01" nType="-1" CC="0.0000000000000000e+00"/>
          <Node pos="r" depth="2" Seq="3" IVar="-1" Cut="0.0000000000000000e+00" cType="1" nS="1.2138422851562500e+03" nB="4.0576847656250000e+04" nEv="4.1790691406250000e+04" nSuw="8.8900000000000000e+02" nBuw="3.2953000000000000e+04" nEvuw="3.3842000000000000e+04" sepI="2.6546947658061981e-02" sepG="-1.0000000000000000e+00" res="-5.3083978593349457e-02" rms="1.6293233633041382e-01" nType="-1" CC="0.0000000000000000e+00"/>
        </Node>
      </Node>
    </BinaryTree>
    <BinaryTree type="DecisionTree" boostWeight="1.0000000000000000e+00" itree="8">
      <Node pos="s" depth="0" Seq="0" IVar="2" Cut="4.2838492989540100e-01" cType="1" nS="8.1848212890625000e+03" nB="5.6903726562500000e+04" nEv="6.5088546875000000e+04" nSuw="6.8150000000000000e+03" nBuw="4.2267000000000000e+04" nEvuw="4.9082000000000000e+04" sepI="9.5565795898437500e-02" sepG="4.3360642157495022e-03" res="-1.8791548907756805e-01" rms="3.0913719534873962e-01" nType="0" CC="0.0000000000000000e+00">
        <Node pos="l" depth="1" Seq="0" IVar="-1" Cut="0.0000000000000000e+00" cType="1" nS="7.3201103515625000e+03" nB="1.8538642578125000e+04" nEv="2.5858753906250000e+04" nSuw="6.0150000000000000e+03" nBuw="9.5990000000000000e+03" nEvuw="1.5614000000000000e+04" sepI="1.9885025918483734e-01" sepG="-1.0000000000000000e+00" res="-1.7439432442188263e-02" rms="4.4592627882957458e-01" nType="-1" CC="0.0000000000000000e+00"/>
        <Node pos="r" depth="1" Seq="1" IVar="2" Cut="6.7294526100158691e-01" cType="1" nS="8.6471075439453125e+02" nB="3.8365082031250000e+04" nEv="3.9229792968750000e+04" nSuw="8.0000000000000000e+02" nBuw="3.2668000000000000e+04" nEvuw="3.3468000000000000e+04" sepI="2.0290475338697433e-02" sepG="5.0167780136689544e-04" res="-2.4137729406356812e-01" rms="1.4244464039802551e-01" nType="0" CC="0.0000000000000000e+00">
          <Node pos="l" depth="2" Seq="1" IVar="-1" Cut="0.0000000000000000e+00" cType="1" nS="5.9637957763671875e+02" nB="5.2890224609375000e+03" nEv="5.8854023437500000e+03" nSuw="4.9100000000000000e+02" nBuw="2.7130000000000000e+03" nEvuw="3.2040000000000000e+03" sepI="8.8137477636337280e-02" sepG="-1.0000000000000000e+00" res="-3.4871451556682587e-02" rms="2.9687955975532532e-01" nType="-1" CC="0.0000000000000000e+00"/>
          <Node pos="r" depth="2" Seq="3" IVar="-1" Cut="0.0000000000000000e+00" cType="1" nS="2.6833114624023438e+02" nB="3.3076058593750000e+04" nEv="3.3344390625000000e+04" nSuw="3.0900000000000000e+02" nBuw="2.9955000000000000e+04" nEvuw="3.0264000000000000e+04" sepI="7.7250143513083458e-03" sepG="-1.0000000000000000e+00" res="-5.7931903749704361e-02" rms="8.7892062962055206e-02" nType="-1" CC="0.0000000000000000e+00"/>
        </Node>
      </Node>
    </BinaryTree>
    <BinaryTree type="DecisionTree" boostWeight="1.0000000000000000e+00" itree="9">
      <Node pos="s" depth="0" Seq="0" IVar="2" Cut="5.2353423833847046e-01" cType="1" nS="8.2375439453125000e+03" nB="5.6949585937500000e+04" nEv="6.5187128906250000e+04" nSuw="6.8590000000000000e+03" nBuw="4.2223000000000000e+04" nEvuw="4.9082000000000000e+04" sepI="9.5489218831062317e-02" sepG="3.5228531341999769e-03" res="-1.7225223779678345e-01" rms="3.0901330709457397e-01" nType="0" CC="0.0000000000000000e+00">
        <Node pos="l" depth="1" Seq="0" IVar="-1" Cut="0.0000000000000000e+00" cType="1" nS="7.5780234375000000e+03" nB="2.0298873046875000e+04" nEv="2.7876896484375000e+04" nSuw="6.2830000000000000e+03" nBuw="1.0440000000000000e+04" nEvuw="1.6723000000000000e+04" sepI="1.9290107488632202e-01" sepG="-1.0000000000000000e+00" res="-1.7006311565637589e-02" rms="4.3920505046844482e-01" nType="-1" CC="0.0000000000000000e+00"/>
        <Node pos="r" depth="1" Seq="1" IVar="2" Cut="8.1776493787765503e-01" cType="1" nS="6.5951989746093750e+02" nB="3.6650714843750000e+04" nEv="3.7310234375000000e+04" nSuw="5.7600000000000000e+02" nBuw="3.1783000000000000e+04" nEvuw="3.2359000000000000e+04" sepI="1.6551487147808075e-02" sepG="2.0975022925995290e-04" res="-2.2355674207210541e-01" rms="1.2865258753299713e-01" nType="0" CC="0.0000000000000000e+00">
          <Node pos="l" depth="2" Seq="1" IVar="-1" Cut="0.0000000000000000e+00" cType="1" nS="5.0825891113281250e+02" nB="6.7931611328125000e+03" nEv="7.3014199218750000e+03" nSuw="3.8800000000000000e+02" nBuw="3.6850000000000000e+03" nEvuw="4.0730000000000000e+03" sepI="6.3245296478271484e-02" sepG="-1.0000000000000000e+00" res="-3.6785945296287537e-02" rms="2.5148618221282959e-01" nType="-1" CC="0.0000000000000000e+00"/>
          <Node pos="r" depth="2" Seq="3" IVar="-1" Cut="0.0000000000000000e+00" cType="1" nS="1.5126101684570312e+02" nB="2.9857552734375000e+04" nEv="3.0008812500000000e+04" nSuw="1.8800000000000000e+02" nBuw="2.8098000000000000e+04" nEvuw="2.8286000000000000e+04" sepI="4.9296696670353413e-03" sepG="-1.0000000000000000e+00" res="-5.8668818324804306e-02" rms="7.0211604237556458e-02" nType="-1" CC="0.0000000000000000e+00"/>
        </Node>
      </Node>
    </BinaryTree>
    <BinaryTree type="DecisionTree" boostWeight="1.0000000000000000e+00" itree="10">
      <Node pos="s" depth="0" Seq="0" IVar="2" Cut="-4.5726720243692398e-02" cType="1" nS="7.9488715820312500e+03" nB="5.7101542968750000e+04" nEv="6.5050414062500000e+04" nSuw="6.7210000000000000e+03" nBuw="4.2361000000000000e+04" nEvuw="4.9082000000000000e+04" sepI="9.1940499842166901e-02" sepG="2.9386137612164021e-03" res="-1.6198688745498657e-01" rms="3.0321690440177917e-01" nType="0" CC="0.0000000000000000e+00">
        <Node pos="l" depth="1" Seq="0" IVar="-1" Cut="0.0000000000000000e+00" cType="1" nS="5.5864458007812500e+03" nB="1.1773802734375000e+04" nEv="1.7360248046875000e+04" nSuw="4.6500000000000000e+03" nBuw="5.9560000000000000e+03" nEvuw="1.0606000000000000e+04" sepI="2.1824339032173157e-01" sepG="-1.0000000000000000e+00" res="-1.0457362979650497e-02" rms="4.6716526150703430e-01" nType="-1" CC="0.0000000000000000e+00"/>
        <Node pos="r" depth="1" Seq="1" IVar="3" Cut="-4.2851597070693970e-01" cType="0" nS="2.3624255371093750e+03" nB="4.5327738281250000e+04" nEv="4.7690164062500000e+04" nSuw="2.0710000000000000e+03" nBuw="3.6405000000000000e+04" nEvuw="3.8476000000000000e+04" sepI="4.1955187916755676e-02" sepG="1.4309873804450035e-03" res="-1.9469344615936279e-01" rms="2.0482966303825378e-01" nType="0" CC="0.0000000000000000e+00">
          <Node pos="l" depth="2" Seq="1" IVar="-1" Cut="0.0000000000000000e+00" cType="1" nS="1.5495104980468750e+03" nB="8.6679326171875000e+03" nEv="1.0217443359375000e+04" nSuw="1.3780000000000000e+03" nBuw="6.5450000000000000e+03" nEvuw="7.9230000000000000e+03" sepI="1.1740690469741821e-01" sepG="-1.0000000000000000e+00" res="-2.4544468149542809e-02" rms="3.4264689683914185e-01" nType="-1" CC="0.0000000000000000e+00"/>
          <Node pos="r" depth="2" Seq="3" IVar="-1" Cut="0.0000000000000000e+00" cType="1" nS="8.1291510009765625e+02" nB="3.6659808593750000e+04" nEv="3.7472722656250000e+04" nSuw="6.9300000000000000e+02" nBuw="2.9860000000000000e+04" nEvuw="3.0553000000000000e+04" sepI="1.9561095163226128e-02" sepG="-1.0000000000000000e+00" res="-4.9149978905916214e-02" rms="1.3986098766326904e-01" nType="-1" CC="0.0000000000000000e+00"/>
        </Node>
      </Node>
    </BinaryTree>
    <BinaryTree type="DecisionTree" boostWeight="1.0000000000000000e+00" itree="11">
      <Node pos="s" depth="0" Seq="0" IVar="5" Cut="-9.1059225797653198e-01" cType="0" nS="8.1223964843750000e+03" nB="5.7367058593750000e+04" nEv="6.5489457031250000e+04" nSuw="6.7280000000000000e+03" nBuw="4.2354000000000000e+04" nEvuw="4.9082000000000000e+04" sepI="9.2598311603069305e-02" sepG="2.9468995053321123e-03" res="-1.4712664484977722e-01" rms="3.0429971218109131e-01" nType="0" CC="0.0000000000000000e+00">
        <Node pos="l" depth="1" Seq="0" IVar="-1" Cut="0.0000000000000000e+00" cType="1" nS="5.9622255859375000e+03" nB="2.1120031250000000e+04" nEv="2.7082255859375000e+04" nSuw="4.5150000000000000e+03" nBuw="1.5408000000000000e+04" nEvuw="1.9923000000000000e+04" sepI="1.5218056738376617e-01" sepG="-1.0000000000000000e+00" res="-1.5891717746853828e-02" rms="3.9010328054428101e-01" nType="-1" CC="0.0000000000000000e+00"/>
        <Node pos="r" depth="1" Seq="1" IVar="2" Cut="-7.1246343851089478e-01" cType="1" nS="2.1601708984375000e+03" nB="3.6247027343750000e+04" nEv="3.8407199218750000e+04" nSuw="2.2130000000000000e+03" nBuw="2.6946000000000000e+04" nEvuw="2.9159000000000000e+04" sepI="4.5559931546449661e-02" sepG="1.3308880152180791e-03" res="-1.9271130859851837e-01" rms="2.1344771981239319e-01" nType="0" CC="0.0000000000000000e+00">
          <Node pos="l" depth="2" Seq="1" IVar="-1" Cut="0.0000000000000000e+00" cType="1" nS="8.5066693115234375e+02" nB="1.7046696777343750e+03" nEv="2.5553366699218750e+03" nSuw="1.2630000000000000e+03" nBuw="1.3360000000000000e+03" nEvuw="2.5990000000000000e+03" sepI="2.2207698225975037e-01" sepG="-1.0000000000000000e+00" res="-1.1489545926451683e-02" rms="4.7125044465065002e-01" nType="-1" CC="0.0000000000000000e+00"/>
          <Node pos="r" depth="2" Seq="3" IVar="-1" Cut="0.0000000000000000e+00" cType="1" nS="1.3095040283203125e+03" nB="3.4542359375000000e+04" nEv="3.5851863281250000e+04" nSuw="9.5000000000000000e+02" nBuw="2.5610000000000000e+04" nEvuw="2.6560000000000000e+04" sepI="3.1552955508232117e-02" sepG="-1.0000000000000000e+00" res="-4.5048546046018600e-02" rms="1.7763151228427887e-01" nType="-1" CC="0.0000000000000000e+00"/>
        </Node>
      </Node>
    </BinaryTree>
    <BinaryTree type="DecisionTree" boostWeight="1.0000000000000000e+00" itree="12">
      <Node pos="s" depth="0" Seq="0" IVar="5" Cut="-8.2291376590728760e-01" cType="0" nS="8.2311865234375000e+03" nB="5.6411589843750000e+04" nEv="6.4642777343750000e+04" nSuw="6.8780000000000000e+03" nBuw="4.2204000000000000e+04" nEvuw="4.9082000000000000e+04" sepI="9.4056099653244019e-02" sepG="3.1079489272087812e-03" res="-1.3304030895233154e-01" rms="3.0668568611145020e-01" nType="0" CC="0.0000000000000000e+00">
        <Node pos="l" depth="1" Seq="0" IVar="-1" Cut="0.0000000000000000e+00" cType="1" nS="4.3810693359375000e+03" nB="1.1749070312500000e+04" nEv="1.6130140625000000e+04" nSuw="3.4110000000000000e+03" nBuw="8.2070000000000000e+03" nEvuw="1.1618000000000000e+04" sepI="1.7945757508277893e-01" sepG="-1.0000000000000000e+00" res="-8.6010321974754333e-03" rms="4.2362433671951294e-01" nType="-1" CC="0.0000000000000000e+00"/>
        <Node pos="r" depth="1" Seq="1" IVar="2" Cut="-5.2231270074844360e-01" cType="1" nS="3.8501164550781250e+03" nB="4.4662519531250000e+04" nEv="4.8512636718750000e+04" nSuw="3.4670000000000000e+03" nBuw="3.3997000000000000e+04" nEvuw="3.7464000000000000e+04" sepI="6.1519335955381393e-02" sepG="2.1181143820285797e-03" res="-1.6518643498420715e-01" rms="2.4803091585636139e-01" nType="0" CC="0.0000000000000000e+00">
          <Node pos="l" depth="2" Seq="1" IVar="-1" Cut="0.0000000000000000e+00" cType="1" nS="2.0644013671875000e+03" nB="4.1366420898437500e+03" nEv="6.2010434570312500e+03" nSuw="2.2520000000000000e+03" nBuw="2.4580000000000000e+03" nEvuw="4.7100000000000000e+03" sepI="2.2118230164051056e-01" sepG="-1.0000000000000000e+00" res="-8.8322684168815613e-03" rms="4.7030022740364075e-01" nType="-1" CC="0.0000000000000000e+00"/>
          <Node pos="r" depth="2" Seq="3" IVar="-1" Cut="0.0000000000000000e+00" cType="1" nS="1.7857150878906250e+03" nB="4.0525878906250000e+04" nEv="4.2311593750000000e+04" nSuw="1.2150000000000000e+03" nBuw="3.1539000000000000e+04" nEvuw="3.2754000000000000e+04" sepI="3.5691138356924057e-02" sepG="-1.0000000000000000e+00" res="-4.2047876864671707e-02" rms="1.8892097473144531e-01" nType="-1" CC="0.0000000000000000e+00"/>
        </Node>
      </Node>
    </BinaryTree>
    <BinaryTree type="DecisionTree" boostWeight="1.0000000000000000e+00" itree="13">
      <Node pos="s" depth="0" Seq="0" IVar="2" Cut="4.8116754740476608e-02" cType="1" nS="7.9848823242187500e+03" nB="5.7405937500000000e+04" nEv="6.5390820312500000e+04" nSuw="6.7950000000000000e+03" nBuw="4.2287000000000000e+04" nEvuw="4.9082000000000000e+04" sepI="9.0332552790641785e-02" sepG="2.3629509378224611e-03" res="-1.2729386985301971e-01" rms="3.0055373907089233e-01" nType="0" CC="0.0000000000000000e+00">
        <Node pos="l" depth="1" Seq="0" IVar="-1" Cut="0.0000000000000000e+00" cType="1" nS="5.9908168945312500e+03" nB="1.3132367187500000e+04" nEv="1.9123183593750000e+04" nSuw="5.0470000000000000e+03" nBuw="6.6730000000000000e+03" nEvuw="1.1720000000000000e+04" sepI="2.1235592663288116e-01" sepG="-1.0000000000000000e+00" res="-7.3223649524152279e-03" rms="4.6082091331481934e-01" nType="-1" CC="0.0000000000000000e+00"/>
        <Node pos="r" depth="1" Seq="1" IVar="5" Cut="-6.4645808935165405e-01" cType="0" nS="1.9940655517578125e+03" nB="4.4273570312500000e+04" nEv="4.6267636718750000e+04" nSuw="1.7480000000000000e+03" nBuw="3.5614000000000000e+04" nEvuw="3.7362000000000000e+04" sepI="3.6558665335178375e-02" sepG="7.7595136826857924e-04" res="-1.5854522585868835e-01" rms="1.9120320677757263e-01" nType="0" CC="0.0000000000000000e+00">
          <Node pos="l" depth="2" Seq="1" IVar="-1" Cut="0.0000000000000000e+00" cType="1" nS="8.7177569580078125e+02" nB="3.3192629394531250e+03" nEv="4.1910385742187500e+03" nSuw="8.8300000000000000e+02" nBuw="2.8450000000000000e+03" nEvuw="3.7280000000000000e+03" sepI="1.5665321052074432e-01" sepG="-1.0000000000000000e+00" res="-1.5296397730708122e-02" rms="3.9579439163208008e-01" nType="-1" CC="0.0000000000000000e+00"/>
          <Node pos="r" depth="2" Seq="3" IVar="-1" Cut="0.0000000000000000e+00" cType="1" nS="1.1222897949218750e+03" nB="4.0954304687500000e+04" nEv="4.2076597656250000e+04" nSuw="8.6500000000000000e+02" nBuw="3.2769000000000000e+04" nEvuw="3.3634000000000000e+04" sepI="2.3743409663438797e-02" sepG="-1.0000000000000000e+00" res="-4.4095978140830994e-02" rms="1.5408897399902344e-01" nType="-1" CC="0.0000000000000000e+00"/>
        </Node>
      </Node>
    </BinaryTree>
    <BinaryTree type="DecisionTree" boostWeight="1.0000000000000000e+00" itree="14">
      <Node pos="s" depth="0" Seq="0" IVar="2" Cut="5.2345556020736694e-01" cType="1" nS="8.2776093750000000e+03" nB="5.6789605468750000e+04" nEv="6.5067214843750000e+04" nSuw="6.8360000000000000e+03" nBuw="4.2246000000000000e+04" nEvuw="4.9082000000000000e+04" sepI="9.2784121632575989e-02" sepG="2.5519630871713161e-03" res="-1.1230114102363586e-01" rms="3.0460485816001892e-01" nType="0" CC="0.0000000000000000e+00">
        <Node pos="l" depth="1" Seq="0" IVar="-1" Cut="0.0000000000000000e+00" cType="1" nS="7.6841489257812500e+03" nB="2.0336154296875000e+04" nEv="2.8020304687500000e+04" nSuw="6.2560000000000000e+03" nBuw="1.0386000000000000e+04" nEvuw="1.6642000000000000e+04" sepI="1.8992865085601807e-01" sepG="-1.0000000000000000e+00" res="-1.0201805271208286e-02" rms="4.3580803275108337e-01" nType="-1" CC="0.0000000000000000e+00"/>
        <Node pos="r" depth="1" Seq="1" IVar="3" Cut="-4.7987811267375946e-02" cType="0" nS="5.9346093750000000e+02" nB="3.6453449218750000e+04" nEv="3.7046910156250000e+04" nSuw="5.8000000000000000e+02" nBuw="3.1860000000000000e+04" nEvuw="3.2440000000000000e+04" sepI="1.4827067963778973e-02" sepG="9.9129261798225343e-05" res="-1.5623483061790466e-01" rms="1.2176644802093506e-01" nType="0" CC="0.0000000000000000e+00">
          <Node pos="l" depth="2" Seq="1" IVar="-1" Cut="0.0000000000000000e+00" cType="1" nS="2.7324819946289062e+02" nB="3.1326076660156250e+03" nEv="3.4058559570312500e+03" nSuw="3.0000000000000000e+02" nBuw="2.6810000000000000e+03" nEvuw="2.9810000000000000e+03" sepI="7.1397274732589722e-02" sepG="-1.0000000000000000e+00" res="-3.3562164753675461e-02" rms="2.6720267534255981e-01" nType="-1" CC="0.0000000000000000e+00"/>
          <Node pos="r" depth="2" Seq="3" IVar="-1" Cut="0.0000000000000000e+00" cType="1" nS="3.2021270751953125e+02" nB="3.3320843750000000e+04" nEv="3.3641054687500000e+04" nSuw="2.8000000000000000e+02" nBuw="2.9179000000000000e+04" nEvuw="2.9459000000000000e+04" sepI="8.9906752109527588e-03" sepG="-1.0000000000000000e+00" res="-4.9106132239103317e-02" rms="9.4819173216819763e-02" nType="-1" CC="0.0000000000000000e+00"/>
        </Node>
      </Node>
    </BinaryTree>
    <BinaryTree type="DecisionTree" boostWeight="1.0000000000000000e+00" itree="15">
      <Node pos="s" depth="0" Seq="0" IVar="5" Cut="-9.1184824705123901e-01" cType="0" nS="8.1809301757812500e+03" nB="5.7167335937500000e+04" nEv="6.5348265625000000e+04" nSuw="6.8410000000000000e+03" nBuw="4.2241000000000000e+04" nEvuw="4.9082000000000000e+04" sepI="9.1761991381645203e-02" sepG="2.2609906736761332e-03" res="-1.0581826418638229e-01" rms="3.0292242765426636e-01" nType="0" CC="0.0000000000000000e+00">
        <Node pos="l" depth="1" Seq="0" IVar="-1" Cut="0.0000000000000000e+00" cType="1" nS="5.9990917968750000e+03" nB="2.1294642578125000e+04" nEv="2.7293734375000000e+04" nSuw="4.6210000000000000e+03" nBuw="1.5530000000000000e+04" nEvuw="2.0151000000000000e+04" sepI="1.4983756840229034e-01" sepG="-1.0000000000000000e+00" res="-1.0435553267598152e-02" rms="3.8708859682083130e-01" nType="-1" CC="0.0000000000000000e+00"/>
        <Node pos="r" depth="1" Seq="1" IVar="2" Cut="-8.0753248929977417e-01" cType="1" nS="2.1818381347656250e+03" nB="3.5872691406250000e+04" nEv="3.8054531250000000e+04" nSuw="2.2200000000000000e+03" nBuw="2.6711000000000000e+04" nEvuw="2.8931000000000000e+04" sepI="4.6225983649492264e-02" sepG="5.1661726320162416e-04" res="-1.4608789980411530e-01" rms="2.1500228345394135e-01" nType="0" CC="0.0000000000000000e+00">
          <Node pos="l" depth="2" Seq="1" IVar="-1" Cut="0.0000000000000000e+00" cType="1" nS="5.6014093017578125e+02" nB="1.1358024902343750e+03" nEv="1.6959433593750000e+03" nSuw="9.5400000000000000e+02" nBuw="9.6200000000000000e+02" nEvuw="1.9160000000000000e+03" sepI="2.2119607031345367e-01" sepG="-1.0000000000000000e+00" res="-4.1188234463334084e-03" rms="4.7031486034393311e-01" nType="-1" CC="0.0000000000000000e+00"/>
          <Node pos="r" depth="2" Seq="3" IVar="-1" Cut="0.0000000000000000e+00" cType="1" nS="1.6216972656250000e+03" nB="3.4736890625000000e+04" nEv="3.6358585937500000e+04" nSuw="1.2660000000000000e+03" nBuw="2.5749000000000000e+04" nEvuw="2.7015000000000000e+04" sepI="3.7523802369832993e-02" sepG="-1.0000000000000000e+00" res="-3.9033364504575729e-02" rms="1.9371061027050018e-01" nType="-1" CC="0.0000000000000000e+00"/>
        </Node>
      </Node>
    </BinaryTree>
    <BinaryTree type="DecisionTree" boostWeight="1.0000000000000000e+00" itree="16">
      <Node pos="s" depth="0" Seq="0" IVar="2" Cut="4.9322981387376785e-02" cType="1" nS="8.3612333984375000e+03" nB="5.7194867187500000e+04" nEv="6.5556101562500000e+04" nSuw="6.8540000000000000e+03" nBuw="4.2228000000000000e+04" nEvuw="4.9082000000000000e+04" sepI="9.2186748981475830e-02" sepG="2.3305057547986507e-03" res="-9.4883732497692108e-02" rms="3.0362269282341003e-01" nType="0" CC="0.0000000000000000e+00">
        <Node pos="l" depth="1" Seq="0" IVar="-1" Cut="0.0000000000000000e+00" cType="1" nS="6.3694648437500000e+03" nB="1.3140309570312500e+04" nEv="1.9509775390625000e+04" nSuw="5.0920000000000000e+03" nBuw="6.7430000000000000e+03" nEvuw="1.1835000000000000e+04" sepI="2.1563249826431274e-01" sepG="-1.0000000000000000e+00" res="-4.5560174621641636e-03" rms="4.6436247229576111e-01" nType="-1" CC="0.0000000000000000e+00"/>
        <Node pos="r" depth="1" Seq="1" IVar="3" Cut="-4.2927739024162292e-01" cType="0" nS="1.9917681884765625e+03" nB="4.4054554687500000e+04" nEv="4.6046324218750000e+04" nSuw="1.7620000000000000e+03" nBuw="3.5485000000000000e+04" nEvuw="3.7247000000000000e+04" sepI="3.6564979702234268e-02" sepG="5.6250439956784248e-04" res="-1.2630717456340790e-01" rms="1.9121971726417542e-01" nType="0" CC="0.0000000000000000e+00">
          <Node pos="l" depth="2" Seq="1" IVar="-1" Cut="0.0000000000000000e+00" cType="1" nS="1.2447502441406250e+03" nB="8.1526987304687500e+03" nEv="9.3974492187500000e+03" nSuw="1.1800000000000000e+03" nBuw="6.2630000000000000e+03" nEvuw="7.4430000000000000e+03" sepI="1.0431052744388580e-01" sepG="-1.0000000000000000e+00" res="-1.8726726993918419e-02" rms="3.2297140359878540e-01" nType="-1" CC="0.0000000000000000e+00"/>
          <Node pos="r" depth="2" Seq="3" IVar="-1" Cut="0.0000000000000000e+00" cType="1" nS="7.4701806640625000e+02" nB="3.5901855468750000e+04" nEv="3.6648875000000000e+04" nSuw="5.8200000000000000e+02" nBuw="2.9222000000000000e+04" nEvuw="2.9804000000000000e+04" sepI="1.8487028777599335e-02" sepG="-1.0000000000000000e+00" res="-4.3554726988077164e-02" rms="1.3596701622009277e-01" nType="-1" CC="0.0000000000000000e+00"/>
        </Node>
      </Node>
    </BinaryTree>
    <BinaryTree type="DecisionTree" boostWeight="1.0000000000000000e+00" itree="17">
      <Node pos="s" depth="0" Seq="0" IVar="5" Cut="-9.1456049680709839e-01" cType="0" nS="8.2368544921875000e+03" nB="5.6846125000000000e+04" nEv="6.5082980468750000e+04" nSuw="6.8220000000000000e+03" nBuw="4.2260000000000000e+04" nEvuw="4.9082000000000000e+04" sepI="9.1429293155670166e-02" sepG="2.1231397986412048e-03" res="-8.8592939078807831e-02" rms="3.0237278342247009e-01" nType="0" CC="0.0000000000000000e+00">
        <Node pos="l" depth="1" Seq="0" IVar="-1" Cut="0.0000000000000000e+00" cType="1" nS="6.1823945312500000e+03" nB="2.1413871093750000e+04" nEv="2.7596265625000000e+04" nSuw="4.7450000000000000e+03" nBuw="1.5882000000000000e+04" nEvuw="2.0627000000000000e+04" sepI="1.5101596713066101e-01" sepG="-1.0000000000000000e+00" res="-8.5065066814422607e-03" rms="3.8860774040222168e-01" nType="-1" CC="0.0000000000000000e+00"/>
        <Node pos="r" depth="1" Seq="1" IVar="2" Cut="-7.1012318134307861e-01" cType="1" nS="2.0544594726562500e+03" nB="3.5432253906250000e+04" nEv="3.7486714843750000e+04" nSuw="2.0770000000000000e+03" nBuw="2.6378000000000000e+04" nEvuw="2.8455000000000000e+04" sepI="4.3877784162759781e-02" sepG="4.8739861813373864e-04" res="-1.2812739610671997e-01" rms="2.0947024226188660e-01" nType="0" CC="0.0000000000000000e+00">
          <Node pos="l" depth="2" Seq="1" IVar="-1" Cut="0.0000000000000000e+00" cType="1" nS="8.5597735595703125e+02" nB="1.8901594238281250e+03" nEv="2.7461367187500000e+03" nSuw="1.2340000000000000e+03" nBuw="1.3710000000000000e+03" nEvuw="2.6050000000000000e+03" sepI="2.1452641487121582e-01" sepG="-1.0000000000000000e+00" res="-7.4440697208046913e-03" rms="4.6316996216773987e-01" nType="-1" CC="0.0000000000000000e+00"/>
          <Node pos="r" depth="2" Seq="3" IVar="-1" Cut="0.0000000000000000e+00" cType="1" nS="1.1984820556640625e+03" nB="3.3542097656250000e+04" nEv="3.4740578125000000e+04" nSuw="8.4300000000000000e+02" nBuw="2.5007000000000000e+04" nEvuw="2.5850000000000000e+04" sepI="2.9862606897950172e-02" sepG="-1.0000000000000000e+00" res="-3.8178164511919022e-02" rms="1.7280800640583038e-01" nType="-1" CC="0.0000000000000000e+00"/>
        </Node>
      </Node>
    </BinaryTree>
    <BinaryTree type="DecisionTree" boostWeight="1.0000000000000000e+00" itree="18">
      <Node pos="s" depth="0" Seq="0" IVar="5" Cut="-8.2290792465209961e-01" cType="0" nS="8.3359375000000000e+03" nB="5.6551300781250000e+04" nEv="6.4887238281250000e+04" nSuw="6.8620000000000000e+03" nBuw="4.2220000000000000e+04" nEvuw="4.9082000000000000e+04" sepI="9.1858789324760437e-02" sepG="2.4754453916102648e-03" res="-7.9584673047065735e-02" rms="3.0308216810226440e-01" nType="0" CC="0.0000000000000000e+00">
        <Node pos="l" depth="1" Seq="0" IVar="-1" Cut="0.0000000000000000e+00" cType="1" nS="4.5288447265625000e+03" nB="1.1407831054687500e+04" nEv="1.5936674804687500e+04" nSuw="3.3950000000000000e+03" nBuw="8.0980000000000000e+03" nEvuw="1.1493000000000000e+04" sepI="1.8165665864944458e-01" sepG="-1.0000000000000000e+00" res="-1.8917714478448033e-03" rms="4.2621198296546936e-01" nType="-1" CC="0.0000000000000000e+00"/>
        <Node pos="r" depth="1" Seq="1" IVar="2" Cut="-4.2701235413551331e-01" cType="1" nS="3.8070930175781250e+03" nB="4.5143468750000000e+04" nEv="4.8950562500000000e+04" nSuw="3.4670000000000000e+03" nBuw="3.4122000000000000e+04" nEvuw="3.7589000000000000e+04" sepI="5.9342224150896072e-02" sepG="1.1259834282100201e-03" res="-1.0797344893217087e-01" rms="2.4360258877277374e-01" nType="0" CC="0.0000000000000000e+00">
          <Node pos="l" depth="2" Seq="1" IVar="-1" Cut="0.0000000000000000e+00" cType="1" nS="2.2707651367187500e+03" nB="4.9399902343750000e+03" nEv="7.2107553710937500e+03" nSuw="2.4480000000000000e+03" nBuw="2.9990000000000000e+03" nEvuw="5.4470000000000000e+03" sepI="2.1268425881862640e-01" sepG="-1.0000000000000000e+00" res="-4.9605816602706909e-03" rms="4.6117705106735229e-01" nType="-1" CC="0.0000000000000000e+00"/>
          <Node pos="r" depth="2" Seq="3" IVar="-1" Cut="0.0000000000000000e+00" cType="1" nS="1.5363277587890625e+03" nB="4.0203480468750000e+04" nEv="4.1739808593750000e+04" nSuw="1.0190000000000000e+03" nBuw="3.1123000000000000e+04" nEvuw="3.2142000000000000e+04" sepI="3.1531136482954025e-02" sepG="-1.0000000000000000e+00" res="-3.6572087556123734e-02" rms="1.7757008969783783e-01" nType="-1" CC="0.0000000000000000e+00"/>
        </Node>
      </Node>
    </BinaryTree>
    <BinaryTree type="DecisionTree" boostWeight="1.0000000000000000e+00" itree="19">
      <Node pos="s" depth="0" Seq="0" IVar="2" Cut="5.2355331182479858e-01" cType="1" nS="8.3446679687500000e+03" nB="5.7135605468750000e+04" nEv="6.5480273437500000e+04" nSuw="6.9230000000000000e+03" nBuw="4.2159000000000000e+04" nEvuw="4.9082000000000000e+04" sepI="9.1786347329616547e-02" sepG="1.8614606233313680e-03" res="-7.3795959353446960e-02" rms="3.0296260118484497e-01" nType="0" CC="0.0000000000000000e+00">
        <Node pos="l" depth="1" Seq="0" IVar="-1" Cut="0.0000000000000000e+00" cType="1" nS="7.6785253906250000e+03" nB="2.0561015625000000e+04" nEv="2.8239541015625000e+04" nSuw="6.3580000000000000e+03" nBuw="1.0313000000000000e+04" nEvuw="1.6671000000000000e+04" sepI="1.8693956732749939e-01" sepG="-1.0000000000000000e+00" res="-4.9573970027267933e-03" rms="4.3236508965492249e-01" nType="-1" CC="0.0000000000000000e+00"/>
        <Node pos="r" depth="1" Seq="1" IVar="2" Cut="8.1778043508529663e-01" cType="1" nS="6.6614245605468750e+02" nB="3.6574589843750000e+04" nEv="3.7240730468750000e+04" nSuw="5.6500000000000000e+02" nBuw="3.1846000000000000e+04" nEvuw="3.2411000000000000e+04" sepI="1.6358917579054832e-02" sepG="1.7955320072360337e-04" res="-1.1136643588542938e-01" rms="1.2790198624134064e-01" nType="0" CC="0.0000000000000000e+00">
          <Node pos="l" depth="2" Seq="1" IVar="-1" Cut="0.0000000000000000e+00" cType="1" nS="5.4360394287109375e+02" nB="6.7632202148437500e+03" nEv="7.3068242187500000e+03" nSuw="4.0700000000000000e+02" nBuw="3.7090000000000000e+03" nEvuw="4.1160000000000000e+03" sepI="6.5037406980991364e-02" sepG="-1.0000000000000000e+00" res="-2.4871727451682091e-02" rms="2.5502434372901917e-01" nType="-1" CC="0.0000000000000000e+00"/>
          <Node pos="r" depth="2" Seq="3" IVar="-1" Cut="0.0000000000000000e+00" cType="1" nS="1.2253848266601562e+02" nB="2.9811367187500000e+04" nEv="2.9933906250000000e+04" nSuw="1.5800000000000000e+02" nBuw="2.8137000000000000e+04" nEvuw="2.8295000000000000e+04" sepI="4.2531844228506088e-03" sepG="-1.0000000000000000e+00" res="-5.0433602184057236e-02" rms="6.5216444432735443e-02" nType="-1" CC="0.0000000000000000e+00"/>
        </Node>
      </Node>
    </BinaryTree>
    <BinaryTree type="DecisionTree" boostWeight="1.0000000000000000e+00" itree="20">
      <Node pos="s" depth="0" Seq="0" IVar="2" Cut="-4.6966742724180222e-02" cType="1" nS="8.2169052734375000e+03" nB="5.6946253906250000e+04" nEv="6.5163156250000000e+04" nSuw="6.7780000000000000e+03" nBuw="4.2304000000000000e+04" nEvuw="4.9082000000000000e+04" sepI="9.0261422097682953e-02" sepG="1.6148921567946672e-03" res="-6.8283401429653168e-02" rms="3.0043539404869080e-01" nType="0" CC="0.0000000000000000e+00">
        <Node pos="l" depth="1" Seq="0" IVar="-1" Cut="0.0000000000000000e+00" cType="1" nS="5.6548666992187500e+03" nB="1.1315508789062500e+04" nEv="1.6970375000000000e+04" nSuw="4.6610000000000000e+03" nBuw="5.8540000000000000e+03" nEvuw="1.0515000000000000e+04" sepI="2.1704983711242676e-01" sepG="-1.0000000000000000e+00" res="-9.2879938893020153e-04" rms="4.6588608622550964e-01" nType="-1" CC="0.0000000000000000e+00"/>
        <Node pos="r" depth="1" Seq="1" IVar="5" Cut="-6.6617190837860107e-01" cType="0" nS="2.5620385742187500e+03" nB="4.5630742187500000e+04" nEv="4.8192781250000000e+04" nSuw="2.1170000000000000e+03" nBuw="3.6450000000000000e+04" nEvuw="3.8567000000000000e+04" sepI="4.3431203812360764e-02" sepG="7.2901643579825759e-04" res="-9.2129997909069061e-02" rms="2.0840154588222504e-01" nType="0" CC="0.0000000000000000e+00">
          <Node pos="l" depth="2" Seq="1" IVar="-1" Cut="0.0000000000000000e+00" cType="1" nS="1.1799768066406250e+03" nB="3.8809985351562500e+03" nEv="5.0609755859375000e+03" nSuw="1.1140000000000000e+03" nBuw="3.1610000000000000e+03" nEvuw="4.2750000000000000e+03" sepI="1.6818431019783020e-01" sepG="-1.0000000000000000e+00" res="-4.3413066305220127e-03" rms="4.1010281443595886e-01" nType="-1" CC="0.0000000000000000e+00"/>
          <Node pos="r" depth="2" Seq="3" IVar="-1" Cut="0.0000000000000000e+00" cType="1" nS="1.3820617675781250e+03" nB="4.1749746093750000e+04" nEv="4.3131808593750000e+04" nSuw="1.0030000000000000e+03" nBuw="3.3289000000000000e+04" nEvuw="3.4292000000000000e+04" sepI="2.7978437021374702e-02" sepG="-1.0000000000000000e+00" res="-3.5948354750871658e-02" rms="1.6726756095886230e-01" nType="-1" CC="0.0000000000000000e+00"/>
        </Node>
      </Node>
    </BinaryTree>
    <BinaryTree type="DecisionTree" boostWeight="1.0000000000000000e+00" itree="21">
      <Node pos="s" depth="0" Seq="0" IVar="2" Cut="4.8274111002683640e-02" cType="1" nS="8.2155234375000000e+03" nB="5.6713835937500000e+04" nEv="6.4929359375000000e+04" nSuw="6.7660000000000000e+03" nBuw="4.2316000000000000e+04" nEvuw="4.9082000000000000e+04" sepI="9.0376287698745728e-02" sepG="1.4279286842793226e-03" res="-6.3856482505798340e-02" rms="3.0062648653984070e-01" nType="0" CC="0.0000000000000000e+00">
        <Node pos="l" depth="1" Seq="0" IVar="-1" Cut="0.0000000000000000e+00" cType="1" nS="6.2286015625000000e+03" nB="1.3088028320312500e+04" nEv="1.9316628906250000e+04" nSuw="5.0680000000000000e+03" nBuw="6.7420000000000000e+03" nEvuw="1.1810000000000000e+04" sepI="2.1291579306125641e-01" sepG="-1.0000000000000000e+00" res="-1.4255669666454196e-03" rms="4.6142798662185669e-01" nType="-1" CC="0.0000000000000000e+00"/>
        <Node pos="r" depth="1" Seq="1" IVar="3" Cut="-2.3852281272411346e-01" cType="0" nS="1.9869213867187500e+03" nB="4.3625808593750000e+04" nEv="4.5612730468750000e+04" nSuw="1.6980000000000000e+03" nBuw="3.5574000000000000e+04" nEvuw="3.7272000000000000e+04" sepI="3.6449141800403595e-02" sepG="5.4710340918973088e-04" res="-8.8447466492652893e-02" rms="1.9091658294200897e-01" nType="0" CC="0.0000000000000000e+00">
          <Node pos="l" depth="2" Seq="1" IVar="-1" Cut="0.0000000000000000e+00" cType="1" nS="1.0059682006835938e+03" nB="5.7068344726562500e+03" nEv="6.7128027343750000e+03" nSuw="8.6800000000000000e+02" nBuw="4.5240000000000000e+03" nEvuw="5.3920000000000000e+03" sepI="1.1479907482862473e-01" sepG="-1.0000000000000000e+00" res="-1.0291629470884800e-02" rms="3.3882012963294983e-01" nType="-1" CC="0.0000000000000000e+00"/>
          <Node pos="r" depth="2" Seq="3" IVar="-1" Cut="0.0000000000000000e+00" cType="1" nS="9.8095318603515625e+02" nB="3.7918976562500000e+04" nEv="3.8899929687500000e+04" nSuw="8.3000000000000000e+02" nBuw="3.1050000000000000e+04" nEvuw="3.1880000000000000e+04" sepI="2.2287094965577126e-02" sepG="-1.0000000000000000e+00" res="-3.7126123905181885e-02" rms="1.4928863942623138e-01" nType="-1" CC="0.0000000000000000e+00"/>
        </Node>
      </Node>
    </BinaryTree>
    <BinaryTree type="DecisionTree" boostWeight="1.0000000000000000e+00" itree="22">
      <Node pos="s" depth="0" Seq="0" IVar="3" Cut="-8.0929791927337646e-01" cType="0" nS="8.2988261718750000e+03" nB="5.6566207031250000e+04" nEv="6.4865031250000000e+04" nSuw="6.8720000000000000e+03" nBuw="4.2210000000000000e+04" nEvuw="4.9082000000000000e+04" sepI="9.1113902628421783e-02" sepG="1.5955900307744741e-03" res="-5.6617490947246552e-02" rms="3.0185079574584961e-01" nType="0" CC="0.0000000000000000e+00">
        <Node pos="l" depth="1" Seq="0" IVar="-1" Cut="0.0000000000000000e+00" cType="1" nS="6.5072021484375000e+03" nB="2.6796199218750000e+04" nEv="3.3303402343750000e+04" nSuw="4.7270000000000000e+03" nBuw="1.8204000000000000e+04" nEvuw="2.2931000000000000e+04" sepI="1.3287560641765594e-01" sepG="-1.0000000000000000e+00" res="-5.6978603824973106e-03" rms="3.6452105641365051e-01" nType="-1" CC="0.0000000000000000e+00"/>
        <Node pos="r" depth="1" Seq="1" IVar="2" Cut="-7.1130216121673584e-01" cType="1" nS="1.7916236572265625e+03" nB="2.9770005859375000e+04" nEv="3.1561630859375000e+04" nSuw="2.1450000000000000e+03" nBuw="2.4006000000000000e+04" nEvuw="2.6151000000000000e+04" sepI="4.3768282979726791e-02" sepG="1.0493432637304068e-03" res="-9.7649730741977692e-02" rms="2.0920871198177338e-01" nType="0" CC="0.0000000000000000e+00">
          <Node pos="l" depth="2" Seq="1" IVar="-1" Cut="0.0000000000000000e+00" cType="1" nS="1.0436724853515625e+03" nB="1.8866416015625000e+03" nEv="2.9303142089843750e+03" nSuw="1.4680000000000000e+03" nBuw="1.4970000000000000e+03" nEvuw="2.9650000000000000e+03" sepI="2.2915883362293243e-01" sepG="-1.0000000000000000e+00" res="1.9805987540166825e-04" rms="4.7870537638664246e-01" nType="-1" CC="0.0000000000000000e+00"/>
          <Node pos="r" depth="2" Seq="3" IVar="-1" Cut="0.0000000000000000e+00" cType="1" nS="7.4795117187500000e+02" nB="2.7883365234375000e+04" nEv="2.8631316406250000e+04" nSuw="6.7700000000000000e+02" nBuw="2.2509000000000000e+04" nEvuw="2.3186000000000000e+04" sepI="2.3637475445866585e-02" sepG="-1.0000000000000000e+00" res="-3.8490615785121918e-02" rms="1.5374483168125153e-01" nType="-1" CC="0.0000000000000000e+00"/>
        </Node>
      </Node>
    </BinaryTree>
    <BinaryTree type="DecisionTree" boostWeight="1.0000000000000000e+00" itree="23">
      <Node pos="s" depth="0" Seq="0" IVar="5" Cut="-7.3304802179336548e-01" cType="0" nS="7.8673037109375000e+03" nB="5.7099148437500000e+04" nEv="6.4966453125000000e+04" nSuw="6.7100000000000000e+03" nBuw="4.2372000000000000e+04" nEvuw="4.9082000000000000e+04" sepI="8.6567424237728119e-02" sepG="1.4526242157444358e-03" res="-5.7350434362888336e-02" rms="2.9422342777252197e-01" nType="0" CC="0.0000000000000000e+00">
        <Node pos="l" depth="1" Seq="0" IVar="-1" Cut="0.0000000000000000e+00" cType="1" nS="2.8502141113281250e+03" nB="6.6650131835937500e+03" nEv="9.5152275390625000e+03" nSuw="2.3850000000000000e+03" nBuw="4.9510000000000000e+03" nEvuw="7.3360000000000000e+03" sepI="1.8696269392967224e-01" sepG="-1.0000000000000000e+00" res="6.9202091544866562e-03" rms="4.3239182233810425e-01" nType="-1" CC="0.0000000000000000e+00"/>
        <Node pos="r" depth="1" Seq="1" IVar="5" Cut="-9.4866180419921875e-01" cType="0" nS="5.0170898437500000e+03" nB="5.0434136718750000e+04" nEv="5.5451226562500000e+04" nSuw="4.3250000000000000e+03" nBuw="3.7421000000000000e+04" nEvuw="4.1746000000000000e+04" sepI="6.7638076841831207e-02" sepG="6.7079823929816484e-04" res="-7.3138564825057983e-02" rms="2.6007321476936340e-01" nType="0" CC="0.0000000000000000e+00">
          <Node pos="l" depth="2" Seq="1" IVar="-1" Cut="0.0000000000000000e+00" cType="1" nS="3.8694199218750000e+03" nB="2.1814767578125000e+04" nEv="2.5684187500000000e+04" nSuw="2.9840000000000000e+03" nBuw="1.6682000000000000e+04" nEvuw="1.9666000000000000e+04" sepI="1.0734801739454269e-01" sepG="-1.0000000000000000e+00" res="-1.0947625152766705e-02" rms="3.2764005661010742e-01" nType="-1" CC="0.0000000000000000e+00"/>
          <Node pos="r" depth="2" Seq="3" IVar="-1" Cut="0.0000000000000000e+00" cType="1" nS="1.1476697998046875e+03" nB="2.8619369140625000e+04" nEv="2.9767039062500000e+04" nSuw="1.3410000000000000e+03" nBuw="2.0739000000000000e+04" nEvuw="2.2080000000000000e+04" sepI="3.2125167548656464e-02" sepG="-1.0000000000000000e+00" res="-3.2828398048877716e-02" rms="1.7923495173454285e-01" nType="-1" CC="0.0000000000000000e+00"/>
        </Node>
      </Node>
    </BinaryTree>
    <BinaryTree type="DecisionTree" boostWeight="1.0000000000000000e+00" itree="24">
      <Node pos="s" depth="0" Seq="0" IVar="2" Cut="4.2849746346473694e-01" cType="1" nS="8.3845664062500000e+03" nB="5.6913789062500000e+04" nEv="6.5298359375000000e+04" nSuw="6.9210000000000000e+03" nBuw="4.2161000000000000e+04" nEvuw="4.9082000000000000e+04" sepI="9.0675301849842072e-02" sepG="1.5220661880448461e-03" res="-4.8556182533502579e-02" rms="3.0112341046333313e-01" nType="0" CC="0.0000000000000000e+00">
        <Node pos="l" depth="1" Seq="0" IVar="-1" Cut="0.0000000000000000e+00" cType="1" nS="7.5426235351562500e+03" nB="1.8977435546875000e+04" nEv="2.6520058593750000e+04" nSuw="6.1210000000000000e+03" nBuw="9.5570000000000000e+03" nEvuw="1.5678000000000000e+04" sepI="1.9148445129394531e-01" sepG="-1.0000000000000000e+00" res="-8.2754815230146050e-04" rms="4.3758937716484070e-01" nType="-1" CC="0.0000000000000000e+00"/>
        <Node pos="r" depth="1" Seq="1" IVar="2" Cut="8.3589434623718262e-01" cType="1" nS="8.4194305419921875e+02" nB="3.7936355468750000e+04" nEv="3.8778296875000000e+04" nSuw="8.0000000000000000e+02" nBuw="3.2604000000000000e+04" nEvuw="3.3404000000000000e+04" sepI="1.9170025363564491e-02" sepG="1.4210488006938249e-04" res="-8.0819547176361084e-02" rms="1.3845586776733398e-01" nType="0" CC="0.0000000000000000e+00">
          <Node pos="l" depth="2" Seq="1" IVar="-1" Cut="0.0000000000000000e+00" cType="1" nS="7.3926739501953125e+02" nB="9.3730830078125000e+03" nEv="1.0112350585937500e+04" nSuw="6.4700000000000000e+02" nBuw="4.9880000000000000e+03" nEvuw="5.6350000000000000e+03" sepI="6.1948928982019424e-02" sepG="-1.0000000000000000e+00" res="-1.9145332276821136e-02" rms="2.4889542162418365e-01" nType="-1" CC="0.0000000000000000e+00"/>
          <Node pos="r" depth="2" Seq="3" IVar="-1" Cut="0.0000000000000000e+00" cType="1" nS="1.0267567443847656e+02" nB="2.8563271484375000e+04" nEv="2.8665947265625000e+04" nSuw="1.5300000000000000e+02" nBuw="2.7616000000000000e+04" nEvuw="2.7769000000000000e+04" sepI="3.8868798874318600e-03" sepG="-1.0000000000000000e+00" res="-4.8694305121898651e-02" rms="6.2344849109649658e-02" nType="-1" CC="0.0000000000000000e+00"/>
        </Node>
      </Node>
    </BinaryTree>
    <BinaryTree type="DecisionTree" boostWeight="1.0000000000000000e+00" itree="25">
      <Node pos="s" depth="0" Seq="0" IVar="2" Cut="4.2839688062667847e-01" cType="1" nS="8.2496601562500000e+03" nB="5.7314429687500000e+04" nEv="6.5564085937500000e+04" nSuw="6.8180000000000000e+03" nBuw="4.2264000000000000e+04" nEvuw="4.9082000000000000e+04" sepI="8.8677652180194855e-02" sepG="1.1830019066110253e-03" res="-4.5448232442140579e-02" rms="2.9778793454170227e-01" nType="0" CC="0.0000000000000000e+00">
        <Node pos="l" depth="1" Seq="0" IVar="-1" Cut="0.0000000000000000e+00" cType="1" nS="7.3894355468750000e+03" nB="1.8949660156250000e+04" nEv="2.6339095703125000e+04" nSuw="6.0600000000000000e+03" nBuw="9.4630000000000000e+03" nEvuw="1.5523000000000000e+04" sepI="1.8902739882469177e-01" sepG="-1.0000000000000000e+00" res="-7.6500652357935905e-04" rms="4.3477281928062439e-01" nType="-1" CC="0.0000000000000000e+00"/>
        <Node pos="r" depth="1" Seq="1" IVar="2" Cut="7.2726434469223022e-01" cType="1" nS="8.6022467041015625e+02" nB="3.8364769531250000e+04" nEv="3.9224996093750000e+04" nSuw="7.5800000000000000e+02" nBuw="3.2801000000000000e+04" nEvuw="3.3559000000000000e+04" sepI="1.9316671416163445e-02" sepG="1.5447870828211308e-04" res="-7.3632821440696716e-02" rms="1.3898442685604095e-01" nType="0" CC="0.0000000000000000e+00">
          <Node pos="l" depth="2" Seq="1" IVar="-1" Cut="0.0000000000000000e+00" cType="1" nS="6.6982556152343750e+02" nB="6.6450551757812500e+03" nEv="7.3148808593750000e+03" nSuw="5.3500000000000000e+02" nBuw="3.4680000000000000e+03" nEvuw="4.0030000000000000e+03" sepI="7.6525583863258362e-02" sepG="-1.0000000000000000e+00" res="-1.6036387532949448e-02" rms="2.7663257718086243e-01" nType="-1" CC="0.0000000000000000e+00"/>
          <Node pos="r" depth="2" Seq="3" IVar="-1" Cut="0.0000000000000000e+00" cType="1" nS="1.9039909362792969e+02" nB="3.1719714843750000e+04" nEv="3.1910113281250000e+04" nSuw="2.2300000000000000e+02" nBuw="2.9333000000000000e+04" nEvuw="2.9556000000000000e+04" sepI="6.0125561431050301e-03" sepG="-1.0000000000000000e+00" res="-4.5687504112720490e-02" rms="7.7540673315525055e-02" nType="-1" CC="0.0000000000000000e+00"/>
        </Node>
      </Node>
    </BinaryTree>
    <BinaryTree type="DecisionTree" boostWeight="1.0000000000000000e+00" itree="26">
      <Node pos="s" depth="0" Seq="0" IVar="2" Cut="-4.6374041587114334e-02" cType="1" nS="8.4758652343750000e+03" nB="5.6783171875000000e+04" nEv="6.5259035156250000e+04" nSuw="6.8350000000000000e+03" nBuw="4.2247000000000000e+04" nEvuw="4.9082000000000000e+04" sepI="9.0639889240264893e-02" sepG="1.3802340254187584e-03" res="-3.6974225193262100e-02" rms="3.0106461048126221e-01" nType="0" CC="0.0000000000000000e+00">
        <Node pos="l" depth="1" Seq="0" IVar="-1" Cut="0.0000000000000000e+00" cType="1" nS="5.8813530273437500e+03" nB="1.1082928710937500e+04" nEv="1.6964281250000000e+04" nSuw="4.7550000000000000e+03" nBuw="5.8200000000000000e+03" nEvuw="1.0575000000000000e+04" sepI="2.1960470080375671e-01" sepG="-1.0000000000000000e+00" res="1.4877427602186799e-03" rms="4.6862000226974487e-01" nType="-1" CC="0.0000000000000000e+00"/>
        <Node pos="r" depth="1" Seq="1" IVar="3" Cut="-4.2938005924224854e-01" cType="0" nS="2.5945124511718750e+03" nB="4.5700242187500000e+04" nEv="4.8294753906250000e+04" nSuw="2.0800000000000000e+03" nBuw="3.6427000000000000e+04" nEvuw="3.8507000000000000e+04" sepI="4.3473936617374420e-02" sepG="4.4413507566787302e-04" res="-5.8993048965930939e-02" rms="2.0850405097007751e-01" nType="0" CC="0.0000000000000000e+00">
          <Node pos="l" depth="2" Seq="1" IVar="-1" Cut="0.0000000000000000e+00" cType="1" nS="1.5954666748046875e+03" nB="8.8623554687500000e+03" nEv="1.0457822265625000e+04" nSuw="1.3220000000000000e+03" nBuw="6.5320000000000000e+03" nEvuw="7.8540000000000000e+03" sepI="1.1581733822822571e-01" sepG="-1.0000000000000000e+00" res="-4.7124857082962990e-03" rms="3.4031945466995239e-01" nType="-1" CC="0.0000000000000000e+00"/>
          <Node pos="r" depth="2" Seq="3" IVar="-1" Cut="0.0000000000000000e+00" cType="1" nS="9.9904565429687500e+02" nB="3.6837886718750000e+04" nEv="3.7836933593750000e+04" nSuw="7.5800000000000000e+02" nBuw="2.9895000000000000e+04" nEvuw="3.0653000000000000e+04" sepI="2.2911917418241501e-02" sepG="-1.0000000000000000e+00" res="-3.4170296043157578e-02" rms="1.5136682987213135e-01" nType="-1" CC="0.0000000000000000e+00"/>
        </Node>
      </Node>
    </BinaryTree>
    <BinaryTree type="DecisionTree" boostWeight="1.0000000000000000e+00" itree="27">
      <Node pos="s" depth="0" Seq="0" IVar="3" Cut="-6.1878007650375366e-01" cType="0" nS="8.2058984375000000e+03" nB="5.7004757812500000e+04" nEv="6.5210656250000000e+04" nSuw="6.7660000000000000e+03" nBuw="4.2316000000000000e+04" nEvuw="4.9082000000000000e+04" sepI="8.9246183633804321e-02" sepG="9.8810484632849693e-04" res="-3.8997903466224670e-02" rms="2.9874101281166077e-01" nType="0" CC="0.0000000000000000e+00">
        <Node pos="l" depth="1" Seq="0" IVar="-1" Cut="0.0000000000000000e+00" cType="1" nS="4.3935771484375000e+03" nB="1.6083966796875000e+04" nEv="2.0477542968750000e+04" nSuw="3.1920000000000000e+03" nBuw="1.0863000000000000e+04" nEvuw="1.4055000000000000e+04" sepI="1.4525577425956726e-01" sepG="-1.0000000000000000e+00" res="1.4379017520695925e-03" rms="3.8112434744834900e-01" nType="-1" CC="0.0000000000000000e+00"/>
        <Node pos="r" depth="1" Seq="1" IVar="2" Cut="-6.1536282300949097e-01" cType="1" nS="3.8123208007812500e+03" nB="4.0920789062500000e+04" nEv="4.4733109375000000e+04" nSuw="3.5740000000000000e+03" nBuw="3.1453000000000000e+04" nEvuw="3.5027000000000000e+04" sepI="6.2166161835193634e-02" sepG="8.4234960377216339e-04" res="-6.0265865176916122e-02" rms="2.4933142960071564e-01" nType="0" CC="0.0000000000000000e+00">
          <Node pos="l" depth="2" Seq="1" IVar="-1" Cut="0.0000000000000000e+00" cType="1" nS="1.7368292236328125e+03" nB="3.1638959960937500e+03" nEv="4.9007250976562500e+03" nSuw="2.0110000000000000e+03" nBuw="2.1860000000000000e+03" nEvuw="4.1970000000000000e+03" sepI="2.2433739900588989e-01" sepG="-1.0000000000000000e+00" res="3.9045712910592556e-03" rms="4.7364267706871033e-01" nType="-1" CC="0.0000000000000000e+00"/>
          <Node pos="r" depth="2" Seq="3" IVar="-1" Cut="0.0000000000000000e+00" cType="1" nS="2.0754914550781250e+03" nB="3.7756894531250000e+04" nEv="3.9832386718750000e+04" nSuw="1.5630000000000000e+03" nBuw="2.9267000000000000e+04" nEvuw="3.0830000000000000e+04" sepI="4.1267648339271545e-02" sepG="-1.0000000000000000e+00" res="-2.6673249900341034e-02" rms="2.0314440131187439e-01" nType="-1" CC="0.0000000000000000e+00"/>
        </Node>
      </Node>
    </BinaryTree>
    <BinaryTree type="DecisionTree" boostWeight="1.0000000000000000e+00" itree="28">
      <Node pos="s" depth="0" Seq="0" IVar="2" Cut="2.3838579654693604e-01" cType="1" nS="8.3296406250000000e+03" nB="5.6874457031250000e+04" nEv="6.5204097656250000e+04" nSuw="6.8650000000000000e+03" nBuw="4.2217000000000000e+04" nEvuw="4.9082000000000000e+04" sepI="8.8982477784156799e-02" sepG="1.1444601695984602e-03" res="-3.3871550112962723e-02" rms="2.9829931259155273e-01" nType="0" CC="0.0000000000000000e+00">
        <Node pos="l" depth="1" Seq="0" IVar="-1" Cut="0.0000000000000000e+00" cType="1" nS="6.9035014648437500e+03" nB="1.5413587890625000e+04" nEv="2.2317089843750000e+04" nSuw="5.6170000000000000e+03" nBuw="7.9450000000000000e+03" nEvuw="1.3562000000000000e+04" sepI="2.0252785086631775e-01" sepG="-1.0000000000000000e+00" res="1.1127416510134935e-03" rms="4.5003095269203186e-01" nType="-1" CC="0.0000000000000000e+00"/>
        <Node pos="r" depth="1" Seq="1" IVar="3" Cut="-2.3852281272411346e-01" cType="0" nS="1.4261394042968750e+03" nB="4.1460871093750000e+04" nEv="4.2887007812500000e+04" nSuw="1.2480000000000000e+03" nBuw="3.4272000000000000e+04" nEvuw="3.5520000000000000e+04" sepI="2.8156936168670654e-02" sepG="2.0611776562873274e-04" res="-5.8275282382965088e-02" rms="1.6780029237270355e-01" nType="0" CC="0.0000000000000000e+00">
          <Node pos="l" depth="2" Seq="1" IVar="-1" Cut="0.0000000000000000e+00" cType="1" nS="8.1403088378906250e+02" nB="5.5321982421875000e+03" nEv="6.3462290039062500e+03" nSuw="6.9200000000000000e+02" nBuw="4.3350000000000000e+03" nEvuw="5.0270000000000000e+03" sepI="1.0199093818664551e-01" sepG="-1.0000000000000000e+00" res="-8.9328428730368614e-03" rms="3.1936019659042358e-01" nType="-1" CC="0.0000000000000000e+00"/>
          <Node pos="r" depth="2" Seq="3" IVar="-1" Cut="0.0000000000000000e+00" cType="1" nS="6.1210852050781250e+02" nB="3.5928671875000000e+04" nEv="3.6540781250000000e+04" nSuw="5.5600000000000000e+02" nBuw="2.9937000000000000e+04" nEvuw="3.0493000000000000e+04" sepI="1.5091883018612862e-02" sepG="-1.0000000000000000e+00" res="-3.5349301993846893e-02" rms="1.2284902483224869e-01" nType="-1" CC="0.0000000000000000e+00"/>
        </Node>
      </Node>
    </BinaryTree>
    <BinaryTree type="DecisionTree" boostWeight="1.0000000000000000e+00" itree="29">
      <Node pos="s" depth="0" Seq="0" IVar="5" Cut="-8.2181859016418457e-01" cType="0" nS="8.2271464843750000e+03" nB="5.6661632812500000e+04" nEv="6.4888781250000000e+04" nSuw="6.9040000000000000e+03" nBuw="4.2178000000000000e+04" nEvuw="4.9082000000000000e+04" sepI="8.8550768792629242e-02" sepG="1.5948839718475938e-03" res="-3.1909141689538956e-02" rms="2.9757481813430786e-01" nType="0" CC="0.0000000000000000e+00">
        <Node pos="l" depth="1" Seq="0" IVar="-1" Cut="0.0000000000000000e+00" cType="1" nS="4.3620048828125000e+03" nB="1.1102246093750000e+04" nEv="1.5464251953125000e+04" nSuw="3.3660000000000000e+03" nBuw="7.9740000000000000e+03" nEvuw="1.1340000000000000e+04" sepI="1.7678789794445038e-01" sepG="-1.0000000000000000e+00" res="5.9987860731780529e-03" rms="4.2046153545379639e-01" nType="-1" CC="0.0000000000000000e+00"/>
        <Node pos="r" depth="1" Seq="1" IVar="2" Cut="-6.1649680137634277e-01" cType="1" nS="3.8651416015625000e+03" nB="4.5559386718750000e+04" nEv="4.9424527343750000e+04" nSuw="3.5380000000000000e+03" nBuw="3.4204000000000000e+04" nEvuw="3.7742000000000000e+04" sepI="5.8848686516284943e-02" sepG="2.9347636154852808e-04" res="-5.4247833788394928e-02" rms="2.4258747696876526e-01" nType="0" CC="0.0000000000000000e+00">
          <Node pos="l" depth="2" Seq="1" IVar="-1" Cut="0.0000000000000000e+00" cType="1" nS="1.6089851074218750e+03" nB="3.2533886718750000e+03" nEv="4.8623740234375000e+03" nSuw="1.9770000000000000e+03" nBuw="2.0790000000000000e+03" nEvuw="4.0560000000000000e+03" sepI="2.1887654066085815e-01" sepG="-1.0000000000000000e+00" res="7.8490056330338120e-04" rms="4.6784242987632751e-01" nType="-1" CC="0.0000000000000000e+00"/>
          <Node pos="r" depth="2" Seq="3" IVar="-1" Cut="0.0000000000000000e+00" cType="1" nS="2.2561564941406250e+03" nB="4.2305996093750000e+04" nEv="4.4562156250000000e+04" nSuw="1.5610000000000000e+03" nBuw="3.2125000000000000e+04" nEvuw="3.3686000000000000e+04" sepI="4.1061840951442719e-02" sepG="-1.0000000000000000e+00" res="-2.3791909217834473e-02" rms="2.0263721048831940e-01" nType="-1" CC="0.0000000000000000e+00"/>
        </Node>
      </Node>
    </BinaryTree>
    <BinaryTree type="DecisionTree" boostWeight="1.0000000000000000e+00" itree="30">
      <Node pos="s" depth="0" Seq="0" IVar="5" Cut="-9.1330093145370483e-01" cType="0" nS="8.3451171875000000e+03" nB="5.7557644531250000e+04" nEv="6.5902765625000000e+04" nSuw="6.7100000000000000e+03" nBuw="4.2372000000000000e+04" nEvuw="4.9082000000000000e+04" sepI="8.8110350072383881e-02" sepG="1.2370110489428043e-03" res="-2.9286341741681099e-02" rms="2.9683387279510498e-01" nType="0" CC="0.0000000000000000e+00">
        <Node pos="l" depth="1" Seq="0" IVar="-1" Cut="0.0000000000000000e+00" cType="1" nS="6.1662695312500000e+03" nB="2.1228435546875000e+04" nEv="2.7394705078125000e+04" nSuw="4.5840000000000000e+03" nBuw="1.5642000000000000e+04" nEvuw="2.0226000000000000e+04" sepI="1.4595474302768707e-01" sepG="-1.0000000000000000e+00" res="1.6611943719908595e-03" rms="3.8204023241996765e-01" nType="-1" CC="0.0000000000000000e+00"/>
        <Node pos="r" depth="1" Seq="1" IVar="3" Cut="-6.1934179067611694e-01" cType="0" nS="2.1788471679687500e+03" nB="3.6329210937500000e+04" nEv="3.8508058593750000e+04" nSuw="2.1260000000000000e+03" nBuw="2.6730000000000000e+04" nEvuw="2.8856000000000000e+04" sepI="4.4842708855867386e-02" sepG="2.9333843849599361e-04" res="-5.8951336890459061e-02" rms="2.1176096796989441e-01" nType="0" CC="0.0000000000000000e+00">
          <Node pos="l" depth="2" Seq="1" IVar="-1" Cut="0.0000000000000000e+00" cType="1" nS="4.6123052978515625e+02" nB="3.7916474609375000e+03" nEv="4.2528779296875000e+03" nSuw="2.1500000000000000e+02" nBuw="2.4390000000000000e+03" nEvuw="2.6540000000000000e+03" sepI="8.4298759698867798e-02" sepG="-1.0000000000000000e+00" res="-7.9199178144335747e-03" rms="2.9034247994422913e-01" nType="-1" CC="0.0000000000000000e+00"/>
          <Node pos="r" depth="2" Seq="3" IVar="-1" Cut="0.0000000000000000e+00" cType="1" nS="1.7176165771484375e+03" nB="3.2537562500000000e+04" nEv="3.4255179687500000e+04" nSuw="1.9110000000000000e+03" nBuw="2.4291000000000000e+04" nEvuw="2.6202000000000000e+04" sepI="3.9614371955394745e-02" sepG="-1.0000000000000000e+00" res="-2.5907671079039574e-02" rms="1.9903358817100525e-01" nType="-1" CC="0.0000000000000000e+00"/>
        </Node>
      </Node>
    </BinaryTree>
    <BinaryTree type="DecisionTree" boostWeight="1.0000000000000000e+00" itree="31">
      <Node pos="s" depth="0" Seq="0" IVar="2" Cut="4.2871984839439392e-01" cType="1" nS="8.4871962890625000e+03" nB="5.7299363281250000e+04" nEv="6.5786562500000000e+04" nSuw="6.7420000000000000e+03" nBuw="4.2340000000000000e+04" nEvuw="4.9082000000000000e+04" sepI="9.0131603181362152e-02" sepG="1.0411256225779653e-03" res="-2.6827024295926094e-02" rms="3.0021926760673523e-01" nType="0" CC="0.0000000000000000e+00">
        <Node pos="l" depth="1" Seq="0" IVar="-1" Cut="0.0000000000000000e+00" cType="1" nS="7.5941030273437500e+03" nB="1.9123769531250000e+04" nEv="2.6717871093750000e+04" nSuw="5.9680000000000000e+03" nBuw="9.5880000000000000e+03" nEvuw="1.5556000000000000e+04" sepI="1.8944711983203888e-01" sepG="-1.0000000000000000e+00" res="1.8158265156671405e-03" rms="4.3525522947311401e-01" nType="-1" CC="0.0000000000000000e+00"/>
        <Node pos="r" depth="1" Seq="1" IVar="2" Cut="8.0882418155670166e-01" cType="1" nS="8.9309301757812500e+02" nB="3.8175597656250000e+04" nEv="3.9068687500000000e+04" nSuw="7.7400000000000000e+02" nBuw="3.2752000000000000e+04" nEvuw="3.3526000000000000e+04" sepI="2.0459664985537529e-02" sepG="1.0066053800983354e-04" res="-5.3510233759880066e-02" rms="1.4303728938102722e-01" nType="0" CC="0.0000000000000000e+00">
          <Node pos="l" depth="2" Seq="1" IVar="-1" Cut="0.0000000000000000e+00" cType="1" nS="7.5193756103515625e+02" nB="8.6366406250000000e+03" nEv="9.3885781250000000e+03" nSuw="5.8800000000000000e+02" nBuw="4.5530000000000000e+03" nEvuw="5.1410000000000000e+03" sepI="6.9057449698448181e-02" sepG="-1.0000000000000000e+00" res="-1.2319537810981274e-02" rms="2.6278784871101379e-01" nType="-1" CC="0.0000000000000000e+00"/>
          <Node pos="r" depth="2" Seq="3" IVar="-1" Cut="0.0000000000000000e+00" cType="1" nS="1.4115544128417969e+02" nB="2.9538955078125000e+04" nEv="2.9680111328125000e+04" nSuw="1.8600000000000000e+02" nBuw="2.8199000000000000e+04" nEvuw="2.8385000000000000e+04" sepI="4.9544423818588257e-03" sepG="-1.0000000000000000e+00" res="-4.5412410050630569e-02" rms="7.0387803018093109e-02" nType="-1" CC="0.0000000000000000e+00"/>
        </Node>
      </Node>
    </BinaryTree>
    <BinaryTree type="DecisionTree" boostWeight="1.0000000000000000e+00" itree="32">
      <Node pos="s" depth="0" Seq="0" IVar="5" Cut="-7.3304802179336548e-01" cType="0" nS="8.0787534179687500e+03" nB="5.6379937500000000e+04" nEv="6.4458691406250000e+04" nSuw="6.8750000000000000e+03" nBuw="4.2207000000000000e+04" nEvuw="4.9082000000000000e+04" sepI="8.7695233523845673e-02" sepG="9.0072141028940678e-04" res="-2.5969536975026131e-02" rms="2.9613381624221802e-01" nType="0" CC="0.0000000000000000e+00">
        <Node pos="l" depth="1" Seq="0" IVar="-1" Cut="0.0000000000000000e+00" cType="1" nS="2.9193718261718750e+03" nB="6.9531879882812500e+03" nEv="9.8725595703125000e+03" nSuw="2.4980000000000000e+03" nBuw="5.1230000000000000e+03" nEvuw="7.6210000000000000e+03" sepI="1.8261905014514923e-01" sepG="-1.0000000000000000e+00" res="9.9387895315885544e-03" rms="4.2733949422836304e-01" nType="-1" CC="0.0000000000000000e+00"/>
        <Node pos="r" depth="1" Seq="1" IVar="2" Cut="-3.3194926381111145e-01" cType="1" nS="5.1593813476562500e+03" nB="4.9426750000000000e+04" nEv="5.4586132812500000e+04" nSuw="4.3770000000000000e+03" nBuw="3.7084000000000000e+04" nEvuw="4.1461000000000000e+04" sepI="6.9463491439819336e-02" sepG="5.3032388677820563e-04" res="-3.8733012974262238e-02" rms="2.6355928182601929e-01" nType="0" CC="0.0000000000000000e+00">
          <Node pos="l" depth="2" Seq="1" IVar="-1" Cut="0.0000000000000000e+00" cType="1" nS="3.1578750000000000e+03" nB="6.7397412109375000e+03" nEv="9.8976162109375000e+03" nSuw="3.0460000000000000e+03" nBuw="3.7700000000000000e+03" nEvuw="6.8160000000000000e+03" sepI="2.1157881617546082e-01" sepG="-1.0000000000000000e+00" res="2.1664057858288288e-03" rms="4.5997697114944458e-01" nType="-1" CC="0.0000000000000000e+00"/>
          <Node pos="r" depth="2" Seq="3" IVar="-1" Cut="0.0000000000000000e+00" cType="1" nS="2.0015064697265625e+03" nB="4.2687007812500000e+04" nEv="4.4688515625000000e+04" nSuw="1.3310000000000000e+03" nBuw="3.3314000000000000e+04" nEvuw="3.4645000000000000e+04" sepI="3.7340000271797180e-02" sepG="-1.0000000000000000e+00" res="-2.3331426084041595e-02" rms="1.9323560595512390e-01" nType="-1" CC="0.0000000000000000e+00"/>
        </Node>
      </Node>
    </BinaryTree>
    <BinaryTree type="DecisionTree" boostWeight="1.0000000000000000e+00" itree="33">
      <Node pos="s" depth="0" Seq="0" IVar="5" Cut="-9.1059225797653198e-01" cType="0" nS="8.2207148437500000e+03" nB="5.7186394531250000e+04" nEv="6.5407109375000000e+04" nSuw="6.8210000000000000e+03" nBuw="4.2261000000000000e+04" nEvuw="4.9082000000000000e+04" sepI="8.7186388671398163e-02" sepG="9.6040160860866308e-04" res="-2.2871889173984528e-02" rms="2.9527342319488525e-01" nType="0" CC="0.0000000000000000e+00">
        <Node pos="l" depth="1" Seq="0" IVar="-1" Cut="0.0000000000000000e+00" cType="1" nS="5.9799428710937500e+03" nB="2.0633138671875000e+04" nEv="2.6613082031250000e+04" nSuw="4.5910000000000000e+03" nBuw="1.5246000000000000e+04" nEvuw="1.9837000000000000e+04" sepI="1.4573247730731964e-01" sepG="-1.0000000000000000e+00" res="2.7478046249598265e-03" rms="3.8174924254417419e-01" nType="-1" CC="0.0000000000000000e+00"/>
        <Node pos="r" depth="1" Seq="1" IVar="3" Cut="-7.1433335542678833e-01" cType="0" nS="2.2407722167968750e+03" nB="3.6553257812500000e+04" nEv="3.8794027343750000e+04" nSuw="2.2300000000000000e+03" nBuw="2.7015000000000000e+04" nEvuw="2.9245000000000000e+04" sepI="4.5403961092233658e-02" sepG="2.5812094099819660e-04" res="-4.8539862036705017e-02" rms="2.1308204531669617e-01" nType="0" CC="0.0000000000000000e+00">
          <Node pos="l" depth="2" Seq="1" IVar="-1" Cut="0.0000000000000000e+00" cType="1" nS="6.3427954101562500e+02" nB="5.6441616210937500e+03" nEv="6.2784409179687500e+03" nSuw="3.5100000000000000e+02" nBuw="3.5550000000000000e+03" nEvuw="3.9060000000000000e+03" sepI="7.6930738985538483e-02" sepG="-1.0000000000000000e+00" res="-5.8576683513820171e-03" rms="2.7736392617225647e-01" nType="-1" CC="0.0000000000000000e+00"/>
          <Node pos="r" depth="2" Seq="3" IVar="-1" Cut="0.0000000000000000e+00" cType="1" nS="1.6064926757812500e+03" nB="3.0909095703125000e+04" nEv="3.2515587890625000e+04" nSuw="1.8790000000000000e+03" nBuw="2.3460000000000000e+04" nEvuw="2.5339000000000000e+04" sepI="3.9008487015962601e-02" sepG="-1.0000000000000000e+00" res="-2.4729371070861816e-02" rms="1.9750566780567169e-01" nType="-1" CC="0.0000000000000000e+00"/>
        </Node>
      </Node>
    </BinaryTree>
    <BinaryTree type="DecisionTree" boostWeight="1.0000000000000000e+00" itree="34">
      <Node pos="s" depth="0" Seq="0" IVar="2" Cut="1.4332501590251923e-01" cType="1" nS="8.3822558593750000e+03" nB="5.7047484375000000e+04" nEv="6.5429738281250000e+04" nSuw="6.8920000000000000e+03" nBuw="4.2190000000000000e+04" nEvuw="4.9082000000000000e+04" sepI="8.8380500674247742e-02" sepG="8.5249188123270869e-04" res="-2.0586339756846428e-02" rms="2.9728856682777405e-01" nType="0" CC="0.0000000000000000e+00">
        <Node pos="l" depth="1" Seq="0" IVar="-1" Cut="0.0000000000000000e+00" cType="1" nS="6.6267329101562500e+03" nB="1.4407956054687500e+04" nEv="2.1034689453125000e+04" nSuw="5.3270000000000000e+03" nBuw="7.3570000000000000e+03" nEvuw="1.2684000000000000e+04" sepI="2.0338229835033417e-01" sepG="-1.0000000000000000e+00" res="3.2532326877117157e-03" rms="4.5097926259040833e-01" nType="-1" CC="0.0000000000000000e+00"/>
        <Node pos="r" depth="1" Seq="1" IVar="3" Cut="-1.4426197111606598e-01" cType="0" nS="1.7555234375000000e+03" nB="4.2639527343750000e+04" nEv="4.4395050781250000e+04" nSuw="1.5650000000000000e+03" nBuw="3.4833000000000000e+04" nEvuw="3.6398000000000000e+04" sepI="3.2635420560836792e-02" sepG="2.3837336630094796e-04" res="-4.0684018284082413e-02" rms="1.8065275251865387e-01" nType="0" CC="0.0000000000000000e+00">
          <Node pos="l" depth="2" Seq="1" IVar="-1" Cut="0.0000000000000000e+00" cType="1" nS="8.4894696044921875e+02" nB="4.8183295898437500e+03" nEv="5.6672763671875000e+03" nSuw="7.3600000000000000e+02" nBuw="3.6860000000000000e+03" nEvuw="4.4220000000000000e+03" sepI="1.1448255181312561e-01" sepG="-1.0000000000000000e+00" res="-3.4380161669105291e-03" rms="3.3835271000862122e-01" nType="-1" CC="0.0000000000000000e+00"/>
          <Node pos="r" depth="2" Seq="3" IVar="-1" Cut="0.0000000000000000e+00" cType="1" nS="9.0657647705078125e+02" nB="3.7821195312500000e+04" nEv="3.8727773437500000e+04" nSuw="8.2900000000000000e+02" nBuw="3.1147000000000000e+04" nEvuw="3.1976000000000000e+04" sepI="2.0384961739182472e-02" sepG="-1.0000000000000000e+00" res="-2.8793580830097198e-02" rms="1.4277592301368713e-01" nType="-1" CC="0.0000000000000000e+00"/>
        </Node>
      </Node>
    </BinaryTree>
    <BinaryTree type="DecisionTree" boostWeight="1.0000000000000000e+00" itree="35">
      <Node pos="s" depth="0" Seq="0" IVar="2" Cut="5.2346807718276978e-01" cType="1" nS="8.5695263671875000e+03" nB="5.6837023437500000e+04" nEv="6.5406550781250000e+04" nSuw="6.9130000000000000e+03" nBuw="4.2169000000000000e+04" nEvuw="4.9082000000000000e+04" sepI="8.9834496378898621e-02" sepG="1.0179963428527117e-03" res="-1.5295534394681454e-02" rms="2.9972404241561890e-01" nType="0" CC="0.0000000000000000e+00">
        <Node pos="l" depth="1" Seq="0" IVar="-1" Cut="0.0000000000000000e+00" cType="1" nS="7.8945722656250000e+03" nB="2.0284650390625000e+04" nEv="2.8179222656250000e+04" nSuw="6.3310000000000000e+03" nBuw="1.0321000000000000e+04" nEvuw="1.6652000000000000e+04" sepI="1.8432421982288361e-01" sepG="-1.0000000000000000e+00" res="2.4362064432352781e-03" rms="4.2932996153831482e-01" nType="-1" CC="0.0000000000000000e+00"/>
        <Node pos="r" depth="1" Seq="1" IVar="2" Cut="8.1778645515441895e-01" cType="1" nS="6.7495404052734375e+02" nB="3.6552371093750000e+04" nEv="3.7227328125000000e+04" nSuw="5.8200000000000000e+02" nBuw="3.1848000000000000e+04" nEvuw="3.2430000000000000e+04" sepI="1.6521936282515526e-02" sepG="8.8594570115674287e-05" res="-4.3054718524217606e-02" rms="1.2853768467903137e-01" nType="0" CC="0.0000000000000000e+00">
          <Node pos="l" depth="2" Seq="1" IVar="-1" Cut="0.0000000000000000e+00" cType="1" nS="5.3229559326171875e+02" nB="6.6246005859375000e+03" nEv="7.1568964843750000e+03" nSuw="4.0000000000000000e+02" nBuw="3.5940000000000000e+03" nEvuw="3.9940000000000000e+03" sepI="6.5023265779018402e-02" sepG="-1.0000000000000000e+00" res="-1.2043180875480175e-02" rms="2.5499659776687622e-01" nType="-1" CC="0.0000000000000000e+00"/>
          <Node pos="r" depth="2" Seq="3" IVar="-1" Cut="0.0000000000000000e+00" cType="1" nS="1.4265844726562500e+02" nB="2.9927771484375000e+04" nEv="3.0070429687500000e+04" nSuw="1.8200000000000000e+02" nBuw="2.8254000000000000e+04" nEvuw="2.8436000000000000e+04" sepI="4.8687229864299297e-03" sepG="-1.0000000000000000e+00" res="-4.4583171606063843e-02" rms="6.9776237010955811e-02" nType="-1" CC="0.0000000000000000e+00"/>
        </Node>
      </Node>
    </BinaryTree>
    <BinaryTree type="DecisionTree" boostWeight="1.0000000000000000e+00" itree="36">
      <Node pos="s" depth="0" Seq="0" IVar="3" Cut="-8.0929791927337646e-01" cType="0" nS="8.1703520507812500e+03" nB="5.7082617187500000e+04" nEv="6.5252968750000000e+04" nSuw="6.7390000000000000e+03" nBuw="4.2343000000000000e+04" nEvuw="4.9082000000000000e+04" sepI="8.6635939776897430e-02" sepG="8.2963489694520831e-04" res="-1.9363936036825180e-02" rms="2.9433983564376831e-01" nType="0" CC="0.0000000000000000e+00">
        <Node pos="l" depth="1" Seq="0" IVar="-1" Cut="0.0000000000000000e+00" cType="1" nS="6.3498935546875000e+03" nB="2.6577371093750000e+04" nEv="3.2927265625000000e+04" nSuw="4.6580000000000000e+03" nBuw="1.8312000000000000e+04" nEvuw="2.2970000000000000e+04" sepI="1.2805703282356262e-01" sepG="-1.0000000000000000e+00" res="2.0977554377168417e-03" rms="3.5785058140754700e-01" nType="-1" CC="0.0000000000000000e+00"/>
        <Node pos="r" depth="1" Seq="1" IVar="2" Cut="-8.0722928047180176e-01" cType="1" nS="1.8204583740234375e+03" nB="3.0505246093750000e+04" nEv="3.2325703125000000e+04" nSuw="2.0810000000000000e+03" nBuw="2.4031000000000000e+04" nEvuw="2.6112000000000000e+04" sepI="4.2769320309162140e-02" sepG="4.4927978888154030e-04" res="-4.8434089869260788e-02" rms="2.0680744946002960e-01" nType="0" CC="0.0000000000000000e+00">
          <Node pos="l" depth="2" Seq="1" IVar="-1" Cut="0.0000000000000000e+00" cType="1" nS="6.9283959960937500e+02" nB="1.1864680175781250e+03" nEv="1.8793076171875000e+03" nSuw="1.0630000000000000e+03" nBuw="9.4900000000000000e+02" nEvuw="2.0120000000000000e+03" sepI="2.3126341402530670e-01" sepG="-1.0000000000000000e+00" res="7.8094494529068470e-03" rms="4.8089852929115295e-01" nType="-1" CC="0.0000000000000000e+00"/>
          <Node pos="r" depth="2" Seq="3" IVar="-1" Cut="0.0000000000000000e+00" cType="1" nS="1.1276187744140625e+03" nB="2.9318777343750000e+04" nEv="3.0446396484375000e+04" nSuw="1.0180000000000000e+03" nBuw="2.3082000000000000e+04" nEvuw="2.4100000000000000e+04" sepI="3.0657488852739334e-02" sepG="-1.0000000000000000e+00" res="-2.6432093232870102e-02" rms="1.7509280145168304e-01" nType="-1" CC="0.0000000000000000e+00"/>
        </Node>
      </Node>
    </BinaryTree>
    <BinaryTree type="DecisionTree" boostWeight="1.0000000000000000e+00" itree="37">
      <Node pos="s" depth="0" Seq="0" IVar="2" Cut="-2.3689341545104980e-01" cType="1" nS="8.3782695312500000e+03" nB="5.6665968750000000e+04" nEv="6.5044238281250000e+04" nSuw="6.8180000000000000e+03" nBuw="4.2264000000000000e+04" nEvuw="4.9082000000000000e+04" sepI="8.8202238082885742e-02" sepG="8.8116159895434976e-04" res="-1.4766222797334194e-02" rms="2.9698860645294189e-01" nType="0" CC="0.0000000000000000e+00">
        <Node pos="l" depth="1" Seq="0" IVar="-1" Cut="0.0000000000000000e+00" cType="1" nS="4.7020107421875000e+03" nB="8.6215195312500000e+03" nEv="1.3323530273437500e+04" nSuw="3.9500000000000000e+03" nBuw="4.6180000000000000e+03" nEvuw="8.5680000000000000e+03" sepI="2.1819567680358887e-01" sepG="-1.0000000000000000e+00" res="5.7379538193345070e-03" rms="4.6711421012878418e-01" nType="-1" CC="0.0000000000000000e+00"/>
        <Node pos="r" depth="1" Seq="1" IVar="3" Cut="-5.2381736040115356e-01" cType="0" nS="3.6762592773437500e+03" nB="4.8044449218750000e+04" nEv="5.1720707031250000e+04" nSuw="2.8680000000000000e+03" nBuw="3.7646000000000000e+04" nEvuw="4.0514000000000000e+04" sepI="5.3607080131769180e-02" sepG="5.0947337877005339e-04" res="-2.9832474887371063e-02" rms="2.3153202235698700e-01" nType="0" CC="0.0000000000000000e+00">
          <Node pos="l" depth="2" Seq="1" IVar="-1" Cut="0.0000000000000000e+00" cType="1" nS="2.5491591796875000e+03" nB="1.1408840820312500e+04" nEv="1.3958000000000000e+04" nSuw="2.0540000000000000e+03" nBuw="8.3310000000000000e+03" nEvuw="1.0385000000000000e+04" sepI="1.2813995778560638e-01" sepG="-1.0000000000000000e+00" res="1.8905019387602806e-03" rms="3.5796642303466797e-01" nType="-1" CC="0.0000000000000000e+00"/>
          <Node pos="r" depth="2" Seq="3" IVar="-1" Cut="0.0000000000000000e+00" cType="1" nS="1.1271002197265625e+03" nB="3.6635605468750000e+04" nEv="3.7762707031250000e+04" nSuw="8.1400000000000000e+02" nBuw="2.9315000000000000e+04" nEvuw="3.0129000000000000e+04" sepI="2.5360155850648880e-02" sepG="-1.0000000000000000e+00" res="-2.6318579912185669e-02" rms="1.5924872457981110e-01" nType="-1" CC="0.0000000000000000e+00"/>
        </Node>
      </Node>
    </BinaryTree>
    <BinaryTree type="DecisionTree" boostWeight="1.0000000000000000e+00" itree="38">
      <Node pos="s" depth="0" Seq="0" IVar="2" Cut="5.2354675531387329e-01" cType="1" nS="8.3863974609375000e+03" nB="5.6310789062500000e+04" nEv="6.4697187500000000e+04" nSuw="6.8840000000000000e+03" nBuw="4.2198000000000000e+04" nEvuw="4.9082000000000000e+04" sepI="8.8662460446357727e-02" sepG="8.9192588347941637e-04" res="-1.2732014060020447e-02" rms="2.9776242375373840e-01" nType="0" CC="0.0000000000000000e+00">
        <Node pos="l" depth="1" Seq="0" IVar="-1" Cut="0.0000000000000000e+00" cType="1" nS="7.8007392578125000e+03" nB="2.0184472656250000e+04" nEv="2.7985210937500000e+04" nSuw="6.3480000000000000e+03" nBuw="1.0278000000000000e+04" nEvuw="1.6626000000000000e+04" sepI="1.8373720347881317e-01" sepG="-1.0000000000000000e+00" res="2.8332138899713755e-03" rms="4.2864575982093811e-01" nType="-1" CC="0.0000000000000000e+00"/>
        <Node pos="r" depth="1" Seq="1" IVar="5" Cut="-8.2973217964172363e-01" cType="0" nS="5.8565820312500000e+02" nB="3.6126320312500000e+04" nEv="3.6711976562500000e+04" nSuw="5.3600000000000000e+02" nBuw="3.1920000000000000e+04" nEvuw="3.2456000000000000e+04" sepI="1.4616007916629314e-02" sepG="7.3235110903624445e-05" res="-3.8807041943073273e-02" rms="1.2089668214321136e-01" nType="0" CC="0.0000000000000000e+00">
          <Node pos="l" depth="2" Seq="1" IVar="-1" Cut="0.0000000000000000e+00" cType="1" nS="3.6615719604492188e+02" nB="5.7242739257812500e+03" nEv="6.0904311523437500e+03" nSuw="3.6500000000000000e+02" nBuw="5.4190000000000000e+03" nEvuw="5.7840000000000000e+03" sepI="5.3167112171649933e-02" sepG="-1.0000000000000000e+00" res="-2.1539283916354179e-02" rms="2.3057995736598969e-01" nType="-1" CC="0.0000000000000000e+00"/>
          <Node pos="r" depth="2" Seq="3" IVar="-1" Cut="0.0000000000000000e+00" cType="1" nS="2.1950099182128906e+02" nB="3.0402044921875000e+04" nEv="3.0621544921875000e+04" nSuw="1.7100000000000000e+02" nBuw="2.6501000000000000e+04" nEvuw="2.6672000000000000e+04" sepI="6.8606366403400898e-03" sepG="-1.0000000000000000e+00" res="-3.7115313112735748e-02" rms="8.2828961312770844e-02" nType="-1" CC="0.0000000000000000e+00"/>
        </Node>
      </Node>
    </BinaryTree>
    <BinaryTree type="DecisionTree" boostWeight="1.0000000000000000e+00" itree="39">
      <Node pos="s" depth="0" Seq="0" IVar="5" Cut="-9.1059225797653198e-01" cType="0" nS="8.3064501953125000e+03" nB="5.7199070312500000e+04" nEv="6.5505519531250000e+04" nSuw="6.7270000000000000e+03" nBuw="4.2355000000000000e+04" nEvuw="4.9082000000000000e+04" sepI="8.7007954716682434e-02" sepG="5.9485784731805325e-04" res="-1.2397876940667629e-02" rms="2.9497110843658447e-01" nType="0" CC="0.0000000000000000e+00">
        <Node pos="l" depth="1" Seq="0" IVar="-1" Cut="0.0000000000000000e+00" cType="1" nS="5.9410722656250000e+03" nB="2.0723201171875000e+04" nEv="2.6664273437500000e+04" nSuw="4.5220000000000000e+03" nBuw="1.5343000000000000e+04" nEvuw="1.9865000000000000e+04" sepI="1.4414845407009125e-01" sepG="-1.0000000000000000e+00" res="4.1871601715683937e-03" rms="3.7966889142990112e-01" nType="-1" CC="0.0000000000000000e+00"/>
        <Node pos="r" depth="1" Seq="1" IVar="5" Cut="-9.6132022142410278e-01" cType="0" nS="2.3653776855468750e+03" nB="3.6475867187500000e+04" nEv="3.8841246093750000e+04" nSuw="2.2050000000000000e+03" nBuw="2.7012000000000000e+04" nEvuw="2.9217000000000000e+04" sepI="4.6778123825788498e-02" sepG="3.5569773172028363e-04" res="-3.2605949789285660e-02" rms="2.1628251671791077e-01" nType="0" CC="0.0000000000000000e+00">
          <Node pos="l" depth="2" Seq="1" IVar="-1" Cut="0.0000000000000000e+00" cType="1" nS="1.4262556152343750e+03" nB="1.2060973632812500e+04" nEv="1.3487229492187500e+04" nSuw="1.2300000000000000e+03" nBuw="9.7860000000000000e+03" nEvuw="1.1016000000000000e+04" sepI="7.5760491192340851e-02" sepG="-1.0000000000000000e+00" res="-5.9113800525665283e-03" rms="2.7524623274803162e-01" nType="-1" CC="0.0000000000000000e+00"/>
          <Node pos="r" depth="2" Seq="3" IVar="-1" Cut="0.0000000000000000e+00" cType="1" nS="9.3912207031250000e+02" nB="2.4414894531250000e+04" nEv="2.5354015625000000e+04" nSuw="9.7500000000000000e+02" nBuw="1.7226000000000000e+04" nEvuw="1.8201000000000000e+04" sepI="3.0815854668617249e-02" sepG="-1.0000000000000000e+00" res="-2.5673508644104004e-02" rms="1.7554445564746857e-01" nType="-1" CC="0.0000000000000000e+00"/>
        </Node>
      </Node>
    </BinaryTree>
    <BinaryTree type="DecisionTree" boostWeight="1.0000000000000000e+00" itree="40">
      <Node pos="s" depth="0" Seq="0" IVar="5" Cut="-9.1185265779495239e-01" cType="0" nS="8.1390678710937500e+03" nB="5.8361167968750000e+04" nEv="6.6500234375000000e+04" nSuw="6.8110000000000000e+03" nBuw="4.2271000000000000e+04" nEvuw="4.9082000000000000e+04" sepI="8.5174530744552612e-02" sepG="4.9055321142077446e-04" res="-1.7440300434827805e-02" rms="2.9184675216674805e-01" nType="0" CC="0.0000000000000000e+00">
        <Node pos="l" depth="1" Seq="0" IVar="-1" Cut="0.0000000000000000e+00" cType="1" nS="6.0025869140625000e+03" nB="2.1554642578125000e+04" nEv="2.7557228515625000e+04" nSuw="4.6400000000000000e+03" nBuw="1.5420000000000000e+04" nEvuw="2.0060000000000000e+04" sepI="1.4307777583599091e-01" sepG="-1.0000000000000000e+00" res="3.7140205968171358e-03" rms="3.7825623154640198e-01" nType="-1" CC="0.0000000000000000e+00"/>
        <Node pos="r" depth="1" Seq="1" IVar="3" Cut="-7.1433335542678833e-01" cType="0" nS="2.1364807128906250e+03" nB="3.6806523437500000e+04" nEv="3.8943003906250000e+04" nSuw="2.1710000000000000e+03" nBuw="2.6851000000000000e+04" nEvuw="2.9022000000000000e+04" sepI="4.3362796306610107e-02" sepG="1.8065969925373793e-04" res="-3.6071728914976120e-02" rms="2.0823734998703003e-01" nType="0" CC="0.0000000000000000e+00">
          <Node pos="l" depth="2" Seq="1" IVar="-1" Cut="0.0000000000000000e+00" cType="1" nS="6.2604992675781250e+02" nB="5.8757353515625000e+03" nEv="6.5017851562500000e+03" nSuw="3.2200000000000000e+02" nBuw="3.5750000000000000e+03" nEvuw="3.8970000000000000e+03" sepI="7.3416046798229218e-02" sepG="-1.0000000000000000e+00" res="-2.3500034585595131e-03" rms="2.7095395326614380e-01" nType="-1" CC="0.0000000000000000e+00"/>
          <Node pos="r" depth="2" Seq="3" IVar="-1" Cut="0.0000000000000000e+00" cType="1" nS="1.5104307861328125e+03" nB="3.0930789062500000e+04" nEv="3.2441220703125000e+04" nSuw="1.8490000000000000e+03" nBuw="2.3276000000000000e+04" nEvuw="2.5125000000000000e+04" sepI="3.7122733891010284e-02" sepG="-1.0000000000000000e+00" res="-2.0280849188566208e-02" rms="1.9267261028289795e-01" nType="-1" CC="0.0000000000000000e+00"/>
        </Node>
      </Node>
    </BinaryTree>
    <BinaryTree type="DecisionTree" boostWeight="1.0000000000000000e+00" itree="41">
      <Node pos="s" depth="0" Seq="0" IVar="2" Cut="7.1361780166625977e-01" cType="1" nS="8.2224921875000000e+03" nB="5.7389484375000000e+04" nEv="6.5611976562500000e+04" nSuw="6.7790000000000000e+03" nBuw="4.2303000000000000e+04" nEvuw="4.9082000000000000e+04" sepI="8.6501047015190125e-02" sepG="5.2305136341601610e-04" res="-1.3051961548626423e-02" rms="2.9411059617996216e-01" nType="0" CC="0.0000000000000000e+00">
        <Node pos="l" depth="1" Seq="0" IVar="-1" Cut="0.0000000000000000e+00" cType="1" nS="8.0151840820312500e+03" nB="2.5832642578125000e+04" nEv="3.3847828125000000e+04" nSuw="6.5320000000000000e+03" nBuw="1.2879000000000000e+04" nEvuw="1.9411000000000000e+04" sepI="1.6061185300350189e-01" sepG="-1.0000000000000000e+00" res="2.4549330119043589e-03" rms="4.0076410770416260e-01" nType="-1" CC="0.0000000000000000e+00"/>
        <Node pos="r" depth="1" Seq="1" IVar="5" Cut="-8.2182180881500244e-01" cType="0" nS="2.0730830383300781e+02" nB="3.1556841796875000e+04" nEv="3.1764148437500000e+04" nSuw="2.4700000000000000e+02" nBuw="2.9424000000000000e+04" nEvuw="2.9671000000000000e+04" sepI="6.4482735469937325e-03" sepG="1.5577975136693567e-04" res="-3.6660492420196533e-02" rms="8.0301143229007721e-02" nType="0" CC="0.0000000000000000e+00">
          <Node pos="l" depth="2" Seq="1" IVar="-1" Cut="0.0000000000000000e+00" cType="1" nS="1.3100881958007812e+02" nB="3.9491562500000000e+03" nEv="4.0801650390625000e+03" nSuw="1.5700000000000000e+02" nBuw="4.2620000000000000e+03" nEvuw="4.4190000000000000e+03" sepI="3.0437571927905083e-02" sepG="-1.0000000000000000e+00" res="-3.4879814833402634e-02" rms="1.7446367442607880e-01" nType="-1" CC="0.0000000000000000e+00"/>
          <Node pos="r" depth="2" Seq="3" IVar="-1" Cut="0.0000000000000000e+00" cType="1" nS="7.6299484252929688e+01" nB="2.7607685546875000e+04" nEv="2.7683984375000000e+04" nSuw="9.0000000000000000e+01" nBuw="2.5162000000000000e+04" nEvuw="2.5252000000000000e+04" sepI="2.7339051011949778e-03" sepG="-1.0000000000000000e+00" res="-4.1679203510284424e-02" rms="5.2286759018898010e-02" nType="-1" CC="0.0000000000000000e+00"/>
        </Node>
      </Node>
    </BinaryTree>
    <BinaryTree type="DecisionTree" boostWeight="1.0000000000000000e+00" itree="42">
      <Node pos="s" depth="0" Seq="0" IVar="2" Cut="-3.3194926381111145e-01" cType="1" nS="8.4312939453125000e+03" nB="5.6557304687500000e+04" nEv="6.4988601562500000e+04" nSuw="6.9350000000000000e+03" nBuw="4.2147000000000000e+04" nEvuw="4.9082000000000000e+04" sepI="8.8258869946002960e-02" sepG="7.1440910687670112e-04" res="-7.7103134244680405e-03" rms="2.9708394408226013e-01" nType="0" CC="0.0000000000000000e+00">
        <Node pos="l" depth="1" Seq="0" IVar="-1" Cut="0.0000000000000000e+00" cType="1" nS="4.1699516601562500e+03" nB="7.4305190429687500e+03" nEv="1.1600470703125000e+04" nSuw="3.6360000000000000e+03" nBuw="3.9990000000000000e+03" nEvuw="7.6350000000000000e+03" sepI="2.1987265348434448e-01" sepG="-1.0000000000000000e+00" res="6.4646922983229160e-03" rms="4.6890580654144287e-01" nType="-1" CC="0.0000000000000000e+00"/>
        <Node pos="r" depth="1" Seq="1" IVar="3" Cut="-5.2381736040115356e-01" cType="0" nS="4.2613427734375000e+03" nB="4.9126789062500000e+04" nEv="5.3388128906250000e+04" nSuw="3.2990000000000000e+03" nBuw="3.8148000000000000e+04" nEvuw="4.1447000000000000e+04" sepI="5.8791454881429672e-02" sepG="4.0489283856004477e-04" res="-2.0169477909803391e-02" rms="2.4246948957443237e-01" nType="0" CC="0.0000000000000000e+00">
