<?xml version="1.0"?>
<MethodSetup Method="BDT::BDTG">
  <GeneralInfo>
    <Info name="TMVA Release" value="4.1.2 [262402]"/>
    <Info name="ROOT Release" value="5.32/00 [335872]"/>
    <Info name="Creator" value="malberti"/>
    <Info name="Date" value="Mon Jul 23 13:58:38 2012"/>
    <Info name="Host" value="Linux lxbuild148.cern.ch 2.6.18-194.26.1.el5 #1 SMP Wed Nov 10 09:45:46 CET 2010 x86_64 x86_64 x86_64 GNU/Linux"/>
    <Info name="Dir" value="/afs/cern.ch/user/m/malberti/scratch1/HGG/CMSSW_5_2_3_patch2/src/h2gglobe/JetAnalysis/bin"/>
    <Info name="Training events" value="40101"/>
    <Info name="TrainingTime" value="3.47226911e+01"/>
    <Info name="AnalysisType" value="Classification"/>
  </GeneralInfo>
  <Options>
    <Option name="V" modified="Yes">False</Option>
    <Option name="VerbosityLevel" modified="No">Default</Option>
    <Option name="VarTransform" modified="No">None</Option>
    <Option name="H" modified="Yes">False</Option>
    <Option name="CreateMVAPdfs" modified="No">False</Option>
    <Option name="IgnoreNegWeightsInTraining" modified="No">False</Option>
    <Option name="NTrees" modified="Yes">1000</Option>
    <Option name="RenormByClass" modified="No">False</Option>
    <Option name="BoostType" modified="Yes">Grad</Option>
    <Option name="AdaBoostR2Loss" modified="No">quadratic</Option>
    <Option name="UseBaggedGrad" modified="Yes">True</Option>
    <Option name="GradBaggingFraction" modified="Yes">6.000000e-01</Option>
    <Option name="Shrinkage" modified="Yes">3.000000e-01</Option>
    <Option name="AdaBoostBeta" modified="No">1.000000e+00</Option>
    <Option name="UseRandomisedTrees" modified="No">False</Option>
    <Option name="UseNvars" modified="No">3</Option>
    <Option name="UsePoissonNvars" modified="No">True</Option>
    <Option name="UseNTrainEvents" modified="No">40101</Option>
    <Option name="UseWeightedTrees" modified="No">True</Option>
    <Option name="UseYesNoLeaf" modified="No">True</Option>
    <Option name="NodePurityLimit" modified="No">5.000000e-01</Option>
    <Option name="SeparationType" modified="Yes">giniindex</Option>
    <Option name="nEventsMin" modified="No">49</Option>
    <Option name="nCuts" modified="Yes">20</Option>
    <Option name="UseFisherCuts" modified="No">False</Option>
    <Option name="MinLinCorrForFisher" modified="No">8.000000e-01</Option>
    <Option name="UseExclusiveVars" modified="No">False</Option>
    <Option name="PruneStrength" modified="No">0.000000e+00</Option>
    <Option name="PruneMethod" modified="No">nopruning</Option>
    <Option name="PruneBeforeBoost" modified="No">False</Option>
    <Option name="PruningValFraction" modified="No">5.000000e-01</Option>
    <Option name="NNodesMax" modified="Yes">5</Option>
    <Option name="MaxDepth" modified="No">3</Option>
    <Option name="DoBoostMonitor" modified="No">False</Option>
    <Option name="NegWeightTreatment" modified="No">ignorenegweights</Option>
  </Options>
  <Variables NVar="9">
    <Variable VarIndex="0" Expression="jet1pt" Label="jet1pt" Title="jet1pt" Unit="" Internal="jet1pt" Type="F" Min="2.06456184e+01" Max="9.51072021e+02"/>
    <Variable VarIndex="1" Expression="jet2pt" Label="jet2pt" Title="jet2pt" Unit="" Internal="jet2pt" Type="F" Min="2.00013351e+01" Max="4.98472931e+02"/>
    <Variable VarIndex="2" Expression="abs(jet1eta-jet2eta)" Label="deta" Title="deta" Unit="" Internal="deta" Type="F" Min="8.29070807e-04" Max="9.08477306e+00"/>
    <Variable VarIndex="3" Expression="mj1j2" Label="mj1j2" Title="mj1j2" Unit="" Internal="mj1j2" Type="F" Min="1.00000099e+02" Max="4.63642822e+03"/>
    <Variable VarIndex="4" Expression="zepp" Label="zepp" Title="zepp" Unit="" Internal="zepp" Type="F" Min="5.08069661e-06" Max="9.18786812e+00"/>
    <Variable VarIndex="5" Expression="dphi" Label="dphi" Title="dphi" Unit="" Internal="dphi" Type="F" Min="3.13888048e-03" Max="3.14158964e+00"/>
    <Variable VarIndex="6" Expression="diphopt/diphoM" Label="diphoptOverM" Title="diphoptOverM" Unit="" Internal="diphoptOverM" Type="F" Min="1.15995074e-03" Max="7.52705956e+00"/>
    <Variable VarIndex="7" Expression="pho1pt/diphoM" Label="pho1ptOverM" Title="pho1ptOverM" Unit="" Internal="pho1ptOverM" Type="F" Min="3.33567768e-01" Max="7.05793238e+00"/>
    <Variable VarIndex="8" Expression="pho2pt/diphoM" Label="pho2ptOverM" Title="pho2ptOverM" Unit="" Internal="pho2ptOverM" Type="F" Min="2.08382741e-01" Max="2.65158319e+00"/>
  </Variables>
  <Spectators NSpec="0"/>
  <Classes NClass="2">
    <Class Name="Signal" Index="0"/>
    <Class Name="Background" Index="1"/>
  </Classes>
  <Transformations NTransformations="0"/>
  <MVAPdfs/>
  <Weights NTrees="1000" AnalysisType="1">
    <BinaryTree type="DecisionTree" boostWeight="1.0000000000000000e+00" itree="0">
      <Node pos="s" depth="0" NCoef="0" IVar="3" Cut="3.1602252197265625e+02" cType="0" res="3.2813084125518799e-01" rms="3.7726667523384094e-01" purity="8.2813084125518799e-01" nType="0">
        <Node pos="l" depth="1" NCoef="0" IVar="-1" Cut="0.0000000000000000e+00" cType="1" res="2.7182182669639587e-01" rms="2.1156094968318939e-01" purity="9.5303636789321899e-01" nType="-99"/>
        <Node pos="r" depth="1" NCoef="0" IVar="3" Cut="1.9256248474121094e+02" cType="0" res="1.4003749191761017e-01" rms="4.7998905181884766e-01" purity="6.4003747701644897e-01" nType="0">
          <Node pos="l" depth="2" NCoef="0" IVar="-1" Cut="0.0000000000000000e+00" cType="1" res="1.5647883713245392e-01" rms="4.2659625411033630e-01" purity="7.6079809665679932e-01" nType="-99"/>
          <Node pos="r" depth="2" NCoef="0" IVar="-1" Cut="0.0000000000000000e+00" cType="1" res="1.8452381715178490e-02" rms="4.9905329942703247e-01" purity="5.3075397014617920e-01" nType="-99"/>
        </Node>
      </Node>
    </BinaryTree>
    <BinaryTree type="DecisionTree" boostWeight="1.0000000000000000e+00" itree="1">
      <Node pos="s" depth="0" NCoef="0" IVar="2" Cut="2.1636729240417480e+00" cType="0" res="2.3250928521156311e-01" rms="3.5709309577941895e-01" purity="8.2886391878128052e-01" nType="0">
        <Node pos="l" depth="1" NCoef="0" IVar="-1" Cut="0.0000000000000000e+00" cType="1" res="1.8559232354164124e-01" rms="2.8252169489860535e-01" purity="9.0317255258560181e-01" nType="-99"/>
        <Node pos="r" depth="1" NCoef="0" IVar="6" Cut="9.1419667005538940e-01" cType="0" res="-1.1381578631699085e-02" rms="4.9846181273460388e-01" purity="5.2509492635726929e-01" nType="0">
          <Node pos="l" depth="2" NCoef="0" IVar="-1" Cut="0.0000000000000000e+00" cType="1" res="1.2872368097305298e-01" rms="4.2995372414588928e-01" purity="7.6078432798385620e-01" nType="-99"/>
          <Node pos="r" depth="2" NCoef="0" IVar="-1" Cut="0.0000000000000000e+00" cType="1" res="-5.6326266378164291e-02" rms="4.9709382653236389e-01" purity="4.3841937184333801e-01" nType="-99"/>
        </Node>
      </Node>
    </BinaryTree>
    <BinaryTree type="DecisionTree" boostWeight="1.0000000000000000e+00" itree="2">
      <Node pos="s" depth="0" NCoef="0" IVar="3" Cut="3.1602252197265625e+02" cType="0" res="1.6762468218803406e-01" rms="3.4312972426414490e-01" purity="8.3109933137893677e-01" nType="0">
        <Node pos="l" depth="1" NCoef="0" IVar="-1" Cut="0.0000000000000000e+00" cType="1" res="1.7695574462413788e-01" rms="2.0601637661457062e-01" purity="9.5364600419998169e-01" nType="-99"/>
        <Node pos="r" depth="1" NCoef="0" IVar="4" Cut="1.5804694890975952e+00" cType="1" res="5.3623989224433899e-02" rms="4.6059694886207581e-01" purity="6.4254111051559448e-01" nType="0">
          <Node pos="l" depth="2" NCoef="0" IVar="-1" Cut="0.0000000000000000e+00" cType="1" res="7.5443230569362640e-02" rms="4.3036222457885742e-01" purity="7.1367311477661133e-01" nType="-99"/>
          <Node pos="r" depth="2" NCoef="0" IVar="-1" Cut="0.0000000000000000e+00" cType="1" res="-3.8504350930452347e-02" rms="4.8901939392089844e-01" purity="5.1676875352859497e-01" nType="-99"/>
        </Node>
      </Node>
    </BinaryTree>
    <BinaryTree type="DecisionTree" boostWeight="1.0000000000000000e+00" itree="3">
      <Node pos="s" depth="0" NCoef="0" IVar="2" Cut="1.7313936948776245e+00" cType="0" res="1.2102277576923370e-01" rms="3.3463448286056519e-01" purity="8.3034157752990723e-01" nType="0">
        <Node pos="l" depth="1" NCoef="0" IVar="-1" Cut="0.0000000000000000e+00" cType="1" res="1.2074298411607742e-01" rms="2.9030114412307739e-01" purity="8.8690590858459473e-01" nType="-99"/>
        <Node pos="r" depth="1" NCoef="0" IVar="6" Cut="9.1475999355316162e-01" cType="0" res="-7.6690807938575745e-02" rms="4.9236628413200378e-01" purity="4.7162905335426331e-01" nType="0">
          <Node pos="l" depth="2" NCoef="0" IVar="-1" Cut="0.0000000000000000e+00" cType="1" res="6.2786832451820374e-02" rms="4.5862206816673279e-01" purity="7.2613638639450073e-01" nType="-99"/>
          <Node pos="r" depth="2" NCoef="0" IVar="-1" Cut="0.0000000000000000e+00" cType="1" res="-8.5264258086681366e-02" rms="4.8913744091987610e-01" purity="3.7823185324668884e-01" nType="-99"/>
        </Node>
      </Node>
    </BinaryTree>
    <BinaryTree type="DecisionTree" boostWeight="1.0000000000000000e+00" itree="4">
      <Node pos="s" depth="0" NCoef="0" IVar="2" Cut="2.5962417125701904e+00" cType="0" res="8.6983315646648407e-02" rms="3.3151820302009583e-01" purity="8.3002763986587524e-01" nType="0">
        <Node pos="l" depth="1" NCoef="0" IVar="-1" Cut="0.0000000000000000e+00" cType="1" res="1.1846447736024857e-01" rms="2.5245553255081177e-01" purity="9.2222857475280762e-01" nType="-99"/>
        <Node pos="r" depth="1" NCoef="0" IVar="6" Cut="5.5879169702529907e-01" cType="0" res="-2.1660169586539268e-02" rms="4.6911892294883728e-01" purity="5.7783681154251099e-01" nType="0">
          <Node pos="l" depth="2" NCoef="0" IVar="-1" Cut="0.0000000000000000e+00" cType="1" res="3.8595467805862427e-02" rms="4.4451594352722168e-01" purity="6.9357591867446899e-01" nType="-99"/>
          <Node pos="r" depth="2" NCoef="0" IVar="-1" Cut="0.0000000000000000e+00" cType="1" res="-7.4482120573520660e-02" rms="4.8077327013015747e-01" purity="4.3645831942558289e-01" nType="-99"/>
        </Node>
      </Node>
    </BinaryTree>
    <BinaryTree type="DecisionTree" boostWeight="1.0000000000000000e+00" itree="5">
      <Node pos="s" depth="0" NCoef="0" IVar="4" Cut="2.3701343536376953e+00" cType="1" res="6.3487119972705841e-02" rms="3.2665869593620300e-01" purity="8.3050072193145752e-01" nType="0">
        <Node pos="l" depth="1" NCoef="0" IVar="-1" Cut="0.0000000000000000e+00" cType="1" res="8.1550642848014832e-02" rms="2.9609978199005127e-01" purity="8.6328458786010742e-01" nType="-99"/>
        <Node pos="r" depth="1" NCoef="0" IVar="0" Cut="4.0436882019042969e+01" cType="0" res="-9.0787827968597412e-02" rms="4.5727139711380005e-01" purity="6.0709637403488159e-01" nType="0">
          <Node pos="l" depth="2" NCoef="0" IVar="-1" Cut="0.0000000000000000e+00" cType="1" res="-3.8361746817827225e-02" rms="4.4238895177841187e-01" purity="6.4396286010742188e-01" nType="-99"/>
          <Node pos="r" depth="2" NCoef="0" IVar="-1" Cut="0.0000000000000000e+00" cType="1" res="-2.6058331131935120e-01" rms="4.6420276165008545e-01" purity="4.1188523173332214e-01" nType="-99"/>
        </Node>
      </Node>
    </BinaryTree>
    <BinaryTree type="DecisionTree" boostWeight="1.0000000000000000e+00" itree="6">
      <Node pos="s" depth="0" NCoef="0" IVar="2" Cut="3.0288105010986328e+00" cType="0" res="4.2838539928197861e-02" rms="3.2748055458068848e-01" purity="8.2791936397552490e-01" nType="0">
        <Node pos="l" depth="1" NCoef="0" IVar="-1" Cut="0.0000000000000000e+00" cType="1" res="1.0277577489614487e-01" rms="2.2605514526367188e-01" purity="9.3703681230545044e-01" nType="-99"/>
        <Node pos="r" depth="1" NCoef="0" IVar="8" Cut="3.7066394090652466e-01" cType="0" res="-3.4113928675651550e-02" rms="4.4791761040687561e-01" purity="6.2860506772994995e-01" nType="0">
          <Node pos="l" depth="2" NCoef="0" IVar="-1" Cut="0.0000000000000000e+00" cType="1" res="3.7108942866325378e-02" rms="4.1146495938301086e-01" purity="7.2707426548004150e-01" nType="-99"/>
          <Node pos="r" depth="2" NCoef="0" IVar="-1" Cut="0.0000000000000000e+00" cType="1" res="-8.1079684197902679e-02" rms="4.6647182106971741e-01" purity="5.3578776121139526e-01" nType="-99"/>
        </Node>
      </Node>
    </BinaryTree>
    <BinaryTree type="DecisionTree" boostWeight="1.0000000000000000e+00" itree="7">
      <Node pos="s" depth="0" NCoef="0" IVar="5" Cut="2.8427736759185791e+00" cType="0" res="3.4773226827383041e-02" rms="3.2050132751464844e-01" purity="8.3177763223648071e-01" nType="0">
        <Node pos="l" depth="1" NCoef="0" IVar="-1" Cut="0.0000000000000000e+00" cType="1" res="7.1052834391593933e-02" rms="2.7676108479499817e-01" purity="8.8040822744369507e-01" nType="-99"/>
        <Node pos="r" depth="1" NCoef="0" IVar="3" Cut="5.5973620605468750e+02" cType="0" res="-4.8120286315679550e-02" rms="4.1188871860504150e-01" purity="6.9000649452209473e-01" nType="0">
          <Node pos="l" depth="2" NCoef="0" IVar="-1" Cut="0.0000000000000000e+00" cType="1" res="9.4127126038074493e-02" rms="2.1356916427612305e-01" purity="9.4692736864089966e-01" nType="-99"/>
          <Node pos="r" depth="2" NCoef="0" IVar="-1" Cut="0.0000000000000000e+00" cType="1" res="-6.7538112401962280e-02" rms="4.4949740171432495e-01" purity="6.1258417367935181e-01" nType="-99"/>
        </Node>
      </Node>
    </BinaryTree>
    <BinaryTree type="DecisionTree" boostWeight="1.0000000000000000e+00" itree="8">
      <Node pos="s" depth="0" NCoef="0" IVar="3" Cut="3.1602252197265625e+02" cType="0" res="2.6175079867243767e-02" rms="3.1817293167114258e-01" purity="8.3289825916290283e-01" nType="0">
        <Node pos="l" depth="1" NCoef="0" IVar="-1" Cut="0.0000000000000000e+00" cType="1" res="9.7247622907161713e-02" rms="1.9564656913280487e-01" purity="9.5491135120391846e-01" nType="-99"/>
        <Node pos="r" depth="1" NCoef="0" IVar="7" Cut="4.9860641360282898e-01" cType="0" res="-2.7045302093029022e-02" rms="4.4043049216270447e-01" purity="6.4411610364913940e-01" nType="0">
          <Node pos="l" depth="2" NCoef="0" IVar="-1" Cut="0.0000000000000000e+00" cType="1" res="2.9169039335101843e-03" rms="4.3040347099304199e-01" purity="6.8541187047958374e-01" nType="-99"/>
          <Node pos="r" depth="2" NCoef="0" IVar="-1" Cut="0.0000000000000000e+00" cType="1" res="-1.2613685429096222e-01" rms="4.5762464404106140e-01" purity="4.4580525159835815e-01" nType="-99"/>
        </Node>
      </Node>
    </BinaryTree>
    <BinaryTree type="DecisionTree" boostWeight="1.0000000000000000e+00" itree="9">
      <Node pos="s" depth="0" NCoef="0" IVar="2" Cut="1.2983715534210205e+00" cType="0" res="1.8307710066437721e-02" rms="3.1435701251029968e-01" purity="8.3212131261825562e-01" nType="0">
        <Node pos="l" depth="1" NCoef="0" IVar="-1" Cut="0.0000000000000000e+00" cType="1" res="3.9850939065217972e-02" rms="2.9001301527023315e-01" purity="8.7319570779800415e-01" nType="-99"/>
        <Node pos="r" depth="1" NCoef="0" IVar="4" Cut="2.5692279338836670e+00" cType="0" res="-1.0848163068294525e-01" rms="4.7892984747886658e-01" purity="4.1831567883491516e-01" nType="0">
          <Node pos="l" depth="2" NCoef="0" IVar="-1" Cut="0.0000000000000000e+00" cType="1" res="6.1047762632369995e-02" rms="4.7691950201988220e-01" purity="5.0974929332733154e-01" nType="-99"/>
          <Node pos="r" depth="2" NCoef="0" IVar="-1" Cut="0.0000000000000000e+00" cType="1" res="-9.7301512956619263e-02" rms="4.6920752525329590e-01" purity="4.0022051334381104e-01" nType="-99"/>
        </Node>
      </Node>
    </BinaryTree>
    <BinaryTree type="DecisionTree" boostWeight="1.0000000000000000e+00" itree="10">
      <Node pos="s" depth="0" NCoef="0" IVar="4" Cut="2.9983582496643066e+00" cType="1" res="1.0248438455164433e-02" rms="3.1780642271041870e-01" purity="8.2782226800918579e-01" nType="0">
        <Node pos="l" depth="1" NCoef="0" IVar="-1" Cut="0.0000000000000000e+00" cType="1" res="2.5756232440471649e-02" rms="3.0213725566864014e-01" purity="8.4786063432693481e-01" nType="-99"/>
        <Node pos="r" depth="1" NCoef="0" IVar="2" Cut="1.6515336036682129e+00" cType="1" res="-1.5071155130863190e-01" rms="4.7658202052116394e-01" purity="5.1081645488739014e-01" nType="0">
          <Node pos="l" depth="2" NCoef="0" IVar="-1" Cut="0.0000000000000000e+00" cType="1" res="6.8129152059555054e-02" rms="4.7100484371185303e-01" purity="5.3225809335708618e-01" nType="-99"/>
          <Node pos="r" depth="2" NCoef="0" IVar="-1" Cut="0.0000000000000000e+00" cType="1" res="-1.9488960504531860e-01" rms="4.5351499319076538e-01" purity="5.0489759445190430e-01" nType="-99"/>
        </Node>
      </Node>
    </BinaryTree>
    <BinaryTree type="DecisionTree" boostWeight="1.0000000000000000e+00" itree="11">
      <Node pos="s" depth="0" NCoef="0" IVar="2" Cut="3.4613790512084961e+00" cType="0" res="8.2509396597743034e-03" rms="3.1415686011314392e-01" purity="8.3052402734756470e-01" nType="0">
        <Node pos="l" depth="1" NCoef="0" IVar="-1" Cut="0.0000000000000000e+00" cType="1" res="8.0773971974849701e-02" rms="1.9181890785694122e-01" purity="9.5436161756515503e-01" nType="-99"/>
        <Node pos="r" depth="1" NCoef="0" IVar="8" Cut="4.6443662047386169e-01" cType="0" res="-3.1802039593458176e-02" rms="4.1280800104141235e-01" purity="6.8117809295654297e-01" nType="0">
          <Node pos="l" depth="2" NCoef="0" IVar="-1" Cut="0.0000000000000000e+00" cType="1" res="5.6434229016304016e-02" rms="3.2853639125823975e-01" purity="8.4748369455337524e-01" nType="-99"/>
          <Node pos="r" depth="2" NCoef="0" IVar="-1" Cut="0.0000000000000000e+00" cType="1" res="-4.8772491514682770e-02" rms="4.3248680233955383e-01" purity="6.2878239154815674e-01" nType="-99"/>
        </Node>
      </Node>
    </BinaryTree>
    <BinaryTree type="DecisionTree" boostWeight="1.0000000000000000e+00" itree="12">
      <Node pos="s" depth="0" NCoef="0" IVar="6" Cut="3.6195644736289978e-01" cType="0" res="6.0638254508376122e-03" rms="3.1202664971351624e-01" purity="8.3061182498931885e-01" nType="0">
        <Node pos="l" depth="1" NCoef="0" IVar="-1" Cut="0.0000000000000000e+00" cType="1" res="3.3420231193304062e-02" rms="2.8592637181282043e-01" purity="8.7111979722976685e-01" nType="-99"/>
        <Node pos="r" depth="1" NCoef="0" IVar="0" Cut="3.6868526458740234e+01" cType="0" res="-6.0117654502391815e-02" rms="3.8723465800285339e-01" purity="6.7969214916229248e-01" nType="0">
          <Node pos="l" depth="2" NCoef="0" IVar="-1" Cut="0.0000000000000000e+00" cType="1" res="-3.6835242062807083e-02" rms="3.7174472212791443e-01" purity="7.0402032136917114e-01" nType="-99"/>
          <Node pos="r" depth="2" NCoef="0" IVar="-1" Cut="0.0000000000000000e+00" cType="1" res="-1.8580883741378784e-01" rms="4.4114631414413452e-01" purity="5.3721243143081665e-01" nType="-99"/>
        </Node>
      </Node>
    </BinaryTree>
    <BinaryTree type="DecisionTree" boostWeight="1.0000000000000000e+00" itree="13">
      <Node pos="s" depth="0" NCoef="0" IVar="6" Cut="7.2021156549453735e-01" cType="0" res="7.8121330589056015e-03" rms="3.0821806192398071e-01" purity="8.3262497186660767e-01" nType="0">
        <Node pos="l" depth="1" NCoef="0" IVar="-1" Cut="0.0000000000000000e+00" cType="1" res="6.4257971942424774e-02" rms="2.4234494566917419e-01" purity="9.2066037654876709e-01" nType="-99"/>
        <Node pos="r" depth="1" NCoef="0" IVar="3" Cut="4.3319995117187500e+02" cType="0" res="-1.7309693619608879e-02" rms="3.4965485334396362e-01" purity="7.6298505067825317e-01" nType="0">
          <Node pos="l" depth="2" NCoef="0" IVar="-1" Cut="0.0000000000000000e+00" cType="1" res="6.9750562310218811e-02" rms="1.8571451306343079e-01" purity="9.5940381288528442e-01" nType="-99"/>
          <Node pos="r" depth="2" NCoef="0" IVar="-1" Cut="0.0000000000000000e+00" cType="1" res="-4.0341444313526154e-02" rms="4.1707426309585571e-01" purity="6.4233225584030151e-01" nType="-99"/>
        </Node>
      </Node>
    </BinaryTree>
    <BinaryTree type="DecisionTree" boostWeight="1.0000000000000000e+00" itree="14">
      <Node pos="s" depth="0" NCoef="0" IVar="8" Cut="3.1916692852973938e-01" cType="0" res="8.5645524086430669e-04" rms="3.0911338329315186e-01" purity="8.2692629098892212e-01" nType="0">
        <Node pos="l" depth="1" NCoef="0" IVar="-1" Cut="0.0000000000000000e+00" cType="1" res="2.9065052047371864e-02" rms="2.8920489549636841e-01" purity="8.5672694444656372e-01" nType="-99"/>
        <Node pos="r" depth="1" NCoef="0" IVar="2" Cut="2.9276628494262695e+00" cType="0" res="-4.2620580643415451e-02" rms="3.4468111395835876e-01" purity="7.6185429096221924e-01" nType="0">
          <Node pos="l" depth="2" NCoef="0" IVar="-1" Cut="0.0000000000000000e+00" cType="1" res="-4.1339057497680187e-03" rms="2.4921622872352600e-01" purity="9.1644036769866943e-01" nType="-99"/>
          <Node pos="r" depth="2" NCoef="0" IVar="-1" Cut="0.0000000000000000e+00" cType="1" res="-8.3497524261474609e-02" rms="4.5737400650978088e-01" purity="4.9402824044227600e-01" nType="-99"/>
        </Node>
      </Node>
    </BinaryTree>
    <BinaryTree type="DecisionTree" boostWeight="1.0000000000000000e+00" itree="15">
      <Node pos="s" depth="0" NCoef="0" IVar="4" Cut="2.1875915527343750e+00" cType="1" res="2.4352844338864088e-03" rms="3.1013777852058411e-01" purity="8.2945054769515991e-01" nType="0">
        <Node pos="l" depth="1" NCoef="0" IVar="-1" Cut="0.0000000000000000e+00" cType="1" res="2.1839678287506104e-02" rms="2.8196397423744202e-01" purity="8.6690485477447510e-01" nType="-99"/>
        <Node pos="r" depth="1" NCoef="0" IVar="2" Cut="2.1535172462463379e+00" cType="0" res="-6.2175791710615158e-02" rms="4.2386528849601746e-01" purity="6.3088661432266235e-01" nType="0">
          <Node pos="l" depth="2" NCoef="0" IVar="-1" Cut="0.0000000000000000e+00" cType="1" res="-1.0835918784141541e-01" rms="3.9674422144889832e-01" purity="6.9067639112472534e-01" nType="-99"/>
          <Node pos="r" depth="2" NCoef="0" IVar="-1" Cut="0.0000000000000000e+00" cType="1" res="1.7616279423236847e-02" rms="4.7535791993141174e-01" purity="4.7748592495918274e-01" nType="-99"/>
        </Node>
      </Node>
    </BinaryTree>
    <BinaryTree type="DecisionTree" boostWeight="1.0000000000000000e+00" itree="16">
      <Node pos="s" depth="0" NCoef="0" IVar="2" Cut="1.2993892431259155e+00" cType="0" res="1.4990520430728793e-03" rms="3.0687269568443298e-01" purity="8.2993704080581665e-01" nType="0">
        <Node pos="l" depth="1" NCoef="0" IVar="-1" Cut="0.0000000000000000e+00" cType="1" res="1.5163993462920189e-02" rms="2.8466108441352844e-01" purity="8.6921328306198120e-01" nType="-99"/>
        <Node pos="r" depth="1" NCoef="0" IVar="3" Cut="3.3460632324218750e+02" cType="1" res="-8.4169052541255951e-02" rms="4.6930488944053650e-01" purity="4.2896935343742371e-01" nType="0">
          <Node pos="l" depth="2" NCoef="0" IVar="-1" Cut="0.0000000000000000e+00" cType="1" res="-4.1417527943849564e-02" rms="4.6201676130294800e-01" purity="4.3811395764350891e-01" nType="-99"/>
          <Node pos="r" depth="2" NCoef="0" IVar="-1" Cut="0.0000000000000000e+00" cType="1" res="-4.1223180294036865e-01" rms="4.1579675674438477e-01" purity="2.7118644118309021e-01" nType="-99"/>
        </Node>
      </Node>
    </BinaryTree>
    <BinaryTree type="DecisionTree" boostWeight="1.0000000000000000e+00" itree="17">
      <Node pos="s" depth="0" NCoef="0" IVar="3" Cut="4.8503851318359375e+02" cType="0" res="2.4001514539122581e-03" rms="3.0502817034721375e-01" purity="8.3053940534591675e-01" nType="0">
        <Node pos="l" depth="1" NCoef="0" IVar="-1" Cut="0.0000000000000000e+00" cType="1" res="9.4904981553554535e-02" rms="1.3672353327274323e-01" purity="9.7805547714233398e-01" nType="-99"/>
        <Node pos="r" depth="1" NCoef="0" IVar="4" Cut="1.7501989603042603e+00" cType="1" res="-1.8780209124088287e-02" rms="3.8234144449234009e-01" purity="7.2298753261566162e-01" nType="0">
          <Node pos="l" depth="2" NCoef="0" IVar="-1" Cut="0.0000000000000000e+00" cType="1" res="-1.6814768314361572e-03" rms="3.5219222307205200e-01" purity="7.8965377807617188e-01" nType="-99"/>
          <Node pos="r" depth="2" NCoef="0" IVar="-1" Cut="0.0000000000000000e+00" cType="1" res="-4.9763351678848267e-02" rms="4.4563224911689758e-01" purity="5.5747127532958984e-01" nType="-99"/>
        </Node>
      </Node>
    </BinaryTree>
    <BinaryTree type="DecisionTree" boostWeight="1.0000000000000000e+00" itree="18">
      <Node pos="s" depth="0" NCoef="0" IVar="1" Cut="2.0227622985839844e+02" cType="1" res="2.0679768640547991e-03" rms="3.0397227406501770e-01" purity="8.3167576789855957e-01" nType="0">
        <Node pos="l" depth="1" NCoef="0" IVar="1" Cut="2.8668676376342773e+01" cType="0" res="3.2397811301052570e-03" rms="3.0273196101188660e-01" purity="8.3302849531173706e-01" nType="0">
          <Node pos="l" depth="2" NCoef="0" IVar="-1" Cut="0.0000000000000000e+00" cType="1" res="1.9020594656467438e-02" rms="2.8664746880531311e-01" purity="8.4910625219345093e-01" nType="-99"/>
          <Node pos="r" depth="2" NCoef="0" IVar="-1" Cut="0.0000000000000000e+00" cType="1" res="-5.2902597934007645e-02" rms="3.7092906236648560e-01" purity="7.5038284063339233e-01" nType="-99"/>
        </Node>
        <Node pos="r" depth="1" NCoef="0" IVar="-1" Cut="0.0000000000000000e+00" cType="1" res="-3.7387403845787048e-01" rms="4.3756717443466187e-01" purity="3.9189189672470093e-01" nType="-99"/>
      </Node>
    </BinaryTree>
    <BinaryTree type="DecisionTree" boostWeight="1.0000000000000000e+00" itree="19">
      <Node pos="s" depth="0" NCoef="0" IVar="8" Cut="3.2477033138275146e-01" cType="0" res="1.2172688730061054e-03" rms="3.0631741881370544e-01" purity="8.2975786924362183e-01" nType="0">
        <Node pos="l" depth="1" NCoef="0" IVar="-1" Cut="0.0000000000000000e+00" cType="1" res="2.3576870560646057e-02" rms="2.8709876537322998e-01" purity="8.6140656471252441e-01" nType="-99"/>
        <Node pos="r" depth="1" NCoef="0" IVar="5" Cut="2.9921870231628418e+00" cType="0" res="-2.7707751840353012e-02" rms="3.3994176983833313e-01" purity="7.6598161458969116e-01" nType="0">
          <Node pos="l" depth="2" NCoef="0" IVar="-1" Cut="0.0000000000000000e+00" cType="1" res="6.0702771879732609e-03" rms="2.8701204061508179e-01" purity="8.5054033994674683e-01" nType="-99"/>
          <Node pos="r" depth="2" NCoef="0" IVar="-1" Cut="0.0000000000000000e+00" cType="1" res="-7.3004826903343201e-02" rms="3.9133849740028381e-01" purity="6.6331660747528076e-01" nType="-99"/>
        </Node>
      </Node>
    </BinaryTree>
    <BinaryTree type="DecisionTree" boostWeight="1.0000000000000000e+00" itree="20">
      <Node pos="s" depth="0" NCoef="0" IVar="5" Cut="2.3943343162536621e+00" cType="0" res="2.0719696767628193e-03" rms="3.0202552676200867e-01" purity="8.3243471384048462e-01" nType="0">
        <Node pos="l" depth="1" NCoef="0" IVar="-1" Cut="0.0000000000000000e+00" cType="1" res="1.2364490889012814e-02" rms="2.8664433956146240e-01" purity="8.5529220104217529e-01" nType="-99"/>
        <Node pos="r" depth="1" NCoef="0" IVar="1" Cut="1.1124169921875000e+02" cType="1" res="-5.8057691901922226e-02" rms="4.2263591289520264e-01" purity="6.0176169872283936e-01" nType="0">
          <Node pos="l" depth="2" NCoef="0" IVar="-1" Cut="0.0000000000000000e+00" cType="1" res="-4.5526184141635895e-02" rms="4.2185324430465698e-01" purity="6.1154597997665405e-01" nType="-99"/>
          <Node pos="r" depth="2" NCoef="0" IVar="-1" Cut="0.0000000000000000e+00" cType="1" res="-2.1095232665538788e-01" rms="3.9865398406982422e-01" purity="4.2477875947952271e-01" nType="-99"/>
        </Node>
      </Node>
    </BinaryTree>
    <BinaryTree type="DecisionTree" boostWeight="1.0000000000000000e+00" itree="21">
      <Node pos="s" depth="0" NCoef="0" IVar="3" Cut="7.4806127929687500e+02" cType="0" res="1.4956847298890352e-03" rms="3.0474075675010681e-01" purity="8.2920646667480469e-01" nType="0">
        <Node pos="l" depth="1" NCoef="0" IVar="-1" Cut="0.0000000000000000e+00" cType="1" res="1.3137252628803253e-01" rms="7.7938854694366455e-02" purity="9.9303740262985229e-01" nType="-99"/>
        <Node pos="r" depth="1" NCoef="0" IVar="1" Cut="1.1325549316406250e+02" cType="1" res="-8.5748145356774330e-03" rms="3.4590747952461243e-01" purity="7.7784448862075806e-01" nType="0">
          <Node pos="l" depth="2" NCoef="0" IVar="-1" Cut="0.0000000000000000e+00" cType="1" res="-5.7254340499639511e-03" rms="3.4316393733024597e-01" purity="7.8340083360671997e-01" nType="-99"/>
          <Node pos="r" depth="2" NCoef="0" IVar="-1" Cut="0.0000000000000000e+00" cType="1" res="-1.3847814500331879e-01" rms="4.0659254789352417e-01" purity="5.9519410133361816e-01" nType="-99"/>
        </Node>
      </Node>
    </BinaryTree>
    <BinaryTree type="DecisionTree" boostWeight="1.0000000000000000e+00" itree="22">
      <Node pos="s" depth="0" NCoef="0" IVar="7" Cut="5.7543641328811646e-01" cType="0" res="3.0527997296303511e-04" rms="3.0309686064720154e-01" purity="8.2999420166015625e-01" nType="0">
        <Node pos="l" depth="1" NCoef="0" IVar="-1" Cut="0.0000000000000000e+00" cType="1" res="1.9256850704550743e-02" rms="2.7776157855987549e-01" purity="8.7375020980834961e-01" nType="-99"/>
        <Node pos="r" depth="1" NCoef="0" IVar="3" Cut="2.6569711303710938e+02" cType="0" res="-3.0650978907942772e-02" rms="3.6182808876037598e-01" purity="7.0999222993850708e-01" nType="0">
          <Node pos="l" depth="2" NCoef="0" IVar="-1" Cut="0.0000000000000000e+00" cType="1" res="-1.5137649141252041e-02" rms="2.7420902252197266e-01" purity="8.8950580358505249e-01" nType="-99"/>
          <Node pos="r" depth="2" NCoef="0" IVar="-1" Cut="0.0000000000000000e+00" cType="1" res="-4.4173050671815872e-02" rms="4.4696652889251709e-01" purity="4.8335087299346924e-01" nType="-99"/>
        </Node>
      </Node>
    </BinaryTree>
    <BinaryTree type="DecisionTree" boostWeight="1.0000000000000000e+00" itree="23">
      <Node pos="s" depth="0" NCoef="0" IVar="4" Cut="1.1243875026702881e+00" cType="1" res="1.5490009682253003e-03" rms="3.0177924036979675e-01" purity="8.3072632551193237e-01" nType="0">
        <Node pos="l" depth="1" NCoef="0" IVar="-1" Cut="0.0000000000000000e+00" cType="1" res="2.6183251291513443e-02" rms="2.5639745593070984e-01" purity="8.8921689987182617e-01" nType="-99"/>
        <Node pos="r" depth="1" NCoef="0" IVar="3" Cut="7.6639593505859375e+02" cType="0" res="-1.3845804147422314e-02" rms="3.4616383910179138e-01" purity="7.6329928636550903e-01" nType="0">
          <Node pos="l" depth="2" NCoef="0" IVar="-1" Cut="0.0000000000000000e+00" cType="1" res="9.2216305434703827e-02" rms="1.1360607296228409e-01" purity="9.8522168397903442e-01" nType="-99"/>
          <Node pos="r" depth="2" NCoef="0" IVar="-1" Cut="0.0000000000000000e+00" cType="1" res="-2.4690307676792145e-02" rms="3.8632568717002869e-01" purity="7.0137459039688110e-01" nType="-99"/>
        </Node>
      </Node>
    </BinaryTree>
    <BinaryTree type="DecisionTree" boostWeight="1.0000000000000000e+00" itree="24">
      <Node pos="s" depth="0" NCoef="0" IVar="8" Cut="4.4106850028038025e-01" cType="0" res="2.3959347163327038e-04" rms="3.0452656745910645e-01" purity="8.2817184925079346e-01" nType="0">
        <Node pos="l" depth="1" NCoef="0" IVar="-1" Cut="0.0000000000000000e+00" cType="1" res="5.0801597535610199e-02" rms="2.4363528192043304e-01" purity="9.1251534223556519e-01" nType="-99"/>
        <Node pos="r" depth="1" NCoef="0" IVar="1" Cut="9.5829353332519531e+01" cType="1" res="-1.1329481378197670e-02" rms="3.2702395319938660e-01" purity="7.9116010665893555e-01" nType="0">
          <Node pos="l" depth="2" NCoef="0" IVar="-1" Cut="0.0000000000000000e+00" cType="1" res="-8.8900094851851463e-03" rms="3.2449170947074890e-01" purity="7.9765617847442627e-01" nType="-99"/>
          <Node pos="r" depth="2" NCoef="0" IVar="-1" Cut="0.0000000000000000e+00" cType="1" res="-1.1436656117439270e-01" rms="3.5601010918617249e-01" purity="6.8875503540039062e-01" nType="-99"/>
        </Node>
      </Node>
    </BinaryTree>
    <BinaryTree type="DecisionTree" boostWeight="1.0000000000000000e+00" itree="25">
      <Node pos="s" depth="0" NCoef="0" IVar="5" Cut="2.0954260826110840e+00" cType="0" res="1.6154630575329065e-03" rms="2.9999580979347229e-01" purity="8.3222568035125732e-01" nType="0">
        <Node pos="l" depth="1" NCoef="0" IVar="-1" Cut="0.0000000000000000e+00" cType="1" res="7.3297740891575813e-03" rms="2.9140105843544006e-01" purity="8.4810912609100342e-01" nType="-99"/>
        <Node pos="r" depth="1" NCoef="0" IVar="7" Cut="7.1678566932678223e-01" cType="0" res="-4.9207538366317749e-02" rms="4.1560536623001099e-01" purity="5.6515264511108398e-01" nType="0">
          <Node pos="l" depth="2" NCoef="0" IVar="-1" Cut="0.0000000000000000e+00" cType="1" res="5.2202485501766205e-02" rms="4.1497105360031128e-01" purity="7.2131145000457764e-01" nType="-99"/>
          <Node pos="r" depth="2" NCoef="0" IVar="-1" Cut="0.0000000000000000e+00" cType="1" res="-5.5970642715692520e-02" rms="4.1421270370483398e-01" purity="5.4954952001571655e-01" nType="-99"/>
        </Node>
      </Node>
    </BinaryTree>
    <BinaryTree type="DecisionTree" boostWeight="1.0000000000000000e+00" itree="26">
      <Node pos="s" depth="0" NCoef="0" IVar="8" Cut="3.1915399432182312e-01" cType="0" res="-1.9027044763788581e-03" rms="3.0214965343475342e-01" purity="8.2855951786041260e-01" nType="0">
        <Node pos="l" depth="1" NCoef="0" IVar="-1" Cut="0.0000000000000000e+00" cType="1" res="1.3256387785077095e-02" rms="2.8329774737358093e-01" purity="8.6000001430511475e-01" nType="-99"/>
        <Node pos="r" depth="1" NCoef="0" IVar="3" Cut="4.7647769165039062e+02" cType="0" res="-2.3659065365791321e-02" rms="3.3850666880607605e-01" purity="7.6023775339126587e-01" nType="0">
          <Node pos="l" depth="2" NCoef="0" IVar="-1" Cut="0.0000000000000000e+00" cType="1" res="3.5755544900894165e-02" rms="1.6388501226902008e-01" purity="9.6536505222320557e-01" nType="-99"/>
          <Node pos="r" depth="2" NCoef="0" IVar="-1" Cut="0.0000000000000000e+00" cType="1" res="-4.1585940867662430e-02" rms="4.1148099303245544e-01" purity="6.2962162494659424e-01" nType="-99"/>
        </Node>
      </Node>
    </BinaryTree>
    <BinaryTree type="DecisionTree" boostWeight="1.0000000000000000e+00" itree="27">
      <Node pos="s" depth="0" NCoef="0" IVar="7" Cut="6.5377563238143921e-01" cType="0" res="-5.9459760086610913e-04" rms="3.0291730165481567e-01" purity="8.2935637235641479e-01" nType="0">
        <Node pos="l" depth="1" NCoef="0" IVar="-1" Cut="0.0000000000000000e+00" cType="1" res="1.9472574815154076e-02" rms="2.6614388823509216e-01" purity="8.8790392875671387e-01" nType="-99"/>
        <Node pos="r" depth="1" NCoef="0" IVar="0" Cut="1.4314517211914062e+02" cType="1" res="-1.5982268378138542e-02" rms="3.4685313701629639e-01" purity="7.4834305047988892e-01" nType="0">
          <Node pos="l" depth="2" NCoef="0" IVar="-1" Cut="0.0000000000000000e+00" cType="1" res="-1.4617972075939178e-02" rms="3.4425923228263855e-01" purity="7.5432062149047852e-01" nType="-99"/>
          <Node pos="r" depth="2" NCoef="0" IVar="-1" Cut="0.0000000000000000e+00" cType="1" res="-1.2820351123809814e-01" rms="3.8797089457511902e-01" purity="6.1883407831192017e-01" nType="-99"/>
        </Node>
      </Node>
    </BinaryTree>
    <BinaryTree type="DecisionTree" boostWeight="1.0000000000000000e+00" itree="28">
      <Node pos="s" depth="0" NCoef="0" IVar="2" Cut="1.2688028812408447e+00" cType="0" res="-1.5563085908070207e-03" rms="3.0116561055183411e-01" purity="8.2792663574218750e-01" nType="0">
        <Node pos="l" depth="1" NCoef="0" IVar="-1" Cut="0.0000000000000000e+00" cType="1" res="4.5038745738565922e-03" rms="2.8144717216491699e-01" purity="8.6711221933364868e-01" nType="-99"/>
        <Node pos="r" depth="1" NCoef="0" IVar="4" Cut="2.2624564170837402e+00" cType="0" res="-4.4997796416282654e-02" rms="4.5650076866149902e-01" purity="4.1943126916885376e-01" nType="0">
          <Node pos="l" depth="2" NCoef="0" IVar="-1" Cut="0.0000000000000000e+00" cType="1" res="7.0997901260852814e-02" rms="4.4477814435958862e-01" purity="4.8577237129211426e-01" nType="-99"/>
          <Node pos="r" depth="2" NCoef="0" IVar="-1" Cut="0.0000000000000000e+00" cType="1" res="-6.2527135014533997e-02" rms="4.5131307840347290e-01" purity="3.9925834536552429e-01" nType="-99"/>
        </Node>
      </Node>
    </BinaryTree>
    <BinaryTree type="DecisionTree" boostWeight="1.0000000000000000e+00" itree="29">
      <Node pos="s" depth="0" NCoef="0" IVar="1" Cut="4.2785697937011719e+01" cType="0" res="4.2056450620293617e-03" rms="2.9920241236686707e-01" purity="8.3403736352920532e-01" nType="0">
        <Node pos="l" depth="1" NCoef="0" IVar="-1" Cut="0.0000000000000000e+00" cType="1" res="2.4683637544512749e-02" rms="2.7154830098152161e-01" purity="8.5960245132446289e-01" nType="-99"/>
        <Node pos="r" depth="1" NCoef="0" IVar="1" Cut="2.5425806045532227e+01" cType="0" res="-7.2109508328139782e-03" rms="3.2771518826484680e-01" purity="8.0468958616256714e-01" nType="0">
          <Node pos="l" depth="2" NCoef="0" IVar="-1" Cut="0.0000000000000000e+00" cType="1" res="2.0643905736505985e-03" rms="3.1301587820053101e-01" purity="8.2354265451431274e-01" nType="-99"/>
          <Node pos="r" depth="2" NCoef="0" IVar="-1" Cut="0.0000000000000000e+00" cType="1" res="-4.6874631196260452e-02" rms="3.7843075394630432e-01" purity="7.3006683588027954e-01" nType="-99"/>
        </Node>
      </Node>
    </BinaryTree>
    <BinaryTree type="DecisionTree" boostWeight="1.0000000000000000e+00" itree="30">
      <Node pos="s" depth="0" NCoef="0" IVar="4" Cut="1.7500742673873901e+00" cType="1" res="-7.7333295485004783e-04" rms="2.9918417334556580e-01" purity="8.3128207921981812e-01" nType="0">
        <Node pos="l" depth="1" NCoef="0" IVar="-1" Cut="0.0000000000000000e+00" cType="1" res="1.1571222916245461e-02" rms="2.6386734843254089e-01" purity="8.7899190187454224e-01" nType="-99"/>
        <Node pos="r" depth="1" NCoef="0" IVar="2" Cut="1.2995530366897583e+00" cType="0" res="-2.2233981639146805e-02" rms="3.8537785410881042e-01" purity="6.8824017047882080e-01" nType="0">
          <Node pos="l" depth="2" NCoef="0" IVar="-1" Cut="0.0000000000000000e+00" cType="1" res="-4.0147103369235992e-02" rms="3.7278413772583008e-01" purity="7.2273606061935425e-01" nType="-99"/>
          <Node pos="r" depth="2" NCoef="0" IVar="-1" Cut="0.0000000000000000e+00" cType="1" res="3.6777559667825699e-02" rms="4.5152857899665833e-01" purity="4.6583852171897888e-01" nType="-99"/>
        </Node>
      </Node>
    </BinaryTree>
    <BinaryTree type="DecisionTree" boostWeight="1.0000000000000000e+00" itree="31">
      <Node pos="s" depth="0" NCoef="0" IVar="2" Cut="3.0284283161163330e+00" cType="0" res="1.5919735888019204e-03" rms="2.9878434538841248e-01" purity="8.3308297395706177e-01" nType="0">
        <Node pos="l" depth="1" NCoef="0" IVar="-1" Cut="0.0000000000000000e+00" cType="1" res="2.7606176212430000e-02" rms="2.0286914706230164e-01" purity="9.4219726324081421e-01" nType="-99"/>
        <Node pos="r" depth="1" NCoef="0" IVar="6" Cut="1.2171282768249512e+00" cType="0" res="-1.3354359194636345e-02" rms="4.2078179121017456e-01" purity="6.3322699069976807e-01" nType="0">
          <Node pos="l" depth="2" NCoef="0" IVar="-1" Cut="0.0000000000000000e+00" cType="1" res="5.1024772226810455e-02" rms="2.9796198010444641e-01" purity="8.9035087823867798e-01" nType="-99"/>
          <Node pos="r" depth="2" NCoef="0" IVar="-1" Cut="0.0000000000000000e+00" cType="1" res="-1.7355835065245628e-02" rms="4.3625321984291077e-01" purity="5.9319949150085449e-01" nType="-99"/>
        </Node>
      </Node>
    </BinaryTree>
    <BinaryTree type="DecisionTree" boostWeight="1.0000000000000000e+00" itree="32">
      <Node pos="s" depth="0" NCoef="0" IVar="2" Cut="8.6629021167755127e-01" cType="0" res="-2.0238386932760477e-03" rms="3.0173134803771973e-01" purity="8.2829874753952026e-01" nType="0">
        <Node pos="l" depth="1" NCoef="0" IVar="-1" Cut="0.0000000000000000e+00" cType="1" res="1.6358206048607826e-03" rms="2.8913089632987976e-01" purity="8.5306930541992188e-01" nType="-99"/>
        <Node pos="r" depth="1" NCoef="0" IVar="4" Cut="1.4291006326675415e+00" cType="0" res="-5.1499098539352417e-02" rms="4.5988437533378601e-01" purity="4.1890910267829895e-01" nType="0">
          <Node pos="l" depth="2" NCoef="0" IVar="-1" Cut="0.0000000000000000e+00" cType="1" res="1.7288012430071831e-02" rms="4.4981747865676880e-01" purity="4.5483359694480896e-01" nType="-99"/>
          <Node pos="r" depth="2" NCoef="0" IVar="-1" Cut="0.0000000000000000e+00" cType="1" res="-8.3429202437400818e-02" rms="4.5864823460578918e-01" purity="3.8844084739685059e-01" nType="-99"/>
        </Node>
      </Node>
    </BinaryTree>
    <BinaryTree type="DecisionTree" boostWeight="1.0000000000000000e+00" itree="33">
      <Node pos="s" depth="0" NCoef="0" IVar="1" Cut="2.1783390808105469e+02" cType="1" res="3.2255647238343954e-04" rms="3.0100917816162109e-01" purity="8.3079999685287476e-01" nType="0">
        <Node pos="l" depth="1" NCoef="0" IVar="2" Cut="3.8017473220825195e+00" cType="0" res="8.2641921471804380e-04" rms="3.0047148466110229e-01" purity="8.3181625604629517e-01" nType="0">
          <Node pos="l" depth="2" NCoef="0" IVar="-1" Cut="0.0000000000000000e+00" cType="1" res="3.9870928972959518e-02" rms="1.6454246640205383e-01" purity="9.6404355764389038e-01" nType="-99"/>
          <Node pos="r" depth="2" NCoef="0" IVar="-1" Cut="0.0000000000000000e+00" cType="1" res="-8.0496463924646378e-03" rms="3.8174188137054443e-01" purity="7.1550774574279785e-01" nType="-99"/>
        </Node>
        <Node pos="r" depth="1" NCoef="0" IVar="-1" Cut="0.0000000000000000e+00" cType="1" res="-1.8231299519538879e-01" rms="4.2044159770011902e-01" purity="4.4444444775581360e-01" nType="-99"/>
      </Node>
    </BinaryTree>
    <BinaryTree type="DecisionTree" boostWeight="1.0000000000000000e+00" itree="34">
      <Node pos="s" depth="0" NCoef="0" IVar="0" Cut="6.0134006500244141e+01" cType="0" res="-1.2041722948197275e-04" rms="2.9961177706718445e-01" purity="8.2928448915481567e-01" nType="0">
        <Node pos="l" depth="1" NCoef="0" IVar="-1" Cut="0.0000000000000000e+00" cType="1" res="1.0187205858528614e-02" rms="2.8242540359497070e-01" purity="8.5200774669647217e-01" nType="-99"/>
        <Node pos="r" depth="1" NCoef="0" IVar="1" Cut="2.9480503082275391e+01" cType="0" res="-1.8031343817710876e-02" rms="3.4541350603103638e-01" purity="7.6120144128799438e-01" nType="0">
          <Node pos="l" depth="2" NCoef="0" IVar="-1" Cut="0.0000000000000000e+00" cType="1" res="7.0014768280088902e-03" rms="3.1434449553489685e-01" purity="8.0933851003646851e-01" nType="-99"/>
          <Node pos="r" depth="2" NCoef="0" IVar="-1" Cut="0.0000000000000000e+00" cType="1" res="-6.2455955892801285e-02" rms="3.9127820730209351e-01" purity="6.7572546005249023e-01" nType="-99"/>
        </Node>
      </Node>
    </BinaryTree>
    <BinaryTree type="DecisionTree" boostWeight="1.0000000000000000e+00" itree="35">
      <Node pos="s" depth="0" NCoef="0" IVar="1" Cut="8.8354492187500000e+01" cType="1" res="1.9035188597626984e-04" rms="2.9961302876472473e-01" purity="8.3055430650711060e-01" nType="0">
        <Node pos="l" depth="1" NCoef="0" IVar="-1" Cut="0.0000000000000000e+00" cType="1" res="5.3119133226573467e-03" rms="2.9973357915878296e-01" purity="8.3275759220123291e-01" nType="-99"/>
        <Node pos="r" depth="1" NCoef="0" IVar="2" Cut="2.8159155845642090e+00" cType="0" res="-2.9337666928768158e-02" rms="2.9686889052391052e-01" purity="8.1009411811828613e-01" nType="0">
          <Node pos="l" depth="2" NCoef="0" IVar="-1" Cut="0.0000000000000000e+00" cType="1" res="5.0227668136358261e-02" rms="1.3581663370132446e-01" purity="9.8004603385925293e-01" nType="-99"/>
          <Node pos="r" depth="2" NCoef="0" IVar="-1" Cut="0.0000000000000000e+00" cType="1" res="-7.6263368129730225e-02" rms="4.1425296664237976e-01" purity="5.9613525867462158e-01" nType="-99"/>
        </Node>
      </Node>
    </BinaryTree>
    <BinaryTree type="DecisionTree" boostWeight="1.0000000000000000e+00" itree="36">
      <Node pos="s" depth="0" NCoef="0" IVar="2" Cut="1.2983715534210205e+00" cType="0" res="2.0478838123381138e-03" rms="2.9882279038429260e-01" purity="8.3082890510559082e-01" nType="0">
        <Node pos="l" depth="1" NCoef="0" IVar="-1" Cut="0.0000000000000000e+00" cType="1" res="8.8057946413755417e-03" rms="2.7727192640304565e-01" purity="8.7268751859664917e-01" nType="-99"/>
        <Node pos="r" depth="1" NCoef="0" IVar="5" Cut="2.8427047729492188e+00" cType="0" res="-2.4865746498107910e-02" rms="4.5618364214897156e-01" purity="4.2756804823875427e-01" nType="0">
          <Node pos="l" depth="2" NCoef="0" IVar="-1" Cut="0.0000000000000000e+00" cType="1" res="-4.5120839029550552e-02" rms="4.4933724403381348e-01" purity="4.6026012301445007e-01" nType="-99"/>
          <Node pos="r" depth="2" NCoef="0" IVar="-1" Cut="0.0000000000000000e+00" cType="1" res="2.6756001636385918e-02" rms="4.6005743741989136e-01" purity="3.7695750594139099e-01" nType="-99"/>
        </Node>
      </Node>
    </BinaryTree>
    <BinaryTree type="DecisionTree" boostWeight="1.0000000000000000e+00" itree="37">
      <Node pos="s" depth="0" NCoef="0" IVar="4" Cut="1.3125569820404053e+00" cType="1" res="-6.6065450664609671e-04" rms="2.9875898361206055e-01" purity="8.3085507154464722e-01" nType="0">
        <Node pos="l" depth="1" NCoef="0" IVar="-1" Cut="0.0000000000000000e+00" cType="1" res="1.7175493761897087e-02" rms="2.5699731707572937e-01" purity="8.8774818181991577e-01" nType="-99"/>
        <Node pos="r" depth="1" NCoef="0" IVar="8" Cut="3.7069675326347351e-01" cType="0" res="-1.5694607049226761e-02" rms="3.5438635945320129e-01" purity="7.4088805913925171e-01" nType="0">
          <Node pos="l" depth="2" NCoef="0" IVar="-1" Cut="0.0000000000000000e+00" cType="1" res="9.4586247578263283e-03" rms="3.2728633284568787e-01" purity="8.0464255809783936e-01" nType="-99"/>
          <Node pos="r" depth="2" NCoef="0" IVar="-1" Cut="0.0000000000000000e+00" cType="1" res="-4.8108819872140884e-02" rms="3.8038015365600586e-01" purity="6.7087751626968384e-01" nType="-99"/>
        </Node>
      </Node>
    </BinaryTree>
    <BinaryTree type="DecisionTree" boostWeight="1.0000000000000000e+00" itree="38">
      <Node pos="s" depth="0" NCoef="0" IVar="0" Cut="5.7376258850097656e+01" cType="0" res="-6.6729937680065632e-04" rms="2.9893308877944946e-01" purity="8.3031946420669556e-01" nType="0">
        <Node pos="l" depth="1" NCoef="0" IVar="-1" Cut="0.0000000000000000e+00" cType="1" res="8.3205476403236389e-03" rms="2.8214338421821594e-01" purity="8.5136002302169800e-01" nType="-99"/>
        <Node pos="r" depth="1" NCoef="0" IVar="3" Cut="2.6659906005859375e+02" cType="0" res="-2.0109986886382103e-02" rms="3.5226458311080933e-01" purity="7.5437921285629272e-01" nType="0">
          <Node pos="l" depth="2" NCoef="0" IVar="-1" Cut="0.0000000000000000e+00" cType="1" res="1.4909160323441029e-02" rms="2.2839239239692688e-01" purity="9.3351268768310547e-01" nType="-99"/>
          <Node pos="r" depth="2" NCoef="0" IVar="-1" Cut="0.0000000000000000e+00" cType="1" res="-3.8238856941461563e-02" rms="4.4147476553916931e-01" purity="5.7462400197982788e-01" nType="-99"/>
        </Node>
      </Node>
    </BinaryTree>
    <BinaryTree type="DecisionTree" boostWeight="1.0000000000000000e+00" itree="39">
      <Node pos="s" depth="0" NCoef="0" IVar="0" Cut="1.3847125244140625e+02" cType="0" res="1.0511931031942368e-03" rms="2.9794928431510925e-01" purity="8.3243376016616821e-01" nType="0">
        <Node pos="l" depth="1" NCoef="0" IVar="-1" Cut="0.0000000000000000e+00" cType="1" res="-3.3940549939870834e-02" rms="2.6379522681236267e-01" purity="8.6509042978286743e-01" nType="-99"/>
        <Node pos="r" depth="1" NCoef="0" IVar="0" Cut="2.6255567550659180e+01" cType="0" res="4.7124675475060940e-03" rms="3.0477049946784973e-01" purity="8.2530850172042847e-01" nType="0">
          <Node pos="l" depth="2" NCoef="0" IVar="-1" Cut="0.0000000000000000e+00" cType="1" res="9.3961916863918304e-03" rms="3.0326828360557556e-01" purity="8.2852047681808472e-01" nType="-99"/>
          <Node pos="r" depth="2" NCoef="0" IVar="-1" Cut="0.0000000000000000e+00" cType="1" res="-1.5096831321716309e-01" rms="4.3277353048324585e-01" purity="3.6496350169181824e-01" nType="-99"/>
        </Node>
      </Node>
    </BinaryTree>
    <BinaryTree type="DecisionTree" boostWeight="1.0000000000000000e+00" itree="40">
      <Node pos="s" depth="0" NCoef="0" IVar="2" Cut="3.8934566974639893e+00" cType="0" res="-6.2835484277456999e-04" rms="2.9842260479927063e-01" purity="8.3025646209716797e-01" nType="0">
        <Node pos="l" depth="1" NCoef="0" IVar="-1" Cut="0.0000000000000000e+00" cType="1" res="3.8327120244503021e-02" rms="1.5793636441230774e-01" purity="9.6740853786468506e-01" nType="-99"/>
        <Node pos="r" depth="1" NCoef="0" IVar="6" Cut="1.7962725162506104e+00" cType="0" res="-8.2488395273685455e-03" rms="3.7419724464416504e-01" purity="7.2094404697418213e-01" nType="0">
          <Node pos="l" depth="2" NCoef="0" IVar="-1" Cut="0.0000000000000000e+00" cType="1" res="1.1586491018533707e-01" rms="2.0436927676200867e-01" purity="9.6088433265686035e-01" nType="-99"/>
          <Node pos="r" depth="2" NCoef="0" IVar="-1" Cut="0.0000000000000000e+00" cType="1" res="-1.1874562129378319e-02" rms="3.7988042831420898e-01" purity="7.0999532938003540e-01" nType="-99"/>
        </Node>
      </Node>
    </BinaryTree>
    <BinaryTree type="DecisionTree" boostWeight="1.0000000000000000e+00" itree="41">
      <Node pos="s" depth="0" NCoef="0" IVar="5" Cut="2.9921331405639648e+00" cType="0" res="-8.2184944767504930e-04" rms="2.9980838298797607e-01" purity="8.3022224903106689e-01" nType="0">
        <Node pos="l" depth="1" NCoef="0" IVar="-1" Cut="0.0000000000000000e+00" cType="1" res="1.2399165891110897e-02" rms="2.3981609940528870e-01" purity="9.0040469169616699e-01" nType="-99"/>
        <Node pos="r" depth="1" NCoef="0" IVar="2" Cut="1.7320652008056641e+00" cType="0" res="-8.8743977248668671e-03" rms="3.6014416813850403e-01" purity="7.4364423751831055e-01" nType="0">
          <Node pos="l" depth="2" NCoef="0" IVar="-1" Cut="0.0000000000000000e+00" cType="1" res="-2.5137217715382576e-02" rms="3.3083519339561462e-01" purity="8.0965298414230347e-01" nType="-99"/>
          <Node pos="r" depth="2" NCoef="0" IVar="-1" Cut="0.0000000000000000e+00" cType="1" res="1.9637225195765495e-02" rms="4.6806362271308899e-01" purity="4.4720813632011414e-01" nType="-99"/>
        </Node>
      </Node>
    </BinaryTree>
    <BinaryTree type="DecisionTree" boostWeight="1.0000000000000000e+00" itree="42">
      <Node pos="s" depth="0" NCoef="0" IVar="6" Cut="1.0784667730331421e+00" cType="0" res="-4.1153538040816784e-04" rms="2.9878813028335571e-01" purity="8.2958090305328369e-01" nType="0">
        <Node pos="l" depth="1" NCoef="0" IVar="-1" Cut="0.0000000000000000e+00" cType="1" res="4.3345715850591660e-02" rms="1.9623623788356781e-01" purity="9.5197397470474243e-01" nType="-99"/>
        <Node pos="r" depth="1" NCoef="0" IVar="0" Cut="4.9711139678955078e+01" cType="0" res="-4.2267343960702419e-03" rms="3.1977143883705139e-01" purity="7.9811668395996094e-01" nType="0">
          <Node pos="l" depth="2" NCoef="0" IVar="-1" Cut="0.0000000000000000e+00" cType="1" res="1.1963123688474298e-03" rms="3.0830895900726318e-01" purity="8.1506764888763428e-01" nType="-99"/>
          <Node pos="r" depth="2" NCoef="0" IVar="-1" Cut="0.0000000000000000e+00" cType="1" res="-3.2078430056571960e-02" rms="3.6665475368499756e-01" purity="7.2084909677505493e-01" nType="-99"/>
        </Node>
      </Node>
    </BinaryTree>
    <BinaryTree type="DecisionTree" boostWeight="1.0000000000000000e+00" itree="43">
      <Node pos="s" depth="0" NCoef="0" IVar="0" Cut="1.0925765991210938e+02" cType="0" res="-4.1066281846724451e-04" rms="2.9754546284675598e-01" purity="8.2903039455413818e-01" nType="0">
        <Node pos="l" depth="1" NCoef="0" IVar="-1" Cut="0.0000000000000000e+00" cType="1" res="-2.4884497746825218e-02" rms="2.6866886019706726e-01" purity="8.6122447252273560e-01" nType="-99"/>
        <Node pos="r" depth="1" NCoef="0" IVar="0" Cut="3.7520835876464844e+01" cType="0" res="4.9743507988750935e-03" rms="3.0978831648826599e-01" purity="8.1420862674713135e-01" nType="0">
          <Node pos="l" depth="2" NCoef="0" IVar="-1" Cut="0.0000000000000000e+00" cType="1" res="1.2530114501714706e-02" rms="3.0128654837608337e-01" purity="8.2897144556045532e-01" nType="-99"/>
          <Node pos="r" depth="2" NCoef="0" IVar="-1" Cut="0.0000000000000000e+00" cType="1" res="-3.3637188374996185e-02" rms="3.9974448084831238e-01" purity="6.2819457054138184e-01" nType="-99"/>
        </Node>
      </Node>
    </BinaryTree>
    <BinaryTree type="DecisionTree" boostWeight="1.0000000000000000e+00" itree="44">
      <Node pos="s" depth="0" NCoef="0" IVar="8" Cut="3.2472562789916992e-01" cType="0" res="1.3294367818161845e-03" rms="2.9678431153297424e-01" purity="8.3241635560989380e-01" nType="0">
        <Node pos="l" depth="1" NCoef="0" IVar="-1" Cut="0.0000000000000000e+00" cType="1" res="1.2613374739885330e-02" rms="2.7966180443763733e-01" purity="8.6392539739608765e-01" nType="-99"/>
        <Node pos="r" depth="1" NCoef="0" IVar="0" Cut="1.4413825988769531e+02" cType="1" res="-1.0425895452499390e-02" rms="3.2850918173789978e-01" purity="7.6843029260635376e-01" nType="0">
          <Node pos="l" depth="2" NCoef="0" IVar="-1" Cut="0.0000000000000000e+00" cType="1" res="-8.4007810801267624e-03" rms="3.2800140976905823e-01" purity="7.7100658416748047e-01" nType="-99"/>
          <Node pos="r" depth="2" NCoef="0" IVar="-1" Cut="0.0000000000000000e+00" cType="1" res="-6.1690058559179306e-02" rms="3.3033117651939392e-01" purity="7.5049901008605957e-01" nType="-99"/>
        </Node>
      </Node>
    </BinaryTree>
    <BinaryTree type="DecisionTree" boostWeight="1.0000000000000000e+00" itree="45">
      <Node pos="s" depth="0" NCoef="0" IVar="0" Cut="1.5405790710449219e+02" cType="0" res="8.5768004646524787e-04" rms="2.9747563600540161e-01" purity="8.3291780948638916e-01" nType="0">
        <Node pos="l" depth="1" NCoef="0" IVar="-1" Cut="0.0000000000000000e+00" cType="1" res="-3.8778260350227356e-02" rms="2.7044960856437683e-01" purity="8.6343187093734741e-01" nType="-99"/>
        <Node pos="r" depth="1" NCoef="0" IVar="4" Cut="2.6251087188720703e+00" cType="1" res="3.5735464189201593e-03" rms="3.0118805170059204e-01" purity="8.2838600873947144e-01" nType="0">
          <Node pos="l" depth="2" NCoef="0" IVar="-1" Cut="0.0000000000000000e+00" cType="1" res="1.0993292555212975e-02" rms="2.8180086612701416e-01" purity="8.5746222734451294e-01" nType="-99"/>
          <Node pos="r" depth="2" NCoef="0" IVar="-1" Cut="0.0000000000000000e+00" cType="1" res="-1.9645029678940773e-02" rms="4.3370380997657776e-01" purity="5.7617729902267456e-01" nType="-99"/>
        </Node>
      </Node>
    </BinaryTree>
    <BinaryTree type="DecisionTree" boostWeight="1.0000000000000000e+00" itree="46">
      <Node pos="s" depth="0" NCoef="0" IVar="2" Cut="1.2993726730346680e+00" cType="0" res="-1.2021262664347887e-03" rms="2.9841339588165283e-01" purity="8.2875943183898926e-01" nType="0">
        <Node pos="l" depth="1" NCoef="0" IVar="-1" Cut="0.0000000000000000e+00" cType="1" res="2.1259498316794634e-03" rms="2.7805989980697632e-01" purity="8.6886674165725708e-01" nType="-99"/>
        <Node pos="r" depth="1" NCoef="0" IVar="4" Cut="3.0524322986602783e+00" cType="0" res="-2.4762867018580437e-02" rms="4.5480322837829590e-01" purity="4.2401847243309021e-01" nType="0">
          <Node pos="l" depth="2" NCoef="0" IVar="-1" Cut="0.0000000000000000e+00" cType="1" res="1.0618261992931366e-01" rms="4.5529320836067200e-01" purity="5.7754009962081909e-01" nType="-99"/>
          <Node pos="r" depth="2" NCoef="0" IVar="-1" Cut="0.0000000000000000e+00" cType="1" res="-3.0266040936112404e-02" rms="4.5118778944015503e-01" purity="4.0950456261634827e-01" nType="-99"/>
        </Node>
      </Node>
    </BinaryTree>
    <BinaryTree type="DecisionTree" boostWeight="1.0000000000000000e+00" itree="47">
      <Node pos="s" depth="0" NCoef="0" IVar="6" Cut="1.2136945724487305e+00" cType="0" res="1.2616740423254669e-04" rms="2.9645723104476929e-01" purity="8.3111000061035156e-01" nType="0">
        <Node pos="l" depth="1" NCoef="0" IVar="-1" Cut="0.0000000000000000e+00" cType="1" res="5.5494394153356552e-02" rms="1.8725453317165375e-01" purity="9.5617753267288208e-01" nType="-99"/>
        <Node pos="r" depth="1" NCoef="0" IVar="0" Cut="1.5786621093750000e+02" cType="1" res="-2.9685415793210268e-03" rms="3.1132623553276062e-01" purity="8.0955862998962402e-01" nType="0">
          <Node pos="l" depth="2" NCoef="0" IVar="-1" Cut="0.0000000000000000e+00" cType="1" res="-9.6106639830395579e-04" rms="3.0928993225097656e-01" purity="8.1410026550292969e-01" nType="-99"/>
          <Node pos="r" depth="2" NCoef="0" IVar="-1" Cut="0.0000000000000000e+00" cType="1" res="-6.9292835891246796e-02" rms="3.4443020820617676e-01" purity="7.2420442104339600e-01" nType="-99"/>
        </Node>
      </Node>
    </BinaryTree>
    <BinaryTree type="DecisionTree" boostWeight="1.0000000000000000e+00" itree="48">
      <Node pos="s" depth="0" NCoef="0" IVar="8" Cut="3.2473856210708618e-01" cType="0" res="-2.3256966960616410e-04" rms="2.9774639010429382e-01" purity="8.2995063066482544e-01" nType="0">
        <Node pos="l" depth="1" NCoef="0" IVar="-1" Cut="0.0000000000000000e+00" cType="1" res="8.6546102538704872e-03" rms="2.7974167466163635e-01" purity="8.6333936452865601e-01" nType="-99"/>
        <Node pos="r" depth="1" NCoef="0" IVar="3" Cut="7.9479022216796875e+02" cType="0" res="-1.0293535888195038e-02" rms="3.3064085245132446e-01" purity="7.6308572292327881e-01" nType="0">
          <Node pos="l" depth="2" NCoef="0" IVar="-1" Cut="0.0000000000000000e+00" cType="1" res="9.5106966793537140e-02" rms="8.0579273402690887e-02" purity="9.8896104097366333e-01" nType="-99"/>
          <Node pos="r" depth="2" NCoef="0" IVar="-1" Cut="0.0000000000000000e+00" cType="1" res="-1.9099084660410881e-02" rms="3.6547061800956726e-01" purity="7.0943862199783325e-01" nType="-99"/>
        </Node>
      </Node>
    </BinaryTree>
    <BinaryTree type="DecisionTree" boostWeight="1.0000000000000000e+00" itree="49">
      <Node pos="s" depth="0" NCoef="0" IVar="1" Cut="3.7574779510498047e+01" cType="0" res="1.3092613080516458e-03" rms="2.9662388563156128e-01" purity="8.3226501941680908e-01" nType="0">
        <Node pos="l" depth="1" NCoef="0" IVar="-1" Cut="0.0000000000000000e+00" cType="1" res="1.5533358789980412e-02" rms="2.6995384693145752e-01" purity="8.5693967342376709e-01" nType="-99"/>
        <Node pos="r" depth="1" NCoef="0" IVar="5" Cut="1.6514167785644531e+00" cType="0" res="-1.1322783306241035e-02" rms="3.3919662237167358e-01" purity="7.8765922784805298e-01" nType="0">
          <Node pos="l" depth="2" NCoef="0" IVar="-1" Cut="0.0000000000000000e+00" cType="1" res="-1.3443195261061192e-02" rms="3.3398336172103882e-01" purity="7.9852014780044556e-01" nType="-99"/>
          <Node pos="r" depth="2" NCoef="0" IVar="-1" Cut="0.0000000000000000e+00" cType="1" res="-5.3551062941551208e-02" rms="4.5292493700981140e-01" purity="5.0159746408462524e-01" nType="-99"/>
        </Node>
      </Node>
    </BinaryTree>
    <BinaryTree type="DecisionTree" boostWeight="1.0000000000000000e+00" itree="50">
      <Node pos="s" depth="0" NCoef="0" IVar="2" Cut="1.2985353469848633e+00" cType="0" res="-3.8282433524727821e-04" rms="2.9696622490882874e-01" purity="8.2982623577117920e-01" nType="0">
        <Node pos="l" depth="1" NCoef="0" IVar="-1" Cut="0.0000000000000000e+00" cType="1" res="4.0989727713167667e-03" rms="2.7573198080062866e-01" purity="8.7161946296691895e-01" nType="-99"/>
        <Node pos="r" depth="1" NCoef="0" IVar="5" Cut="2.8426144123077393e+00" cType="0" res="-2.5271097198128700e-02" rms="4.5476195216178894e-01" purity="4.1981983184814453e-01" nType="0">
          <Node pos="l" depth="2" NCoef="0" IVar="-1" Cut="0.0000000000000000e+00" cType="1" res="-4.4161058962345123e-02" rms="4.4446316361427307e-01" purity="4.4603773951530457e-01" nType="-99"/>
          <Node pos="r" depth="2" NCoef="0" IVar="-1" Cut="0.0000000000000000e+00" cType="1" res="2.0671995356678963e-02" rms="4.6453070640563965e-01" purity="3.8100558519363403e-01" nType="-99"/>
        </Node>
      </Node>
    </BinaryTree>
    <BinaryTree type="DecisionTree" boostWeight="1.0000000000000000e+00" itree="51">
      <Node pos="s" depth="0" NCoef="0" IVar="4" Cut="8.7503963708877563e-01" cType="1" res="3.9913164800964296e-04" rms="2.9803436994552612e-01" purity="8.3091944456100464e-01" nType="0">
        <Node pos="l" depth="1" NCoef="0" IVar="-1" Cut="0.0000000000000000e+00" cType="1" res="1.7312977463006973e-02" rms="2.4586527049541473e-01" purity="8.9603203535079956e-01" nType="-99"/>
        <Node pos="r" depth="1" NCoef="0" IVar="1" Cut="1.1114828491210938e+02" cType="1" res="-5.5544874630868435e-03" rms="3.3239325881004333e-01" purity="7.8102618455886841e-01" nType="0">
          <Node pos="l" depth="2" NCoef="0" IVar="-1" Cut="0.0000000000000000e+00" cType="1" res="-5.8309277519583702e-03" rms="3.3137354254722595e-01" purity="7.8445202112197876e-01" nType="-99"/>
          <Node pos="r" depth="2" NCoef="0" IVar="-1" Cut="0.0000000000000000e+00" cType="1" res="-6.0319270938634872e-02" rms="3.5610616207122803e-01" purity="6.9014084339141846e-01" nType="-99"/>
        </Node>
      </Node>
    </BinaryTree>
    <BinaryTree type="DecisionTree" boostWeight="1.0000000000000000e+00" itree="52">
      <Node pos="s" depth="0" NCoef="0" IVar="1" Cut="2.2506059265136719e+02" cType="1" res="-2.6019765064120293e-03" rms="2.9810571670532227e-01" purity="8.2770156860351562e-01" nType="0">
        <Node pos="l" depth="1" NCoef="0" IVar="3" Cut="7.4806127929687500e+02" cType="0" res="-2.2776578553020954e-03" rms="2.9797041416168213e-01" purity="8.2876539230346680e-01" nType="0">
          <Node pos="l" depth="2" NCoef="0" IVar="-1" Cut="0.0000000000000000e+00" cType="1" res="7.7133253216743469e-02" rms="8.8781714439392090e-02" purity="9.9139267206192017e-01" nType="-99"/>
          <Node pos="r" depth="2" NCoef="0" IVar="-1" Cut="0.0000000000000000e+00" cType="1" res="-7.5936820358037949e-03" rms="3.3816555142402649e-01" purity="7.7726900577545166e-01" nType="-99"/>
        </Node>
        <Node pos="r" depth="1" NCoef="0" IVar="-1" Cut="0.0000000000000000e+00" cType="1" res="-1.4860443770885468e-01" rms="3.2225760817527771e-01" purity="3.5185185074806213e-01" nType="-99"/>
      </Node>
    </BinaryTree>
    <BinaryTree type="DecisionTree" boostWeight="1.0000000000000000e+00" itree="53">
      <Node pos="s" depth="0" NCoef="0" IVar="6" Cut="1.5168281793594360e+00" cType="0" res="2.2874840069562197e-03" rms="2.9505077004432678e-01" purity="8.3172035217285156e-01" nType="0">
        <Node pos="l" depth="1" NCoef="0" IVar="-1" Cut="0.0000000000000000e+00" cType="1" res="8.7160110473632812e-02" rms="1.6681332886219025e-01" purity="9.7050637006759644e-01" nType="-99"/>
        <Node pos="r" depth="1" NCoef="0" IVar="0" Cut="2.2261203002929688e+02" cType="1" res="5.0025177188217640e-04" rms="3.0300503969192505e-01" purity="8.2047349214553833e-01" nType="0">
          <Node pos="l" depth="2" NCoef="0" IVar="-1" Cut="0.0000000000000000e+00" cType="1" res="2.3403645027428865e-03" rms="3.0225345492362976e-01" purity="8.2248789072036743e-01" nType="-99"/>
          <Node pos="r" depth="2" NCoef="0" IVar="-1" Cut="0.0000000000000000e+00" cType="1" res="-1.1946994811296463e-01" rms="3.5139566659927368e-01" purity="6.5134102106094360e-01" nType="-99"/>
        </Node>
      </Node>
    </BinaryTree>
    <BinaryTree type="DecisionTree" boostWeight="1.0000000000000000e+00" itree="54">
      <Node pos="s" depth="0" NCoef="0" IVar="5" Cut="1.6470892429351807e+00" cType="0" res="6.8976933835074306e-04" rms="2.9636174440383911e-01" purity="8.3112293481826782e-01" nType="0">
        <Node pos="l" depth="1" NCoef="0" IVar="-1" Cut="0.0000000000000000e+00" cType="1" res="2.9595301020890474e-03" rms="2.9118821024894714e-01" purity="8.4069657325744629e-01" nType="-99"/>
        <Node pos="r" depth="1" NCoef="0" IVar="7" Cut="5.5287194252014160e-01" cType="1" res="-3.1855609267950058e-02" rms="4.2735719680786133e-01" purity="5.2909338474273682e-01" nType="0">
          <Node pos="l" depth="2" NCoef="0" IVar="-1" Cut="0.0000000000000000e+00" cType="1" res="1.1009456589818001e-02" rms="4.1758140921592712e-01" purity="5.3078556060791016e-01" nType="-99"/>
          <Node pos="r" depth="2" NCoef="0" IVar="-1" Cut="0.0000000000000000e+00" cType="1" res="-1.0368677973747253e-01" rms="4.3371376395225525e-01" purity="5.2611941099166870e-01" nType="-99"/>
        </Node>
      </Node>
    </BinaryTree>
    <BinaryTree type="DecisionTree" boostWeight="1.0000000000000000e+00" itree="55">
      <Node pos="s" depth="0" NCoef="0" IVar="5" Cut="2.9921331405639648e+00" cType="0" res="-1.5952035319060087e-03" rms="2.9780334234237671e-01" purity="8.3016294240951538e-01" nType="0">
        <Node pos="l" depth="1" NCoef="0" IVar="-1" Cut="0.0000000000000000e+00" cType="1" res="8.3609828725457191e-03" rms="2.3873700201511383e-01" purity="9.0060991048812866e-01" nType="-99"/>
        <Node pos="r" depth="1" NCoef="0" IVar="8" Cut="3.6129680275917053e-01" cType="0" res="-7.9597905278205872e-03" rms="3.5668435692787170e-01" purity="7.4433535337448120e-01" nType="0">
          <Node pos="l" depth="2" NCoef="0" IVar="-1" Cut="0.0000000000000000e+00" cType="1" res="4.8559261485934258e-03" rms="3.3257949352264404e-01" purity="8.0200242996215820e-01" nType="-99"/>
          <Node pos="r" depth="2" NCoef="0" IVar="-1" Cut="0.0000000000000000e+00" cType="1" res="-2.4982418864965439e-02" rms="3.8176414370536804e-01" purity="6.7893499135971069e-01" nType="-99"/>
        </Node>
      </Node>
    </BinaryTree>
    <BinaryTree type="DecisionTree" boostWeight="1.0000000000000000e+00" itree="56">
      <Node pos="s" depth="0" NCoef="0" IVar="1" Cut="4.1982730865478516e+01" cType="0" res="-7.0690060965716839e-04" rms="2.9776549339294434e-01" purity="8.2941836118698120e-01" nType="0">
        <Node pos="l" depth="1" NCoef="0" IVar="-1" Cut="0.0000000000000000e+00" cType="1" res="8.5138026624917984e-03" rms="2.7009016275405884e-01" purity="8.5630583763122559e-01" nType="-99"/>
        <Node pos="r" depth="1" NCoef="0" IVar="8" Cut="3.6576509475708008e-01" cType="0" res="-6.9909640587866306e-03" rms="3.2874539494514465e-01" purity="7.9608941078186035e-01" nType="0">
          <Node pos="l" depth="2" NCoef="0" IVar="-1" Cut="0.0000000000000000e+00" cType="1" res="5.9713898226618767e-03" rms="3.0477201938629150e-01" purity="8.4192252159118652e-01" nType="-99"/>
          <Node pos="r" depth="2" NCoef="0" IVar="-1" Cut="0.0000000000000000e+00" cType="1" res="-2.3935671895742416e-02" rms="3.5157343745231628e-01" purity="7.4848139286041260e-01" nType="-99"/>
        </Node>
      </Node>
    </BinaryTree>
    <BinaryTree type="DecisionTree" boostWeight="1.0000000000000000e+00" itree="57">
      <Node pos="s" depth="0" NCoef="0" IVar="4" Cut="4.3752145767211914e+00" cType="1" res="5.2768248133361340e-04" rms="2.9558923840522766e-01" purity="8.3014464378356934e-01" nType="0">
        <Node pos="l" depth="1" NCoef="0" IVar="-1" Cut="0.0000000000000000e+00" cType="1" res="1.9316518446430564e-03" rms="2.9349902272224426e-01" purity="8.3452570438385010e-01" nType="-99"/>
        <Node pos="r" depth="1" NCoef="0" IVar="3" Cut="2.0575843811035156e+02" cType="0" res="-6.2578588724136353e-02" rms="4.5947912335395813e-01" purity="3.7554585933685303e-01" nType="0">
          <Node pos="l" depth="2" NCoef="0" IVar="-1" Cut="0.0000000000000000e+00" cType="1" res="-1.9250120222568512e-01" rms="4.2838066816329956e-01" purity="3.8383838534355164e-01" nType="-99"/>
          <Node pos="r" depth="2" NCoef="0" IVar="-1" Cut="0.0000000000000000e+00" cType="1" res="5.3739909082651138e-02" rms="4.4134914875030518e-01" purity="3.6923077702522278e-01" nType="-99"/>
        </Node>
      </Node>
    </BinaryTree>
    <BinaryTree type="DecisionTree" boostWeight="1.0000000000000000e+00" itree="58">
      <Node pos="s" depth="0" NCoef="0" IVar="4" Cut="2.6435019969940186e+00" cType="1" res="-9.2113559367135167e-04" rms="2.9623353481292725e-01" purity="8.2890021800994873e-01" nType="0">
        <Node pos="l" depth="1" NCoef="0" IVar="-1" Cut="0.0000000000000000e+00" cType="1" res="2.1277039777487516e-03" rms="2.7915889024734497e-01" purity="8.5604006052017212e-01" nType="-99"/>
        <Node pos="r" depth="1" NCoef="0" IVar="2" Cut="2.0515699386596680e+00" cType="0" res="-2.1295130252838135e-02" rms="4.2834451794624329e-01" purity="5.6320285797119141e-01" nType="0">
          <Node pos="l" depth="2" NCoef="0" IVar="-1" Cut="0.0000000000000000e+00" cType="1" res="-5.9007916599512100e-02" rms="4.1525909304618835e-01" purity="5.9349590539932251e-01" nType="-99"/>
          <Node pos="r" depth="2" NCoef="0" IVar="-1" Cut="0.0000000000000000e+00" cType="1" res="5.1653902977705002e-02" rms="4.4763994216918945e-01" purity="4.8557692766189575e-01" nType="-99"/>
        </Node>
      </Node>
    </BinaryTree>
    <BinaryTree type="DecisionTree" boostWeight="1.0000000000000000e+00" itree="59">
      <Node pos="s" depth="0" NCoef="0" IVar="2" Cut="8.6585742235183716e-01" cType="0" res="4.4711478403769433e-04" rms="2.9646623134613037e-01" purity="8.2931709289550781e-01" nType="0">
        <Node pos="l" depth="1" NCoef="0" IVar="-1" Cut="0.0000000000000000e+00" cType="1" res="4.2643421329557896e-03" rms="2.8410369157791138e-01" purity="8.5513913631439209e-01" nType="-99"/>
        <Node pos="r" depth="1" NCoef="0" IVar="4" Cut="1.6461817026138306e+00" cType="0" res="-3.0430046841502190e-02" rms="4.5166686177253723e-01" purity="4.0794223546981812e-01" nType="0">
          <Node pos="l" depth="2" NCoef="0" IVar="-1" Cut="0.0000000000000000e+00" cType="1" res="2.3076286539435387e-02" rms="4.4714161753654480e-01" purity="4.5454546809196472e-01" nType="-99"/>
          <Node pos="r" depth="2" NCoef="0" IVar="-1" Cut="0.0000000000000000e+00" cType="1" res="-5.1333550363779068e-02" rms="4.5026561617851257e-01" purity="3.7825059890747070e-01" nType="-99"/>
        </Node>
      </Node>
    </BinaryTree>
    <BinaryTree type="DecisionTree" boostWeight="1.0000000000000000e+00" itree="60">
      <Node pos="s" depth="0" NCoef="0" IVar="2" Cut="2.1636729240417480e+00" cType="0" res="7.1611214661970735e-04" rms="2.9423314332962036e-01" purity="8.3122032880783081e-01" nType="0">
        <Node pos="l" depth="1" NCoef="0" IVar="-1" Cut="0.0000000000000000e+00" cType="1" res="8.8805481791496277e-03" rms="2.4442380666732788e-01" purity="9.0532511472702026e-01" nType="-99"/>
        <Node pos="r" depth="1" NCoef="0" IVar="4" Cut="3.3318574428558350e+00" cType="1" res="-1.1970112100243568e-02" rms="4.4521725177764893e-01" purity="5.2230525016784668e-01" nType="0">
          <Node pos="l" depth="2" NCoef="0" IVar="-1" Cut="0.0000000000000000e+00" cType="1" res="-1.4441959559917450e-02" rms="4.4317093491554260e-01" purity="5.2439862489700317e-01" nType="-99"/>
          <Node pos="r" depth="2" NCoef="0" IVar="-1" Cut="0.0000000000000000e+00" cType="1" res="5.7833679020404816e-02" rms="4.6304067969322205e-01" purity="4.9375000596046448e-01" nType="-99"/>
        </Node>
      </Node>
    </BinaryTree>
    <BinaryTree type="DecisionTree" boostWeight="1.0000000000000000e+00" itree="61">
      <Node pos="s" depth="0" NCoef="0" IVar="0" Cut="3.3498587036132812e+02" cType="1" res="1.0705213062465191e-03" rms="2.9630291461944580e-01" purity="8.3269834518432617e-01" nType="0">
        <Node pos="l" depth="1" NCoef="0" IVar="-1" Cut="0.0000000000000000e+00" cType="1" res="2.5396265555173159e-03" rms="2.9635608196258545e-01" purity="8.3289545774459839e-01" nType="-99"/>
        <Node pos="r" depth="1" NCoef="0" IVar="7" Cut="1.5586098432540894e+00" cType="0" res="-5.8703780174255371e-02" rms="2.8235879540443420e-01" purity="8.0473375320434570e-01" nType="0">
          <Node pos="l" depth="2" NCoef="0" IVar="-1" Cut="0.0000000000000000e+00" cType="1" res="7.6093129813671112e-02" rms="1.8709394335746765e-01" purity="9.6551722288131714e-01" nType="-99"/>
          <Node pos="r" depth="2" NCoef="0" IVar="-1" Cut="0.0000000000000000e+00" cType="1" res="-3.7401476502418518e-01" rms="3.6546555161476135e-01" purity="4.5283019542694092e-01" nType="-99"/>
        </Node>
      </Node>
    </BinaryTree>
    <BinaryTree type="DecisionTree" boostWeight="1.0000000000000000e+00" itree="62">
      <Node pos="s" depth="0" NCoef="0" IVar="4" Cut="1.9752302169799805e+00" cType="1" res="-1.8290508305653930e-03" rms="2.9641339182853699e-01" purity="8.2819509506225586e-01" nType="0">
        <Node pos="l" depth="1" NCoef="0" IVar="-1" Cut="0.0000000000000000e+00" cType="1" res="2.6664414908736944e-03" rms="2.6696938276290894e-01" purity="8.7170004844665527e-01" nType="-99"/>
        <Node pos="r" depth="1" NCoef="0" IVar="3" Cut="2.7370346069335938e+02" cType="0" res="-1.4364263974130154e-02" rms="3.9137509465217590e-01" purity="6.5638494491577148e-01" nType="0">
          <Node pos="l" depth="2" NCoef="0" IVar="-1" Cut="0.0000000000000000e+00" cType="1" res="-6.6447161138057709e-02" rms="3.1816339492797852e-01" purity="8.4409451484680176e-01" nType="-99"/>
          <Node pos="r" depth="2" NCoef="0" IVar="-1" Cut="0.0000000000000000e+00" cType="1" res="5.7262284681200981e-03" rms="4.5720869302749634e-01" purity="4.5114076137542725e-01" nType="-99"/>
        </Node>
      </Node>
    </BinaryTree>
    <BinaryTree type="DecisionTree" boostWeight="1.0000000000000000e+00" itree="63">
      <Node pos="s" depth="0" NCoef="0" IVar="4" Cut="4.3752238154411316e-01" cType="1" res="2.4089457001537085e-03" rms="2.9345053434371948e-01" purity="8.3236992359161377e-01" nType="0">
        <Node pos="l" depth="1" NCoef="0" IVar="-1" Cut="0.0000000000000000e+00" cType="1" res="2.4526648223400116e-02" rms="2.3504701256752014e-01" purity="9.0471750497817993e-01" nType="-99"/>
        <Node pos="r" depth="1" NCoef="0" IVar="2" Cut="3.8946154117584229e+00" cType="0" res="-1.0855829714273568e-05" rms="3.0813419818878174e-01" purity="8.1160348653793335e-01" nType="0">
          <Node pos="l" depth="2" NCoef="0" IVar="-1" Cut="0.0000000000000000e+00" cType="1" res="2.5260789319872856e-02" rms="1.6833432018756866e-01" purity="9.6054208278656006e-01" nType="-99"/>
          <Node pos="r" depth="2" NCoef="0" IVar="-1" Cut="0.0000000000000000e+00" cType="1" res="-4.9417680129408836e-03" rms="3.8545939326286316e-01" purity="6.9157159328460693e-01" nType="-99"/>
        </Node>
      </Node>
    </BinaryTree>
    <BinaryTree type="DecisionTree" boostWeight="1.0000000000000000e+00" itree="64">
      <Node pos="s" depth="0" NCoef="0" IVar="5" Cut="1.1999993324279785e+00" cType="0" res="9.2762598069384694e-04" rms="2.9414433240890503e-01" purity="8.3000415563583374e-01" nType="0">
        <Node pos="l" depth="1" NCoef="0" IVar="-1" Cut="0.0000000000000000e+00" cType="1" res="4.8938422696664929e-04" rms="2.9153341054916382e-01" purity="8.3457183837890625e-01" nType="-99"/>
        <Node pos="r" depth="1" NCoef="0" IVar="3" Cut="6.6852935791015625e+02" cType="0" res="3.5105973482131958e-02" rms="4.0808573365211487e-01" purity="5.8744394779205322e-01" nType="0">
          <Node pos="l" depth="2" NCoef="0" IVar="-1" Cut="0.0000000000000000e+00" cType="1" res="-2.8660145401954651e-01" rms="3.4943297505378723e-01" purity="8.1132078170776367e-01" nType="-99"/>
          <Node pos="r" depth="2" NCoef="0" IVar="-1" Cut="0.0000000000000000e+00" cType="1" res="4.8498161137104034e-02" rms="4.1163229942321777e-01" purity="5.5725193023681641e-01" nType="-99"/>
        </Node>
      </Node>
    </BinaryTree>
    <BinaryTree type="DecisionTree" boostWeight="1.0000000000000000e+00" itree="65">
      <Node pos="s" depth="0" NCoef="0" IVar="4" Cut="4.2747907638549805e+00" cType="1" res="4.0518978494219482e-04" rms="2.9667857289314270e-01" purity="8.3029824495315552e-01" nType="0">
        <Node pos="l" depth="1" NCoef="0" IVar="-1" Cut="0.0000000000000000e+00" cType="1" res="1.5025020111352205e-03" rms="2.9467937350273132e-01" purity="8.3545958995819092e-01" nType="-99"/>
        <Node pos="r" depth="1" NCoef="0" IVar="2" Cut="3.2138710021972656e+00" cType="1" res="-4.0388695895671844e-02" rms="4.3587502837181091e-01" purity="3.7777778506278992e-01" nType="0">
          <Node pos="l" depth="2" NCoef="0" IVar="-1" Cut="0.0000000000000000e+00" cType="1" res="3.5499483346939087e-02" rms="4.3930792808532715e-01" purity="3.8216561079025269e-01" nType="-99"/>
          <Node pos="r" depth="2" NCoef="0" IVar="-1" Cut="0.0000000000000000e+00" cType="1" res="-1.4237068593502045e-01" rms="4.0175199508666992e-01" purity="3.7168142199516296e-01" nType="-99"/>
        </Node>
      </Node>
    </BinaryTree>
    <BinaryTree type="DecisionTree" boostWeight="1.0000000000000000e+00" itree="66">
      <Node pos="s" depth="0" NCoef="0" IVar="3" Cut="6.3680621337890625e+02" cType="0" res="-1.7567572649568319e-04" rms="2.9306343197822571e-01" purity="8.2975888252258301e-01" nType="0">
        <Node pos="l" depth="1" NCoef="0" IVar="-1" Cut="0.0000000000000000e+00" cType="1" res="7.7409088611602783e-02" rms="9.3582235276699066e-02" purity="9.8851358890533447e-01" nType="-99"/>
        <Node pos="r" depth="1" NCoef="0" IVar="0" Cut="1.2141497802734375e+02" cType="0" res="-4.1326051577925682e-03" rms="3.4584632515907288e-01" purity="7.6023954153060913e-01" nType="0">
          <Node pos="l" depth="2" NCoef="0" IVar="-1" Cut="0.0000000000000000e+00" cType="1" res="-2.4023136124014854e-02" rms="3.4366455674171448e-01" purity="7.6716142892837524e-01" nType="-99"/>
          <Node pos="r" depth="2" NCoef="0" IVar="-1" Cut="0.0000000000000000e+00" cType="1" res="-1.1640089796856046e-03" rms="3.4629228711128235e-01" purity="7.5857716798782349e-01" nType="-99"/>
        </Node>
      </Node>
    </BinaryTree>
    <BinaryTree type="DecisionTree" boostWeight="1.0000000000000000e+00" itree="67">
      <Node pos="s" depth="0" NCoef="0" IVar="2" Cut="4.1909715533256531e-01" cType="0" res="1.0702330619096756e-03" rms="2.9499432444572449e-01" purity="8.3025342226028442e-01" nType="0">
        <Node pos="l" depth="1" NCoef="0" IVar="-1" Cut="0.0000000000000000e+00" cType="1" res="3.1353244557976723e-03" rms="2.8995779156684875e-01" purity="8.4144014120101929e-01" nType="-99"/>
        <Node pos="r" depth="1" NCoef="0" IVar="4" Cut="1.4394755363464355e+00" cType="0" res="-2.6223467662930489e-02" rms="4.4779679179191589e-01" purity="3.9638158679008484e-01" nType="0">
          <Node pos="l" depth="2" NCoef="0" IVar="-1" Cut="0.0000000000000000e+00" cType="1" res="2.7621317654848099e-02" rms="4.5360827445983887e-01" purity="4.6689894795417786e-01" nType="-99"/>
          <Node pos="r" depth="2" NCoef="0" IVar="-1" Cut="0.0000000000000000e+00" cType="1" res="-6.2324911355972290e-02" rms="4.3482297658920288e-01" purity="3.3333334326744080e-01" nType="-99"/>
        </Node>
      </Node>
    </BinaryTree>
    <BinaryTree type="DecisionTree" boostWeight="1.0000000000000000e+00" itree="68">
      <Node pos="s" depth="0" NCoef="0" IVar="6" Cut="1.0799117088317871e+00" cType="0" res="7.2808135882951319e-05" rms="2.9492399096488953e-01" purity="8.3223778009414673e-01" nType="0">
        <Node pos="l" depth="1" NCoef="0" IVar="-1" Cut="0.0000000000000000e+00" cType="1" res="2.9953520745038986e-02" rms="1.9001013040542603e-01" purity="9.5253956317901611e-01" nType="-99"/>
        <Node pos="r" depth="1" NCoef="0" IVar="6" Cut="1.0771669447422028e-01" cType="0" res="-1.9882740452885628e-03" rms="3.1554234027862549e-01" purity="8.0242455005645752e-01" nType="0">
          <Node pos="l" depth="2" NCoef="0" IVar="-1" Cut="0.0000000000000000e+00" cType="1" res="-4.9688029102981091e-03" rms="3.1149151921272278e-01" purity="8.0830365419387817e-01" nType="-99"/>
          <Node pos="r" depth="2" NCoef="0" IVar="-1" Cut="0.0000000000000000e+00" cType="1" res="3.4540168941020966e-02" rms="4.2574104666709900e-01" purity="6.0975611209869385e-01" nType="-99"/>
        </Node>
      </Node>
    </BinaryTree>
    <BinaryTree type="DecisionTree" boostWeight="1.0000000000000000e+00" itree="69">
      <Node pos="s" depth="0" NCoef="0" IVar="5" Cut="2.3943226337432861e+00" cType="0" res="1.8824967555701733e-03" rms="2.9320636391639709e-01" purity="8.3242273330688477e-01" nType="0">
        <Node pos="l" depth="1" NCoef="0" IVar="-1" Cut="0.0000000000000000e+00" cType="1" res="7.0731402374804020e-03" rms="2.7742829918861389e-01" purity="8.5737848281860352e-01" nType="-99"/>
        <Node pos="r" depth="1" NCoef="0" IVar="4" Cut="4.4020184874534607e-01" cType="1" res="-1.7605306580662727e-02" rms="4.2066296935081482e-01" purity="5.7906979322433472e-01" nType="0">
          <Node pos="l" depth="2" NCoef="0" IVar="-1" Cut="0.0000000000000000e+00" cType="1" res="-9.8456613719463348e-02" rms="4.0954411029815674e-01" purity="6.0153257846832275e-01" nType="-99"/>
          <Node pos="r" depth="2" NCoef="0" IVar="-1" Cut="0.0000000000000000e+00" cType="1" res="-7.0861880667507648e-03" rms="4.2116129398345947e-01" purity="5.7596611976623535e-01" nType="-99"/>
        </Node>
      </Node>
    </BinaryTree>
    <BinaryTree type="DecisionTree" boostWeight="1.0000000000000000e+00" itree="70">
      <Node pos="s" depth="0" NCoef="0" IVar="5" Cut="1.4976360797882080e+00" cType="0" res="-7.0443406002596021e-04" rms="2.9596552252769470e-01" purity="8.2896929979324341e-01" nType="0">
        <Node pos="l" depth="1" NCoef="0" IVar="-1" Cut="0.0000000000000000e+00" cType="1" res="4.7409592662006617e-04" rms="2.9176068305969238e-01" purity="8.3754390478134155e-01" nType="-99"/>
        <Node pos="r" depth="1" NCoef="0" IVar="5" Cut="1.0692930221557617e+00" cType="1" res="-3.6825861781835556e-02" rms="4.2174178361892700e-01" purity="5.1111114025115967e-01" nType="0">
          <Node pos="l" depth="2" NCoef="0" IVar="-1" Cut="0.0000000000000000e+00" cType="1" res="-8.4716165438294411e-03" rms="4.2720896005630493e-01" purity="5.2659577131271362e-01" nType="-99"/>
          <Node pos="r" depth="2" NCoef="0" IVar="-1" Cut="0.0000000000000000e+00" cType="1" res="-7.5375668704509735e-02" rms="4.1010183095932007e-01" purity="4.8818898200988770e-01" nType="-99"/>
        </Node>
      </Node>
    </BinaryTree>
    <BinaryTree type="DecisionTree" boostWeight="1.0000000000000000e+00" itree="71">
      <Node pos="s" depth="0" NCoef="0" IVar="6" Cut="6.1125183105468750e-01" cType="0" res="-1.0698253754526377e-03" rms="2.9586312174797058e-01" purity="8.2874655723571777e-01" nType="0">
        <Node pos="l" depth="1" NCoef="0" IVar="-1" Cut="0.0000000000000000e+00" cType="1" res="1.0181866586208344e-02" rms="2.4422501027584076e-01" purity="9.0742027759552002e-01" nType="-99"/>
        <Node pos="r" depth="1" NCoef="0" IVar="7" Cut="4.6575233340263367e-01" cType="0" res="-7.2084944695234299e-03" rms="3.4671106934547424e-01" purity="7.3637926578521729e-01" nType="0">
          <Node pos="l" depth="2" NCoef="0" IVar="-1" Cut="0.0000000000000000e+00" cType="1" res="-4.3987142853438854e-03" rms="3.3988901972770691e-01" purity="7.6559627056121826e-01" nType="-99"/>
          <Node pos="r" depth="2" NCoef="0" IVar="-1" Cut="0.0000000000000000e+00" cType="1" res="-2.9856784269213676e-02" rms="3.7952220439910889e-01" purity="5.8473622798919678e-01" nType="-99"/>
        </Node>
      </Node>
    </BinaryTree>
    <BinaryTree type="DecisionTree" boostWeight="1.0000000000000000e+00" itree="72">
      <Node pos="s" depth="0" NCoef="0" IVar="0" Cut="1.5375553894042969e+02" cType="0" res="6.8409892264753580e-04" rms="2.9368695616722107e-01" purity="8.3243310451507568e-01" nType="0">
        <Node pos="l" depth="1" NCoef="0" IVar="-1" Cut="0.0000000000000000e+00" cType="1" res="-2.7504390105605125e-02" rms="2.6121592521667480e-01" purity="8.5938000679016113e-01" nType="-99"/>
        <Node pos="r" depth="1" NCoef="0" IVar="0" Cut="3.9850257873535156e+01" cType="0" res="2.4645808152854443e-03" rms="2.9819488525390625e-01" purity="8.2840633392333984e-01" nType="0">
          <Node pos="l" depth="2" NCoef="0" IVar="-1" Cut="0.0000000000000000e+00" cType="1" res="7.5103216804563999e-03" rms="2.8931194543838501e-01" purity="8.4268850088119507e-01" nType="-99"/>
          <Node pos="r" depth="2" NCoef="0" IVar="-1" Cut="0.0000000000000000e+00" cType="1" res="-2.1859414875507355e-02" rms="3.9264711737632751e-01" purity="6.4824450016021729e-01" nType="-99"/>
        </Node>
      </Node>
    </BinaryTree>
    <BinaryTree type="DecisionTree" boostWeight="1.0000000000000000e+00" itree="73">
      <Node pos="s" depth="0" NCoef="0" IVar="5" Cut="2.2451601028442383e+00" cType="0" res="-1.1766534298658371e-03" rms="2.9590329527854919e-01" purity="8.3079540729522705e-01" nType="0">
        <Node pos="l" depth="1" NCoef="0" IVar="-1" Cut="0.0000000000000000e+00" cType="1" res="-5.5034528486430645e-03" rms="2.8522384166717529e-01" purity="8.4791719913482666e-01" nType="-99"/>
        <Node pos="r" depth="1" NCoef="0" IVar="3" Cut="2.1606256103515625e+02" cType="0" res="2.2864524275064468e-02" rms="4.1208782792091370e-01" purity="6.0214412212371826e-01" nType="0">
          <Node pos="l" depth="2" NCoef="0" IVar="-1" Cut="0.0000000000000000e+00" cType="1" res="-6.3754417933523655e-03" rms="3.6200708150863647e-01" purity="7.4810808897018433e-01" nType="-99"/>
          <Node pos="r" depth="2" NCoef="0" IVar="-1" Cut="0.0000000000000000e+00" cType="1" res="4.3890155851840973e-02" rms="4.6392410993576050e-01" purity="4.2307692766189575e-01" nType="-99"/>
        </Node>
      </Node>
    </BinaryTree>
    <BinaryTree type="DecisionTree" boostWeight="1.0000000000000000e+00" itree="74">
      <Node pos="s" depth="0" NCoef="0" IVar="2" Cut="2.1636729240417480e+00" cType="0" res="-1.7760192276909947e-03" rms="2.9563623666763306e-01" purity="8.2812500000000000e-01" nType="0">
        <Node pos="l" depth="1" NCoef="0" IVar="-1" Cut="0.0000000000000000e+00" cType="1" res="1.8967962823808193e-03" rms="2.4429933726787567e-01" purity="9.0630680322647095e-01" nType="-99"/>
        <Node pos="r" depth="1" NCoef="0" IVar="4" Cut="2.3023324012756348e+00" cType="1" res="-1.2152584269642830e-02" rms="4.4726240634918213e-01" purity="5.1003170013427734e-01" nType="0">
          <Node pos="l" depth="2" NCoef="0" IVar="-1" Cut="0.0000000000000000e+00" cType="1" res="-2.3335766047239304e-02" rms="4.4289439916610718e-01" purity="5.1767539978027344e-01" nType="-99"/>
          <Node pos="r" depth="2" NCoef="0" IVar="-1" Cut="0.0000000000000000e+00" cType="1" res="3.9431385695934296e-02" rms="4.5732170343399048e-01" purity="4.8151847720146179e-01" nType="-99"/>
        </Node>
      </Node>
    </BinaryTree>
    <BinaryTree type="DecisionTree" boostWeight="1.0000000000000000e+00" itree="75">
      <Node pos="s" depth="0" NCoef="0" IVar="4" Cut="2.9984014034271240e+00" cType="1" res="-1.5570089453831315e-03" rms="2.9499402642250061e-01" purity="8.2858091592788696e-01" nType="0">
        <Node pos="l" depth="1" NCoef="0" IVar="-1" Cut="0.0000000000000000e+00" cType="1" res="-1.9661466649267823e-04" rms="2.8330224752426147e-01" purity="8.4888255596160889e-01" nType="-99"/>
        <Node pos="r" depth="1" NCoef="0" IVar="1" Cut="3.4822624206542969e+01" cType="0" res="-2.3791845887899399e-02" rms="4.3606552481651306e-01" purity="5.1733511686325073e-01" nType="0">
          <Node pos="l" depth="2" NCoef="0" IVar="-1" Cut="0.0000000000000000e+00" cType="1" res="-5.7880394160747528e-02" rms="4.2317697405815125e-01" purity="5.5012530088424683e-01" nType="-99"/>
          <Node pos="r" depth="2" NCoef="0" IVar="-1" Cut="0.0000000000000000e+00" cType="1" res="2.2447111085057259e-02" rms="4.4573339819908142e-01" purity="4.7845467925071716e-01" nType="-99"/>
        </Node>
      </Node>
    </BinaryTree>
    <BinaryTree type="DecisionTree" boostWeight="1.0000000000000000e+00" itree="76">
      <Node pos="s" depth="0" NCoef="0" IVar="1" Cut="4.2785697937011719e+01" cType="0" res="2.8318102704361081e-04" rms="2.9397997260093689e-01" purity="8.2998633384704590e-01" nType="0">
        <Node pos="l" depth="1" NCoef="0" IVar="-1" Cut="0.0000000000000000e+00" cType="1" res="9.3071656301617622e-03" rms="2.6655483245849609e-01" purity="8.5719817876815796e-01" nType="-99"/>
        <Node pos="r" depth="1" NCoef="0" IVar="2" Cut="8.7075954675674438e-01" cType="0" res="-4.6830805949866772e-03" rms="3.2255563139915466e-01" purity="7.9871863126754761e-01" nType="0">
          <Node pos="l" depth="2" NCoef="0" IVar="-1" Cut="0.0000000000000000e+00" cType="1" res="-9.0947141870856285e-03" rms="3.1803998351097107e-01" purity="8.0820286273956299e-01" nType="-99"/>
          <Node pos="r" depth="2" NCoef="0" IVar="-1" Cut="0.0000000000000000e+00" cType="1" res="2.9901005327701569e-02" rms="4.4972595572471619e-01" purity="4.6984127163887024e-01" nType="-99"/>
        </Node>
      </Node>
    </BinaryTree>
    <BinaryTree type="DecisionTree" boostWeight="1.0000000000000000e+00" itree="77">
      <Node pos="s" depth="0" NCoef="0" IVar="0" Cut="1.0925765991210938e+02" cType="0" res="-1.0748755885288119e-03" rms="2.9793480038642883e-01" purity="8.2911783456802368e-01" nType="0">
        <Node pos="l" depth="1" NCoef="0" IVar="-1" Cut="0.0000000000000000e+00" cType="1" res="-1.6575174406170845e-02" rms="2.7174666523933411e-01" purity="8.5924065113067627e-01" nType="-99"/>
        <Node pos="r" depth="1" NCoef="0" IVar="0" Cut="2.9083564758300781e+01" cType="0" res="1.8872402142733335e-03" rms="3.0908158421516418e-01" purity="8.1539946794509888e-01" nType="0">
          <Node pos="l" depth="2" NCoef="0" IVar="-1" Cut="0.0000000000000000e+00" cType="1" res="4.4119907543063164e-03" rms="3.0661791563034058e-01" purity="8.2128393650054932e-01" nType="-99"/>
          <Node pos="r" depth="2" NCoef="0" IVar="-1" Cut="0.0000000000000000e+00" cType="1" res="-4.1189622133970261e-02" rms="4.1782942414283752e-01" purity="5.0000000000000000e-01" nType="-99"/>
        </Node>
      </Node>
    </BinaryTree>
    <BinaryTree type="DecisionTree" boostWeight="1.0000000000000000e+00" itree="78">
      <Node pos="s" depth="0" NCoef="0" IVar="4" Cut="2.6251087188720703e+00" cType="1" res="1.1859808582812548e-03" rms="2.9283189773559570e-01" purity="8.3066332340240479e-01" nType="0">
        <Node pos="l" depth="1" NCoef="0" IVar="-1" Cut="0.0000000000000000e+00" cType="1" res="5.0547113642096519e-03" rms="2.7655065059661865e-01" purity="8.5740596055984497e-01" nType="-99"/>
        <Node pos="r" depth="1" NCoef="0" IVar="0" Cut="1.4290104675292969e+02" cType="0" res="-1.3154298998415470e-02" rms="4.1829246282577515e-01" purity="5.7263439893722534e-01" nType="0">
          <Node pos="l" depth="2" NCoef="0" IVar="-1" Cut="0.0000000000000000e+00" cType="1" res="8.2774654030799866e-02" rms="3.7595382332801819e-01" purity="7.2619044780731201e-01" nType="-99"/>
          <Node pos="r" depth="2" NCoef="0" IVar="-1" Cut="0.0000000000000000e+00" cType="1" res="-1.9470337778329849e-02" rms="4.2051866650581360e-01" purity="5.6024962663650513e-01" nType="-99"/>
        </Node>
      </Node>
    </BinaryTree>
    <BinaryTree type="DecisionTree" boostWeight="1.0000000000000000e+00" itree="79">
      <Node pos="s" depth="0" NCoef="0" IVar="2" Cut="1.7311041355133057e+00" cType="0" res="1.8575666472315788e-03" rms="2.9499843716621399e-01" purity="8.3225190639495850e-01" nType="0">
        <Node pos="l" depth="1" NCoef="0" IVar="-1" Cut="0.0000000000000000e+00" cType="1" res="4.4777366565540433e-04" rms="2.6188141107559204e-01" purity="8.8633322715759277e-01" nType="-99"/>
        <Node pos="r" depth="1" NCoef="0" IVar="4" Cut="2.9599738121032715e+00" cType="0" res="1.2365501374006271e-02" rms="4.5199301838874817e-01" purity="4.8797565698623657e-01" nType="0">
          <Node pos="l" depth="2" NCoef="0" IVar="-1" Cut="0.0000000000000000e+00" cType="1" res="6.7879386246204376e-02" rms="4.5796230435371399e-01" purity="5.6779658794403076e-01" nType="-99"/>
          <Node pos="r" depth="2" NCoef="0" IVar="-1" Cut="0.0000000000000000e+00" cType="1" res="1.9220963586121798e-03" rms="4.5026683807373047e-01" purity="4.7833505272865295e-01" nType="-99"/>
        </Node>
      </Node>
    </BinaryTree>
    <BinaryTree type="DecisionTree" boostWeight="1.0000000000000000e+00" itree="80">
      <Node pos="s" depth="0" NCoef="0" IVar="2" Cut="3.4616005420684814e+00" cType="0" res="-3.1565693207085133e-03" rms="2.9673528671264648e-01" purity="8.2821780443191528e-01" nType="0">
        <Node pos="l" depth="1" NCoef="0" IVar="-1" Cut="0.0000000000000000e+00" cType="1" res="5.4064174182713032e-03" rms="1.8113335967063904e-01" purity="9.5233082771301270e-01" nType="-99"/>
        <Node pos="r" depth="1" NCoef="0" IVar="3" Cut="1.8589790344238281e+02" cType="0" res="-8.5471319034695625e-03" rms="3.9390158653259277e-01" purity="6.7733091115951538e-01" nType="0">
          <Node pos="l" depth="2" NCoef="0" IVar="-1" Cut="0.0000000000000000e+00" cType="1" res="-2.0988713949918747e-02" rms="3.4574475884437561e-01" purity="7.8406047821044922e-01" nType="-99"/>
          <Node pos="r" depth="2" NCoef="0" IVar="-1" Cut="0.0000000000000000e+00" cType="1" res="1.1570160277187824e-03" rms="4.5193147659301758e-01" purity="5.2973210811614990e-01" nType="-99"/>
        </Node>
      </Node>
    </BinaryTree>
    <BinaryTree type="DecisionTree" boostWeight="1.0000000000000000e+00" itree="81">
      <Node pos="s" depth="0" NCoef="0" IVar="4" Cut="4.3308758735656738e+00" cType="1" res="6.3426437554880977e-04" rms="2.9343402385711670e-01" purity="8.3200895786285400e-01" nType="0">
        <Node pos="l" depth="1" NCoef="0" IVar="-1" Cut="0.0000000000000000e+00" cType="1" res="2.1711490117013454e-03" rms="2.9154810309410095e-01" purity="8.3765333890914917e-01" nType="-99"/>
        <Node pos="r" depth="1" NCoef="0" IVar="6" Cut="3.7302863597869873e-01" cType="0" res="-5.1009472459554672e-02" rms="4.2090880870819092e-01" purity="3.5231316089630127e-01" nType="0">
          <Node pos="l" depth="2" NCoef="0" IVar="-1" Cut="0.0000000000000000e+00" cType="1" res="4.5141767710447311e-02" rms="4.9003762006759644e-01" purity="5.5357140302658081e-01" nType="-99"/>
          <Node pos="r" depth="2" NCoef="0" IVar="-1" Cut="0.0000000000000000e+00" cType="1" res="-6.5506681799888611e-02" rms="3.9707168936729431e-01" purity="3.0222222208976746e-01" nType="-99"/>
        </Node>
      </Node>
    </BinaryTree>
    <BinaryTree type="DecisionTree" boostWeight="1.0000000000000000e+00" itree="82">
      <Node pos="s" depth="0" NCoef="0" IVar="3" Cut="7.4806127929687500e+02" cType="0" res="3.6496465327218175e-04" rms="2.9378980398178101e-01" purity="8.3105266094207764e-01" nType="0">
        <Node pos="l" depth="1" NCoef="0" IVar="-1" Cut="0.0000000000000000e+00" cType="1" res="8.0203630030155182e-02" rms="7.4522726237773895e-02" purity="9.9250167608261108e-01" nType="-99"/>
        <Node pos="r" depth="1" NCoef="0" IVar="0" Cut="1.4811685180664062e+02" cType="1" res="-1.5811970224604011e-03" rms="3.3475396037101746e-01" purity="7.7954769134521484e-01" nType="0">
          <Node pos="l" depth="2" NCoef="0" IVar="-1" Cut="0.0000000000000000e+00" cType="1" res="1.9353772222530097e-04" rms="3.3585542440414429e-01" purity="7.7991282939910889e-01" nType="-99"/>
          <Node pos="r" depth="2" NCoef="0" IVar="-1" Cut="0.0000000000000000e+00" cType="1" res="-2.2626863792538643e-02" rms="3.2579600811004639e-01" purity="7.7672207355499268e-01" nType="-99"/>
        </Node>
      </Node>
    </BinaryTree>
    <BinaryTree type="DecisionTree" boostWeight="1.0000000000000000e+00" itree="83">
      <Node pos="s" depth="0" NCoef="0" IVar="0" Cut="1.0925765991210938e+02" cType="0" res="2.5851600803434849e-03" rms="2.9477480053901672e-01" purity="8.3303016424179077e-01" nType="0">
        <Node pos="l" depth="1" NCoef="0" IVar="-1" Cut="0.0000000000000000e+00" cType="1" res="-7.3271165601909161e-03" rms="2.7047932147979736e-01" purity="8.6028152704238892e-01" nType="-99"/>
        <Node pos="r" depth="1" NCoef="0" IVar="0" Cut="2.4864591598510742e+01" cType="0" res="5.3374236449599266e-03" rms="3.0522209405899048e-01" purity="8.2054370641708374e-01" nType="0">
          <Node pos="l" depth="2" NCoef="0" IVar="-1" Cut="0.0000000000000000e+00" cType="1" res="9.3088392168283463e-03" rms="3.0476087331771851e-01" purity="8.2305550575256348e-01" nType="-99"/>
          <Node pos="r" depth="2" NCoef="0" IVar="-1" Cut="0.0000000000000000e+00" cType="1" res="-8.9120566844940186e-02" rms="3.7412446737289429e-01" purity="3.0864197015762329e-01" nType="-99"/>
        </Node>
      </Node>
    </BinaryTree>
    <BinaryTree type="DecisionTree" boostWeight="1.0000000000000000e+00" itree="84">
      <Node pos="s" depth="0" NCoef="0" IVar="6" Cut="7.1791231632232666e-01" cType="0" res="7.0888653863221407e-04" rms="2.9430091381072998e-01" purity="8.3072334527969360e-01" nType="0">
        <Node pos="l" depth="1" NCoef="0" IVar="-1" Cut="0.0000000000000000e+00" cType="1" res="1.7148191109299660e-02" rms="2.2794935107231140e-01" purity="9.2176133394241333e-01" nType="-99"/>
        <Node pos="r" depth="1" NCoef="0" IVar="7" Cut="4.2462682723999023e-01" cType="0" res="-3.7013285327702761e-03" rms="3.3708032965660095e-01" purity="7.5964587926864624e-01" nType="0">
          <Node pos="l" depth="2" NCoef="0" IVar="-1" Cut="0.0000000000000000e+00" cType="1" res="-1.7269253730773926e-03" rms="3.3231168985366821e-01" purity="7.7655380964279175e-01" nType="-99"/>
          <Node pos="r" depth="2" NCoef="0" IVar="-1" Cut="0.0000000000000000e+00" cType="1" res="-3.4705430269241333e-02" rms="3.8513109087944031e-01" purity="5.7155632972717285e-01" nType="-99"/>
        </Node>
      </Node>
    </BinaryTree>
    <BinaryTree type="DecisionTree" boostWeight="1.0000000000000000e+00" itree="85">
      <Node pos="s" depth="0" NCoef="0" IVar="4" Cut="2.6251087188720703e+00" cType="1" res="7.2379130870103836e-04" rms="2.9430502653121948e-01" purity="8.3117961883544922e-01" nType="0">
        <Node pos="l" depth="1" NCoef="0" IVar="-1" Cut="0.0000000000000000e+00" cType="1" res="4.0768957696855068e-03" rms="2.7792641520500183e-01" purity="8.5887688398361206e-01" nType="-99"/>
        <Node pos="r" depth="1" NCoef="0" IVar="5" Cut="2.8426225185394287e+00" cType="0" res="-1.2499048374593258e-02" rms="4.1823962330818176e-01" purity="5.6963670253753662e-01" nType="0">
          <Node pos="l" depth="2" NCoef="0" IVar="-1" Cut="0.0000000000000000e+00" cType="1" res="-4.2307030409574509e-02" rms="4.0236729383468628e-01" purity="6.3611114025115967e-01" nType="-99"/>
          <Node pos="r" depth="2" NCoef="0" IVar="-1" Cut="0.0000000000000000e+00" cType="1" res="1.2592769227921963e-02" rms="4.2990440130233765e-01" purity="5.1136362552642822e-01" nType="-99"/>
        </Node>
      </Node>
    </BinaryTree>
    <BinaryTree type="DecisionTree" boostWeight="1.0000000000000000e+00" itree="86">
      <Node pos="s" depth="0" NCoef="0" IVar="4" Cut="4.3751778602600098e+00" cType="1" res="-1.7428147839382291e-03" rms="2.9554924368858337e-01" purity="8.3062940835952759e-01" nType="0">
