<?xml version="1.0"?>
<MethodSetup Method="BDT::BDT">
  <GeneralInfo>
    <Info name="TMVA Release" value="4.0.7 [262151]"/>
    <Info name="ROOT Release" value="5.27/06 [334598]"/>
    <Info name="Creator" value="mingyang"/>
    <Info name="Date" value="Mon Dec 19 18:16:41 2011"/>
    <Info name="Host" value="Linux lxbuild051.cern.ch 2.6.18-238.1.1.el5 #1 SMP Wed Jan 19 11:06:36 CET 2011 x86_64 x86_64 x86_64 GNU/Linux"/>
    <Info name="Dir" value="/scratch/mingyang/MVA/TMVA/macros"/>
    <Info name="Training events" value="87441"/>
    <Info name="TrainingTime" value="54.5152"/>
    <Info name="AnalysisType" value="Classification"/>
  </GeneralInfo>
  <Options>
    <Option name="V" modified="Yes">False</Option>
    <Option name="VerbosityLevel" modified="No">Default</Option>
    <Option name="VarTransform" modified="No">None</Option>
    <Option name="H" modified="Yes">False</Option>
    <Option name="CreateMVAPdfs" modified="No">False</Option>
    <Option name="IgnoreNegWeightsInTraining" modified="No">False</Option>
    <Option name="NTrees" modified="Yes">400</Option>
    <Option name="BoostType" modified="Yes">AdaBoost</Option>
    <Option name="AdaBoostR2Loss" modified="No">quadratic</Option>
    <Option name="UseBaggedGrad" modified="No">False</Option>
    <Option name="GradBaggingFraction" modified="No">6.000000e-01</Option>
    <Option name="Shrinkage" modified="No">1.000000e+00</Option>
    <Option name="AdaBoostBeta" modified="No">1.000000e+00</Option>
    <Option name="UseRandomisedTrees" modified="No">False</Option>
    <Option name="UseNvars" modified="No">4</Option>
    <Option name="UseNTrainEvents" modified="No">87441</Option>
    <Option name="UseWeightedTrees" modified="No">True</Option>
    <Option name="UseYesNoLeaf" modified="No">True</Option>
    <Option name="NodePurityLimit" modified="No">5.000000e-01</Option>
    <Option name="SeparationType" modified="Yes">giniindex</Option>
    <Option name="nEventsMin" modified="Yes">400</Option>
    <Option name="nCuts" modified="Yes">2000</Option>
    <Option name="PruneStrength" modified="No">-1.000000e+00</Option>
    <Option name="PruneMethod" modified="Yes">nopruning</Option>
    <Option name="PruneBeforeBoost" modified="No">False</Option>
    <Option name="PruningValFraction" modified="No">5.000000e-01</Option>
    <Option name="NNodesMax" modified="No">100000</Option>
    <Option name="MaxDepth" modified="Yes">3</Option>
  </Options>
  <Variables NVar="12">
    <Variable VarIndex="0" Expression="HoE" Label="HoE" Title="HoE" Unit="" Internal="HoE" Type="F" Min="0" Max="0.0819016"/>
    <Variable VarIndex="1" Expression="covIEtaIEta" Label="covIEtaIEta" Title="covIEtaIEta" Unit="" Internal="covIEtaIEta" Type="F" Min="0.00143765" Max="0.0139997"/>
    <Variable VarIndex="2" Expression="tIso1abs" Label="tIso1abs" Title="tIso1abs" Unit="" Internal="tIso1abs" Type="F" Min="-3.84816" Max="30.3133"/>
    <Variable VarIndex="3" Expression="tIso3abs" Label="tIso3abs" Title="tIso3abs" Unit="" Internal="tIso3abs" Type="F" Min="0" Max="2.79997"/>
    <Variable VarIndex="4" Expression="tIso2abs" Label="tIso2abs" Title="tIso2abs" Unit="" Internal="tIso2abs" Type="F" Min="-11.822" Max="2732.48"/>
    <Variable VarIndex="5" Expression="R9" Label="R9" Title="R9" Unit="" Internal="R9" Type="F" Min="0.108942" Max="1.44627"/>
    <Variable VarIndex="6" Expression="absIsoEcal" Label="absIsoEcal" Title="absIsoEcal" Unit="" Internal="absIsoEcal" Type="F" Min="-0.87793" Max="8.65674"/>
    <Variable VarIndex="7" Expression="absIsoHcal" Label="absIsoHcal" Title="absIsoHcal" Unit="" Internal="absIsoHcal" Type="F" Min="0" Max="29.3633"/>
    <Variable VarIndex="8" Expression="NVertexes" Label="NVertexes" Title="NVertexes" Unit="" Internal="NVertexes" Type="F" Min="1" Max="42"/>
    <Variable VarIndex="9" Expression="ScEta" Label="ScEta" Title="ScEta" Unit="" Internal="ScEta" Type="F" Min="-1.44415" Max="1.44415"/>
    <Variable VarIndex="10" Expression="EtaWidth" Label="EtaWidth" Title="EtaWidth" Unit="" Internal="EtaWidth" Type="F" Min="0.00572053" Max="0.0264274"/>
    <Variable VarIndex="11" Expression="PhiWidth" Label="PhiWidth" Title="PhiWidth" Unit="" Internal="PhiWidth" Type="F" Min="0.00664413" Max="0.1394"/>
  </Variables>
  <Spectators NSpec="0"/>
  <Transformations NTransformations="0"/>
  <MVAPdfs/>
  <Weights NTrees="400" TreeType="0">
    <BinaryTree type="DecisionTree" boostWeight="1.4207841995607071e+00" itree="0">
      <Node pos="s" depth="0" Seq="0" IVar="5" Cut="9.3165457248687744e-01" cType="0" nS="4.3907359375000000e+04" nB="4.3585574218750000e+04" nEv="8.7492929687500000e+04" nSuw="4.3841000000000000e+04" nBuw="4.3600000000000000e+04" nEvuw="8.7441000000000000e+04" sepI="2.4999661743640900e-01" sepG="4.8149775390625000e+03" res="-9.9000000000000000e+01" rms="0.0000000000000000e+00" nType="0" CC="0.0000000000000000e+00">
        <Node pos="l" depth="1" Seq="0" IVar="1" Cut="9.9183274433016777e-03" cType="1" nS="2.8865750000000000e+04" nB="8.4280712890625000e+03" nEv="3.7293820312500000e+04" nSuw="2.9275000000000000e+04" nBuw="8.3690000000000000e+03" nEvuw="3.7644000000000000e+04" sepI="1.7491911351680756e-01" sepG="8.4098547363281250e+02" res="-9.9000000000000000e+01" rms="0.0000000000000000e+00" nType="0" CC="0.0000000000000000e+00">
          <Node pos="l" depth="2" Seq="0" IVar="-1" Cut="2.0962214469909668e+00" cType="1" nS="2.7947937500000000e+04" nB="6.1286855468750000e+03" nEv="3.4076621093750000e+04" nSuw="2.8297000000000000e+04" nBuw="6.0670000000000000e+03" nEvuw="3.4364000000000000e+04" sepI="1.4750407636165619e-01" sepG="-1.0000000000000000e+00" res="-9.9000000000000000e+01" rms="0.0000000000000000e+00" nType="1" CC="0.0000000000000000e+00"/>
          <Node pos="r" depth="2" Seq="2" IVar="-1" Cut="1.0278587229549885e-02" cType="1" nS="9.1781262207031250e+02" nB="2.2993854980468750e+03" nEv="3.2171979980468750e+03" nSuw="9.7800000000000000e+02" nBuw="2.3020000000000000e+03" nEvuw="3.2800000000000000e+03" sepI="2.0389670133590698e-01" sepG="-1.0000000000000000e+00" res="-9.9000000000000000e+01" rms="0.0000000000000000e+00" nType="-1" CC="0.0000000000000000e+00"/>
        </Node>
        <Node pos="r" depth="1" Seq="1" IVar="1" Cut="9.3729030340909958e-03" cType="1" nS="1.5041609375000000e+04" nB="3.5157500000000000e+04" nEv="5.0199113281250000e+04" nSuw="1.4566000000000000e+04" nBuw="3.5231000000000000e+04" nEvuw="4.9797000000000000e+04" sepI="2.0985545217990875e-01" sepG="2.0958625488281250e+03" res="-9.9000000000000000e+01" rms="0.0000000000000000e+00" nType="0" CC="0.0000000000000000e+00">
          <Node pos="l" depth="2" Seq="1" IVar="4" Cut="1.2798695564270020e+00" cType="1" nS="1.3724669921875000e+04" nB="1.5159041992187500e+04" nEv="2.8883710937500000e+04" nSuw="1.3125000000000000e+04" nBuw="1.5102000000000000e+04" nEvuw="2.8227000000000000e+04" sepI="2.4938346445560455e-01" sepG="1.1873088378906250e+03" res="-9.9000000000000000e+01" rms="0.0000000000000000e+00" nType="0" CC="0.0000000000000000e+00">
            <Node pos="l" depth="3" Seq="1" IVar="-1" Cut="0.0000000000000000e+00" cType="1" nS="1.0304139648437500e+04" nB="5.2367910156250000e+03" nEv="1.5540930664062500e+04" nSuw="9.9790000000000000e+03" nBuw="5.5950000000000000e+03" nEvuw="1.5574000000000000e+04" sepI="2.2342045605182648e-01" sepG="-1.0000000000000000e+00" res="-9.9000000000000000e+01" rms="0.0000000000000000e+00" nType="1" CC="0.0000000000000000e+00"/>
            <Node pos="r" depth="3" Seq="5" IVar="-1" Cut="0.0000000000000000e+00" cType="1" nS="3.4205297851562500e+03" nB="9.9222509765625000e+03" nEv="1.3342780273437500e+04" nSuw="3.1460000000000000e+03" nBuw="9.5070000000000000e+03" nEvuw="1.2653000000000000e+04" sepI="1.9063863158226013e-01" sepG="-1.0000000000000000e+00" res="-9.9000000000000000e+01" rms="0.0000000000000000e+00" nType="-1" CC="0.0000000000000000e+00"/>
          </Node>
          <Node pos="r" depth="2" Seq="3" IVar="-1" Cut="9.8237926140427589e-03" cType="1" nS="1.3169400634765625e+03" nB="1.9998460937500000e+04" nEv="2.1315400390625000e+04" nSuw="1.4410000000000000e+03" nBuw="2.0129000000000000e+04" nEvuw="2.1570000000000000e+04" sepI="5.7966303080320358e-02" sepG="-1.0000000000000000e+00" res="-9.9000000000000000e+01" rms="0.0000000000000000e+00" nType="-1" CC="0.0000000000000000e+00"/>
        </Node>
      </Node>
    </BinaryTree>
    <BinaryTree type="DecisionTree" boostWeight="7.4369144949196542e-01" itree="1">
      <Node pos="s" depth="0" Seq="0" IVar="10" Cut="1.1950168758630753e-02" cType="1" nS="3.8280558593750000e+04" nB="4.9212375000000000e+04" nEv="8.7492937500000000e+04" nSuw="4.3841000000000000e+04" nBuw="4.3600000000000000e+04" nEvuw="8.7441000000000000e+04" sepI="2.4609717726707458e-01" sepG="1.8160950927734375e+03" res="-9.9000000000000000e+01" rms="0.0000000000000000e+00" nType="0" CC="0.0000000000000000e+00">
        <Node pos="l" depth="1" Seq="0" IVar="3" Cut="9.5710998773574829e-01" cType="1" nS="3.6958585937500000e+04" nB="3.7138472656250000e+04" nEv="7.4097054687500000e+04" nSuw="4.2669000000000000e+04" nBuw="2.7673000000000000e+04" nEvuw="7.0342000000000000e+04" sepI="2.4999852478504181e-01" sepG="9.2794628906250000e+02" res="-9.9000000000000000e+01" rms="0.0000000000000000e+00" nType="0" CC="0.0000000000000000e+00">
          <Node pos="l" depth="2" Seq="0" IVar="11" Cut="3.9762359112501144e-02" cType="1" nS="3.1222646484375000e+04" nB="2.4150312500000000e+04" nEv="5.5372960937500000e+04" nSuw="3.6385000000000000e+04" nBuw="1.7211000000000000e+04" nEvuw="5.3596000000000000e+04" sepI="2.4592179059982300e-01" sepG="5.7358245849609375e+02" res="-9.9000000000000000e+01" rms="0.0000000000000000e+00" nType="0" CC="0.0000000000000000e+00">
            <Node pos="l" depth="3" Seq="0" IVar="-1" Cut="0.0000000000000000e+00" cType="1" nS="2.8150531250000000e+04" nB="1.8059974609375000e+04" nEv="4.6210507812500000e+04" nSuw="3.3981000000000000e+04" nBuw="1.1775000000000000e+04" nEvuw="4.5756000000000000e+04" sepI="2.3807965219020844e-01" sepG="-1.0000000000000000e+00" res="-9.9000000000000000e+01" rms="0.0000000000000000e+00" nType="1" CC="0.0000000000000000e+00"/>
            <Node pos="r" depth="3" Seq="4" IVar="-1" Cut="0.0000000000000000e+00" cType="1" nS="3.0721145019531250e+03" nB="6.0903383789062500e+03" nEv="9.1624531250000000e+03" nSuw="2.4040000000000000e+03" nBuw="5.4360000000000000e+03" nEvuw="7.8400000000000000e+03" sepI="2.2287189960479736e-01" sepG="-1.0000000000000000e+00" res="-9.9000000000000000e+01" rms="0.0000000000000000e+00" nType="-1" CC="0.0000000000000000e+00"/>
          </Node>
          <Node pos="r" depth="2" Seq="2" IVar="-1" Cut="1.8955866098403931e+00" cType="1" nS="5.7359379882812500e+03" nB="1.2988157226562500e+04" nEv="1.8724095703125000e+04" nSuw="6.2840000000000000e+03" nBuw="1.0462000000000000e+04" nEvuw="1.6746000000000000e+04" sepI="2.1249577403068542e-01" sepG="-1.0000000000000000e+00" res="-9.9000000000000000e+01" rms="0.0000000000000000e+00" nType="-1" CC="0.0000000000000000e+00"/>
        </Node>
        <Node pos="r" depth="1" Seq="1" IVar="-1" Cut="8.9686375856399536e-01" cType="0" nS="1.3219732666015625e+03" nB="1.2073905273437500e+04" nEv="1.3395878906250000e+04" nSuw="1.1720000000000000e+03" nBuw="1.5927000000000000e+04" nEvuw="1.7099000000000000e+04" sepI="8.8946335017681122e-02" sepG="-1.0000000000000000e+00" res="-9.9000000000000000e+01" rms="0.0000000000000000e+00" nType="-1" CC="0.0000000000000000e+00"/>
      </Node>
    </BinaryTree>
    <BinaryTree type="DecisionTree" boostWeight="5.2171315471305324e-01" itree="2">
      <Node pos="s" depth="0" Seq="0" IVar="1" Cut="1.0509201325476170e-02" cType="1" nS="3.6486242187500000e+04" nB="5.1006691406250000e+04" nEv="8.7492929687500000e+04" nSuw="4.3841000000000000e+04" nBuw="4.3600000000000000e+04" nEvuw="8.7441000000000000e+04" sepI="2.4311420321464539e-01" sepG="9.2336547851562500e+02" res="-9.9000000000000000e+01" rms="0.0000000000000000e+00" nType="0" CC="0.0000000000000000e+00">
        <Node pos="l" depth="1" Seq="0" IVar="6" Cut="2.0668103694915771e+00" cType="1" nS="3.6009867187500000e+04" nB="4.4499472656250000e+04" nEv="8.0509343750000000e+04" nSuw="4.3656000000000000e+04" nBuw="3.1062000000000000e+04" nEvuw="7.4718000000000000e+04" sepI="2.4722014367580414e-01" sepG="5.3340997314453125e+02" res="-9.9000000000000000e+01" rms="0.0000000000000000e+00" nType="0" CC="0.0000000000000000e+00">
          <Node pos="l" depth="2" Seq="0" IVar="10" Cut="9.4702746719121933e-03" cType="1" nS="3.0428644531250000e+04" nB="3.1419972656250000e+04" nEv="6.1848617187500000e+04" nSuw="3.5599000000000000e+04" nBuw="1.8660000000000000e+04" nEvuw="5.4259000000000000e+04" sepI="2.4993577599525452e-01" sepG="3.0860821533203125e+02" res="-9.9000000000000000e+01" rms="0.0000000000000000e+00" nType="0" CC="0.0000000000000000e+00">
            <Node pos="l" depth="3" Seq="0" IVar="-1" Cut="0.0000000000000000e+00" cType="1" nS="1.5219926757812500e+04" nB="1.1320580078125000e+04" nEv="2.6540505859375000e+04" nSuw="1.8997000000000000e+04" nBuw="5.1360000000000000e+03" nEvuw="2.4133000000000000e+04" sepI="2.4460358917713165e-01" sepG="-1.0000000000000000e+00" res="-9.9000000000000000e+01" rms="0.0000000000000000e+00" nType="1" CC="0.0000000000000000e+00"/>
            <Node pos="r" depth="3" Seq="4" IVar="-1" Cut="0.0000000000000000e+00" cType="1" nS="1.5208718750000000e+04" nB="2.0099392578125000e+04" nEv="3.5308113281250000e+04" nSuw="1.6602000000000000e+04" nBuw="1.3524000000000000e+04" nEvuw="3.0126000000000000e+04" sepI="2.4520345032215118e-01" sepG="-1.0000000000000000e+00" res="-9.9000000000000000e+01" rms="0.0000000000000000e+00" nType="-1" CC="0.0000000000000000e+00"/>
          </Node>
          <Node pos="r" depth="2" Seq="2" IVar="-1" Cut="3.5038251876831055e+00" cType="1" nS="5.5812221679687500e+03" nB="1.3079500000000000e+04" nEv="1.8660722656250000e+04" nSuw="8.0570000000000000e+03" nBuw="1.2402000000000000e+04" nEvuw="2.0459000000000000e+04" sepI="2.0963488519191742e-01" sepG="-1.0000000000000000e+00" res="-9.9000000000000000e+01" rms="0.0000000000000000e+00" nType="-1" CC="0.0000000000000000e+00"/>
        </Node>
        <Node pos="r" depth="1" Seq="1" IVar="-1" Cut="9.1773849725723267e-01" cType="0" nS="4.7637350463867188e+02" nB="6.5072192382812500e+03" nEv="6.9835927734375000e+03" nSuw="1.8500000000000000e+02" nBuw="1.2538000000000000e+04" nEvuw="1.2723000000000000e+04" sepI="6.3560195267200470e-02" sepG="-1.0000000000000000e+00" res="-9.9000000000000000e+01" rms="0.0000000000000000e+00" nType="-1" CC="0.0000000000000000e+00"/>
      </Node>
    </BinaryTree>
    <BinaryTree type="DecisionTree" boostWeight="3.5710121679981793e-01" itree="3">
      <Node pos="s" depth="0" Seq="0" IVar="1" Cut="1.0534312576055527e-02" cType="1" nS="4.0675585937500000e+04" nB="4.6817347656250000e+04" nEv="8.7492937500000000e+04" nSuw="4.3841000000000000e+04" nBuw="4.3600000000000000e+04" nEvuw="8.7441000000000000e+04" sepI="2.4876809120178223e-01" sepG="7.9079083251953125e+02" res="-9.9000000000000000e+01" rms="0.0000000000000000e+00" nType="0" CC="0.0000000000000000e+00">
        <Node pos="l" depth="1" Seq="0" IVar="4" Cut="3.2641036510467529e+00" cType="1" nS="4.0072972656250000e+04" nB="4.1701667968750000e+04" nEv="8.1774640625000000e+04" nSuw="4.3668000000000000e+04" nBuw="3.1207000000000000e+04" nEvuw="7.4875000000000000e+04" sepI="2.4990083277225494e-01" sepG="4.0258255004882812e+02" res="-9.9000000000000000e+01" rms="0.0000000000000000e+00" nType="0" CC="0.0000000000000000e+00">
          <Node pos="l" depth="2" Seq="0" IVar="11" Cut="5.5948149412870407e-02" cType="1" nS="3.4869265625000000e+04" nB="3.1735199218750000e+04" nEv="6.6604468750000000e+04" nSuw="4.0620000000000000e+04" nBuw="2.0310000000000000e+04" nEvuw="6.0930000000000000e+04" sepI="2.4944645166397095e-01" sepG="1.8711116027832031e+02" res="-9.9000000000000000e+01" rms="0.0000000000000000e+00" nType="0" CC="0.0000000000000000e+00">
            <Node pos="l" depth="3" Seq="0" IVar="-1" Cut="0.0000000000000000e+00" cType="1" nS="3.3512019531250000e+04" nB="2.8853900390625000e+04" nEv="6.2365921875000000e+04" nSuw="4.0048000000000000e+04" nBuw="1.6579000000000000e+04" nEvuw="5.6627000000000000e+04" sepI="2.4860534071922302e-01" sepG="-1.0000000000000000e+00" res="-9.9000000000000000e+01" rms="0.0000000000000000e+00" nType="1" CC="0.0000000000000000e+00"/>
            <Node pos="r" depth="3" Seq="4" IVar="-1" Cut="0.0000000000000000e+00" cType="1" nS="1.3572465820312500e+03" nB="2.8812980957031250e+03" nEv="4.2385449218750000e+03" nSuw="5.7200000000000000e+02" nBuw="3.7310000000000000e+03" nEvuw="4.3030000000000000e+03" sepI="2.1767744421958923e-01" sepG="-1.0000000000000000e+00" res="-9.9000000000000000e+01" rms="0.0000000000000000e+00" nType="-1" CC="0.0000000000000000e+00"/>
          </Node>
          <Node pos="r" depth="2" Seq="2" IVar="-1" Cut="9.3175905942916870e-01" cType="1" nS="5.2037070312500000e+03" nB="9.9664677734375000e+03" nEv="1.5170174804687500e+04" nSuw="3.0480000000000000e+03" nBuw="1.0897000000000000e+04" nEvuw="1.3945000000000000e+04" sepI="2.2535797953605652e-01" sepG="-1.0000000000000000e+00" res="-9.9000000000000000e+01" rms="0.0000000000000000e+00" nType="-1" CC="0.0000000000000000e+00"/>
        </Node>
        <Node pos="r" depth="1" Seq="1" IVar="-1" Cut="9.1773849725723267e-01" cType="0" nS="6.0261425781250000e+02" nB="5.1156791992187500e+03" nEv="5.7182934570312500e+03" nSuw="1.7300000000000000e+02" nBuw="1.2393000000000000e+04" nEvuw="1.2566000000000000e+04" sepI="9.4277888536453247e-02" sepG="-1.0000000000000000e+00" res="-9.9000000000000000e+01" rms="0.0000000000000000e+00" nType="-1" CC="0.0000000000000000e+00"/>
      </Node>
    </BinaryTree>
    <BinaryTree type="DecisionTree" boostWeight="4.0861415725149552e-01" itree="4">
      <Node pos="s" depth="0" Seq="0" IVar="10" Cut="1.2850466184318066e-02" cType="1" nS="3.7181015625000000e+04" nB="5.0311917968750000e+04" nEv="8.7492929687500000e+04" nSuw="4.3841000000000000e+04" nBuw="4.3600000000000000e+04" nEvuw="8.7441000000000000e+04" sepI="2.4436902999877930e-01" sepG="4.5821762084960938e+02" res="-9.9000000000000000e+01" rms="0.0000000000000000e+00" nType="0" CC="0.0000000000000000e+00">
        <Node pos="l" depth="1" Seq="0" IVar="7" Cut="1.2473157644271851e+00" cType="0" nS="3.6669167968750000e+04" nB="4.6330695312500000e+04" nEv="8.2999867187500000e+04" nSuw="4.3660000000000000e+04" nBuw="3.3053000000000000e+04" nEvuw="7.6713000000000000e+04" sepI="2.4661251902580261e-01" sepG="1.5155464172363281e+02" res="-9.9000000000000000e+01" rms="0.0000000000000000e+00" nType="0" CC="0.0000000000000000e+00">
          <Node pos="l" depth="2" Seq="0" IVar="1" Cut="9.0338867157697678e-03" cType="1" nS="8.0684414062500000e+03" nB="7.0924277343750000e+03" nEv="1.5160869140625000e+04" nSuw="8.0230000000000000e+03" nBuw="7.7050000000000000e+03" nEvuw="1.5728000000000000e+04" sepI="2.4896389245986938e-01" sepG="1.0797706604003906e+02" res="-9.9000000000000000e+01" rms="0.0000000000000000e+00" nType="0" CC="0.0000000000000000e+00">
            <Node pos="l" depth="3" Seq="0" IVar="-1" Cut="0.0000000000000000e+00" cType="1" nS="4.6085161132812500e+03" nB="2.8491193847656250e+03" nEv="7.4576357421875000e+03" nSuw="3.5310000000000000e+03" nBuw="2.7060000000000000e+03" nEvuw="6.2370000000000000e+03" sepI="2.3608557879924774e-01" sepG="-1.0000000000000000e+00" res="-9.9000000000000000e+01" rms="0.0000000000000000e+00" nType="1" CC="0.0000000000000000e+00"/>
            <Node pos="r" depth="3" Seq="4" IVar="-1" Cut="0.0000000000000000e+00" cType="1" nS="3.4599252929687500e+03" nB="4.2433081054687500e+03" nEv="7.7032333984375000e+03" nSuw="4.4920000000000000e+03" nBuw="4.9990000000000000e+03" nEvuw="9.4910000000000000e+03" sepI="2.4741451442241669e-01" sepG="-1.0000000000000000e+00" res="-9.9000000000000000e+01" rms="0.0000000000000000e+00" nType="-1" CC="0.0000000000000000e+00"/>
          </Node>
          <Node pos="r" depth="2" Seq="2" IVar="4" Cut="-1.3359131813049316e+00" cType="1" nS="2.8600724609375000e+04" nB="3.9238269531250000e+04" nEv="6.7838992187500000e+04" nSuw="3.5637000000000000e+04" nBuw="2.5348000000000000e+04" nEvuw="6.0985000000000000e+04" sepI="2.4385298788547516e-01" sepG="1.1470901489257812e+02" res="-9.9000000000000000e+01" rms="0.0000000000000000e+00" nType="0" CC="0.0000000000000000e+00">
            <Node pos="l" depth="3" Seq="2" IVar="-1" Cut="0.0000000000000000e+00" cType="1" nS="4.7158930664062500e+03" nB="4.2310292968750000e+03" nEv="8.9469218750000000e+03" nSuw="9.0940000000000000e+03" nBuw="2.4330000000000000e+03" nEvuw="1.1527000000000000e+04" sepI="2.4926577508449554e-01" sepG="-1.0000000000000000e+00" res="-9.9000000000000000e+01" rms="0.0000000000000000e+00" nType="1" CC="0.0000000000000000e+00"/>
            <Node pos="r" depth="3" Seq="6" IVar="-1" Cut="0.0000000000000000e+00" cType="1" nS="2.3884832031250000e+04" nB="3.5007238281250000e+04" nEv="5.8892070312500000e+04" nSuw="2.6543000000000000e+04" nBuw="2.2915000000000000e+04" nEvuw="4.9458000000000000e+04" sepI="2.4108289182186127e-01" sepG="-1.0000000000000000e+00" res="-9.9000000000000000e+01" rms="0.0000000000000000e+00" nType="-1" CC="0.0000000000000000e+00"/>
          </Node>
        </Node>
        <Node pos="r" depth="1" Seq="1" IVar="5" Cut="8.6042535305023193e-01" cType="0" nS="5.1185067749023438e+02" nB="3.9812192382812500e+03" nEv="4.4930698242187500e+03" nSuw="1.8100000000000000e+02" nBuw="1.0547000000000000e+04" nEvuw="1.0728000000000000e+04" sepI="1.0094226151704788e-01" sepG="5.4816455841064453e+01" res="-9.9000000000000000e+01" rms="0.0000000000000000e+00" nType="0" CC="0.0000000000000000e+00">
          <Node pos="l" depth="2" Seq="1" IVar="1" Cut="1.1373861692845821e-02" cType="1" nS="2.3964241027832031e+02" nB="3.7103234863281250e+02" nEv="6.1067474365234375e+02" nSuw="9.6000000000000000e+01" nBuw="8.8800000000000000e+02" nEvuw="9.8400000000000000e+02" sepI="2.3842704296112061e-01" sepG="2.1226511001586914e+01" res="-9.9000000000000000e+01" rms="0.0000000000000000e+00" nType="0" CC="0.0000000000000000e+00">
            <Node pos="l" depth="3" Seq="1" IVar="-1" Cut="0.0000000000000000e+00" cType="1" nS="2.2511428833007812e+02" nB="2.1942732238769531e+02" nEv="4.4454159545898438e+02" nSuw="9.4000000000000000e+01" nBuw="3.9300000000000000e+02" nEvuw="4.8700000000000000e+02" sepI="2.4995908141136169e-01" sepG="-1.0000000000000000e+00" res="-9.9000000000000000e+01" rms="0.0000000000000000e+00" nType="1" CC="0.0000000000000000e+00"/>
            <Node pos="r" depth="3" Seq="5" IVar="-1" Cut="0.0000000000000000e+00" cType="1" nS="1.4528114318847656e+01" nB="1.5160502624511719e+02" nEv="1.6613313293457031e+02" nSuw="2.0000000000000000e+00" nBuw="4.9500000000000000e+02" nEvuw="4.9700000000000000e+02" sepI="7.9801358282566071e-02" sepG="-1.0000000000000000e+00" res="-9.9000000000000000e+01" rms="0.0000000000000000e+00" nType="-1" CC="0.0000000000000000e+00"/>
          </Node>
          <Node pos="r" depth="2" Seq="3" IVar="-1" Cut="1.3637711293995380e-02" cType="1" nS="2.7220828247070312e+02" nB="3.6101867675781250e+03" nEv="3.8823950195312500e+03" nSuw="8.5000000000000000e+01" nBuw="9.6590000000000000e+03" nEvuw="9.7440000000000000e+03" sepI="6.5197587013244629e-02" sepG="-1.0000000000000000e+00" res="-9.9000000000000000e+01" rms="0.0000000000000000e+00" nType="-1" CC="0.0000000000000000e+00"/>
        </Node>
      </Node>
    </BinaryTree>
    <BinaryTree type="DecisionTree" boostWeight="2.4814331488163538e-01" itree="5">
      <Node pos="s" depth="0" Seq="0" IVar="10" Cut="1.2850466184318066e-02" cType="1" nS="4.2552656250000000e+04" nB="4.4940277343750000e+04" nEv="8.7492929687500000e+04" nSuw="4.3841000000000000e+04" nBuw="4.3600000000000000e+04" nEvuw="8.7441000000000000e+04" sepI="2.4981382489204407e-01" sepG="5.0151281738281250e+02" res="-9.9000000000000000e+01" rms="0.0000000000000000e+00" nType="0" CC="0.0000000000000000e+00">
        <Node pos="l" depth="1" Seq="0" IVar="1" Cut="1.0509201325476170e-02" cType="1" nS="4.2006199218750000e+04" nB="4.1534589843750000e+04" nEv="8.3540789062500000e+04" nSuw="4.3660000000000000e+04" nBuw="3.3053000000000000e+04" nEvuw="7.6713000000000000e+04" sepI="2.4999202787876129e-01" sepG="1.2864268493652344e+02" res="-9.9000000000000000e+01" rms="0.0000000000000000e+00" nType="0" CC="0.0000000000000000e+00">
          <Node pos="l" depth="2" Seq="0" IVar="10" Cut="9.4650434330105782e-03" cType="0" nS="4.1241476562500000e+04" nB="3.9632289062500000e+04" nEv="8.0873765625000000e+04" nSuw="4.3495000000000000e+04" nBuw="2.7544000000000000e+04" nEvuw="7.1039000000000000e+04" sepI="2.4990102648735046e-01" sepG="1.3648217773437500e+02" res="-9.9000000000000000e+01" rms="0.0000000000000000e+00" nType="0" CC="0.0000000000000000e+00">
            <Node pos="l" depth="3" Seq="0" IVar="-1" Cut="0.0000000000000000e+00" cType="1" nS="2.5114320312500000e+04" nB="2.0908113281250000e+04" nEv="4.6022433593750000e+04" nSuw="2.0586000000000000e+04" nBuw="1.9736000000000000e+04" nEvuw="4.0322000000000000e+04" sepI="2.4791175127029419e-01" sepG="-1.0000000000000000e+00" res="-9.9000000000000000e+01" rms="0.0000000000000000e+00" nType="1" CC="0.0000000000000000e+00"/>
            <Node pos="r" depth="3" Seq="4" IVar="-1" Cut="0.0000000000000000e+00" cType="1" nS="1.6127155273437500e+04" nB="1.8724175781250000e+04" nEv="3.4851332031250000e+04" nSuw="2.2909000000000000e+04" nBuw="7.8080000000000000e+03" nEvuw="3.0717000000000000e+04" sepI="2.4861179292201996e-01" sepG="-1.0000000000000000e+00" res="-9.9000000000000000e+01" rms="0.0000000000000000e+00" nType="-1" CC="0.0000000000000000e+00"/>
          </Node>
          <Node pos="r" depth="2" Seq="2" IVar="-1" Cut="5.3312844038009644e-01" cType="1" nS="7.6472418212890625e+02" nB="1.9022998046875000e+03" nEv="2.6670239257812500e+03" nSuw="1.6500000000000000e+02" nBuw="5.5090000000000000e+03" nEvuw="5.6740000000000000e+03" sepI="2.0451724529266357e-01" sepG="-1.0000000000000000e+00" res="-9.9000000000000000e+01" rms="0.0000000000000000e+00" nType="-1" CC="0.0000000000000000e+00"/>
        </Node>
        <Node pos="r" depth="1" Seq="1" IVar="-1" Cut="1.3637711293995380e-02" cType="1" nS="5.4645806884765625e+02" nB="3.4056872558593750e+03" nEv="3.9521452636718750e+03" nSuw="1.8100000000000000e+02" nBuw="1.0547000000000000e+04" nEvuw="1.0728000000000000e+04" sepI="1.1915048211812973e-01" sepG="-1.0000000000000000e+00" res="-9.9000000000000000e+01" rms="0.0000000000000000e+00" nType="-1" CC="0.0000000000000000e+00"/>
      </Node>
    </BinaryTree>
    <BinaryTree type="DecisionTree" boostWeight="2.9265202763164472e-01" itree="6">
      <Node pos="s" depth="0" Seq="0" IVar="10" Cut="1.3647280633449554e-02" cType="1" nS="4.2248894531250000e+04" nB="4.5244035156250000e+04" nEv="8.7492929687500000e+04" nSuw="4.3841000000000000e+04" nBuw="4.3600000000000000e+04" nEvuw="8.7441000000000000e+04" sepI="2.4970702826976776e-01" sepG="3.8521826171875000e+02" res="-9.9000000000000000e+01" rms="0.0000000000000000e+00" nType="0" CC="0.0000000000000000e+00">
        <Node pos="l" depth="1" Seq="0" IVar="5" Cut="9.5248770713806152e-01" cType="0" nS="4.2108023437500000e+04" nB="4.3229578125000000e+04" nEv="8.5337601562500000e+04" nSuw="4.3804000000000000e+04" nBuw="3.6311000000000000e+04" nEvuw="8.0115000000000000e+04" sepI="2.4995681643486023e-01" sepG="1.2576637268066406e+02" res="-9.9000000000000000e+01" rms="0.0000000000000000e+00" nType="0" CC="0.0000000000000000e+00">
          <Node pos="l" depth="2" Seq="0" IVar="4" Cut="1.8532727956771851e+00" cType="1" nS="1.1147210937500000e+04" nB="8.6420234375000000e+03" nEv="1.9789234375000000e+04" nSuw="1.7235000000000000e+04" nBuw="3.3990000000000000e+03" nEvuw="2.0634000000000000e+04" sepI="2.4599352478981018e-01" sepG="1.7109173583984375e+02" res="-9.9000000000000000e+01" rms="0.0000000000000000e+00" nType="0" CC="0.0000000000000000e+00">
            <Node pos="l" depth="3" Seq="0" IVar="-1" Cut="0.0000000000000000e+00" cType="1" nS="8.5278710937500000e+03" nB="5.0986875000000000e+03" nEv="1.3626558593750000e+04" nSuw="1.4377000000000000e+04" nBuw="1.7120000000000000e+03" nEvuw="1.6089000000000000e+04" sepI="2.3416751623153687e-01" sepG="-1.0000000000000000e+00" res="-9.9000000000000000e+01" rms="0.0000000000000000e+00" nType="1" CC="0.0000000000000000e+00"/>
            <Node pos="r" depth="3" Seq="4" IVar="-1" Cut="0.0000000000000000e+00" cType="1" nS="2.6193400878906250e+03" nB="3.5433354492187500e+03" nEv="6.1626757812500000e+03" nSuw="2.8580000000000000e+03" nBuw="1.6870000000000000e+03" nEvuw="4.5450000000000000e+03" sepI="2.4437993764877319e-01" sepG="-1.0000000000000000e+00" res="-9.9000000000000000e+01" rms="0.0000000000000000e+00" nType="-1" CC="0.0000000000000000e+00"/>
          </Node>
          <Node pos="r" depth="2" Seq="2" IVar="1" Cut="8.2805491983890533e-03" cType="1" nS="3.0960810546875000e+04" nB="3.4587554687500000e+04" nEv="6.5548367187500000e+04" nSuw="2.6569000000000000e+04" nBuw="3.2912000000000000e+04" nEvuw="5.9481000000000000e+04" sepI="2.4923466145992279e-01" sepG="1.3343110656738281e+02" res="-9.9000000000000000e+01" rms="0.0000000000000000e+00" nType="0" CC="0.0000000000000000e+00">
            <Node pos="l" depth="3" Seq="2" IVar="-1" Cut="0.0000000000000000e+00" cType="1" nS="4.1297875976562500e+03" nB="2.7005935058593750e+03" nEv="6.8303813476562500e+03" nSuw="3.1100000000000000e+03" nBuw="1.9150000000000000e+03" nEvuw="5.0250000000000000e+03" sepI="2.3905457556247711e-01" sepG="-1.0000000000000000e+00" res="-9.9000000000000000e+01" rms="0.0000000000000000e+00" nType="1" CC="0.0000000000000000e+00"/>
            <Node pos="r" depth="3" Seq="6" IVar="-1" Cut="0.0000000000000000e+00" cType="1" nS="2.6831023437500000e+04" nB="3.1886962890625000e+04" nEv="5.8717984375000000e+04" nSuw="2.3459000000000000e+04" nBuw="3.0997000000000000e+04" nEvuw="5.4456000000000000e+04" sepI="2.4814645946025848e-01" sepG="-1.0000000000000000e+00" res="-9.9000000000000000e+01" rms="0.0000000000000000e+00" nType="-1" CC="0.0000000000000000e+00"/>
          </Node>
        </Node>
        <Node pos="r" depth="1" Seq="1" IVar="-1" Cut="3.5285770893096924e-02" cType="1" nS="1.4087431335449219e+02" nB="2.0144576416015625e+03" nEv="2.1553320312500000e+03" nSuw="3.7000000000000000e+01" nBuw="7.2890000000000000e+03" nEvuw="7.3260000000000000e+03" sepI="6.1088800430297852e-02" sepG="-1.0000000000000000e+00" res="-9.9000000000000000e+01" rms="0.0000000000000000e+00" nType="-1" CC="0.0000000000000000e+00"/>
      </Node>
    </BinaryTree>
    <BinaryTree type="DecisionTree" boostWeight="2.1233231474450406e-01" itree="7">
      <Node pos="s" depth="0" Seq="0" IVar="10" Cut="1.3647280633449554e-02" cType="1" nS="4.5673320312500000e+04" nB="4.1819613281250000e+04" nEv="8.7492929687500000e+04" nSuw="4.3841000000000000e+04" nBuw="4.3600000000000000e+04" nEvuw="8.7441000000000000e+04" sepI="2.4951499700546265e-01" sepG="3.7450576782226562e+02" res="-9.9000000000000000e+01" rms="0.0000000000000000e+00" nType="0" CC="0.0000000000000000e+00">
        <Node pos="l" depth="1" Seq="0" IVar="1" Cut="1.0314586572349072e-02" cType="1" nS="4.5508496093750000e+04" nB="4.0060707031250000e+04" nEv="8.5569203125000000e+04" nSuw="4.3804000000000000e+04" nBuw="3.6311000000000000e+04" nEvuw="8.0115000000000000e+04" sepI="2.4898667633533478e-01" sepG="9.3509124755859375e+01" res="-9.9000000000000000e+01" rms="0.0000000000000000e+00" nType="0" CC="0.0000000000000000e+00">
          <Node pos="l" depth="2" Seq="0" IVar="-1" Cut="3.3750897645950317e-01" cType="0" nS="4.4017304687500000e+04" nB="3.7636644531250000e+04" nEv="8.1653945312500000e+04" nSuw="4.3510000000000000e+04" nBuw="2.7711000000000000e+04" nEvuw="7.1221000000000000e+04" sepI="2.4847343564033508e-01" sepG="-1.0000000000000000e+00" res="-9.9000000000000000e+01" rms="0.0000000000000000e+00" nType="1" CC="0.0000000000000000e+00"/>
          <Node pos="r" depth="2" Seq="2" IVar="5" Cut="9.1637200117111206e-01" cType="0" nS="1.4911943359375000e+03" nB="2.4240629882812500e+03" nEv="3.9152573242187500e+03" nSuw="2.9400000000000000e+02" nBuw="8.6000000000000000e+03" nEvuw="8.8940000000000000e+03" sepI="2.3580744862556458e-01" sepG="7.7973838806152344e+01" res="-9.9000000000000000e+01" rms="0.0000000000000000e+00" nType="0" CC="0.0000000000000000e+00">
            <Node pos="l" depth="3" Seq="2" IVar="-1" Cut="0.0000000000000000e+00" cType="1" nS="8.5565344238281250e+02" nB="6.8243542480468750e+02" nEv="1.5380888671875000e+03" nSuw="2.0000000000000000e+02" nBuw="1.6940000000000000e+03" nEvuw="1.8940000000000000e+03" sepI="2.4682924151420593e-01" sepG="-1.0000000000000000e+00" res="-9.9000000000000000e+01" rms="0.0000000000000000e+00" nType="1" CC="0.0000000000000000e+00"/>
            <Node pos="r" depth="3" Seq="6" IVar="-1" Cut="0.0000000000000000e+00" cType="1" nS="6.3554083251953125e+02" nB="1.7416276855468750e+03" nEv="2.3771684570312500e+03" nSuw="9.4000000000000000e+01" nBuw="6.9060000000000000e+03" nEvuw="7.0000000000000000e+03" sepI="1.9587492942810059e-01" sepG="-1.0000000000000000e+00" res="-9.9000000000000000e+01" rms="0.0000000000000000e+00" nType="-1" CC="0.0000000000000000e+00"/>
          </Node>
        </Node>
        <Node pos="r" depth="1" Seq="1" IVar="-1" Cut="3.5285770893096924e-02" cType="1" nS="1.6482128906250000e+02" nB="1.7589053955078125e+03" nEv="1.9237266845703125e+03" nSuw="3.7000000000000000e+01" nBuw="7.2890000000000000e+03" nEvuw="7.3260000000000000e+03" sepI="7.8337378799915314e-02" sepG="-1.0000000000000000e+00" res="-9.9000000000000000e+01" rms="0.0000000000000000e+00" nType="-1" CC="0.0000000000000000e+00"/>
      </Node>
    </BinaryTree>
    <BinaryTree type="DecisionTree" boostWeight="2.1435359732903153e-01" itree="8">
      <Node pos="s" depth="0" Seq="0" IVar="10" Cut="1.3647280633449554e-02" cType="1" nS="4.1475792968750000e+04" nB="4.6017136718750000e+04" nEv="8.7492929687500000e+04" nSuw="4.3841000000000000e+04" nBuw="4.3600000000000000e+04" nEvuw="8.7441000000000000e+04" sepI="2.4932646751403809e-01" sepG="2.4830258178710938e+02" res="-9.9000000000000000e+01" rms="0.0000000000000000e+00" nType="0" CC="0.0000000000000000e+00">
        <Node pos="l" depth="1" Seq="0" IVar="7" Cut="3.3750897645950317e-01" cType="0" nS="4.1291480468750000e+04" nB="4.4426476562500000e+04" nEv="8.5717953125000000e+04" nSuw="4.3804000000000000e+04" nBuw="3.6311000000000000e+04" nEvuw="8.0115000000000000e+04" sepI="2.4966560304164886e-01" sepG="9.5301750183105469e+01" res="-9.9000000000000000e+01" rms="0.0000000000000000e+00" nType="0" CC="0.0000000000000000e+00">
          <Node pos="l" depth="2" Seq="0" IVar="4" Cut="5.9505114555358887e+00" cType="1" nS="2.0236804687500000e+04" nB="1.8818302734375000e+04" nEv="3.9055109375000000e+04" nSuw="1.9881000000000000e+04" nBuw="1.8450000000000000e+04" nEvuw="3.8331000000000000e+04" sepI="2.4967020750045776e-01" sepG="6.7029312133789062e+01" res="-9.9000000000000000e+01" rms="0.0000000000000000e+00" nType="0" CC="0.0000000000000000e+00">
            <Node pos="l" depth="3" Seq="0" IVar="-1" Cut="0.0000000000000000e+00" cType="1" nS="1.8903054687500000e+04" nB="1.6690589843750000e+04" nEv="3.5593644531250000e+04" nSuw="1.9291000000000000e+04" nBuw="1.4957000000000000e+04" nEvuw="3.4248000000000000e+04" sepI="2.4903406202793121e-01" sepG="-1.0000000000000000e+00" res="-9.9000000000000000e+01" rms="0.0000000000000000e+00" nType="1" CC="0.0000000000000000e+00"/>
            <Node pos="r" depth="3" Seq="4" IVar="-1" Cut="0.0000000000000000e+00" cType="1" nS="1.3337490234375000e+03" nB="2.1277128906250000e+03" nEv="3.4614619140625000e+03" nSuw="5.9000000000000000e+02" nBuw="3.4930000000000000e+03" nEvuw="4.0830000000000000e+03" sepI="2.3684707283973694e-01" sepG="-1.0000000000000000e+00" res="-9.9000000000000000e+01" rms="0.0000000000000000e+00" nType="-1" CC="0.0000000000000000e+00"/>
          </Node>
          <Node pos="r" depth="2" Seq="2" IVar="8" Cut="5.0069966316223145e+00" cType="1" nS="2.1054673828125000e+04" nB="2.5608171875000000e+04" nEv="4.6662847656250000e+04" nSuw="2.3923000000000000e+04" nBuw="1.7861000000000000e+04" nEvuw="4.1784000000000000e+04" sepI="2.4761939048767090e-01" sepG="5.9495899200439453e+01" res="-9.9000000000000000e+01" rms="0.0000000000000000e+00" nType="0" CC="0.0000000000000000e+00">
            <Node pos="l" depth="3" Seq="2" IVar="-1" Cut="0.0000000000000000e+00" cType="1" nS="6.8909208984375000e+03" nB="6.7033217773437500e+03" nEv="1.3594242187500000e+04" nSuw="7.4640000000000000e+03" nBuw="5.3150000000000000e+03" nEvuw="1.2779000000000000e+04" sepI="2.4995239078998566e-01" sepG="-1.0000000000000000e+00" res="-9.9000000000000000e+01" rms="0.0000000000000000e+00" nType="1" CC="0.0000000000000000e+00"/>
            <Node pos="r" depth="3" Seq="6" IVar="-1" Cut="0.0000000000000000e+00" cType="1" nS="1.4163752929687500e+04" nB="1.8904849609375000e+04" nEv="3.3068605468750000e+04" nSuw="1.6459000000000000e+04" nBuw="1.2546000000000000e+04" nEvuw="2.9005000000000000e+04" sepI="2.4486115574836731e-01" sepG="-1.0000000000000000e+00" res="-9.9000000000000000e+01" rms="0.0000000000000000e+00" nType="-1" CC="0.0000000000000000e+00"/>
          </Node>
        </Node>
        <Node pos="r" depth="1" Seq="1" IVar="-1" Cut="3.5285770893096924e-02" cType="1" nS="1.8431623840332031e+02" nB="1.5906624755859375e+03" nEv="1.7749787597656250e+03" nSuw="3.7000000000000000e+01" nBuw="7.2890000000000000e+03" nEvuw="7.3260000000000000e+03" sepI="9.3058347702026367e-02" sepG="-1.0000000000000000e+00" res="-9.9000000000000000e+01" rms="0.0000000000000000e+00" nType="-1" CC="0.0000000000000000e+00"/>
      </Node>
    </BinaryTree>
    <BinaryTree type="DecisionTree" boostWeight="2.7780803270306414e-01" itree="9">
      <Node pos="s" depth="0" Seq="0" IVar="10" Cut="1.3647280633449554e-02" cType="1" nS="4.0861941406250000e+04" nB="4.6630992187500000e+04" nEv="8.7492929687500000e+04" nSuw="4.3841000000000000e+04" nBuw="4.3600000000000000e+04" nEvuw="8.7441000000000000e+04" sepI="2.4891306459903717e-01" sepG="1.9532508850097656e+02" res="-9.9000000000000000e+01" rms="0.0000000000000000e+00" nType="0" CC="0.0000000000000000e+00">
        <Node pos="l" depth="1" Seq="0" IVar="3" Cut="9.5431143045425415e-01" cType="0" nS="4.0655593750000000e+04" nB="4.5193777343750000e+04" nEv="8.5849375000000000e+04" nSuw="4.3804000000000000e+04" nBuw="3.6311000000000000e+04" nEvuw="8.0115000000000000e+04" sepI="2.4930140376091003e-01" sepG="7.1177658081054688e+01" res="-9.9000000000000000e+01" rms="0.0000000000000000e+00" nType="0" CC="0.0000000000000000e+00">
          <Node pos="l" depth="2" Seq="0" IVar="11" Cut="4.1301410645246506e-02" cType="1" nS="1.1039119140625000e+04" nB="1.0025249023437500e+04" nEv="2.1064367187500000e+04" nSuw="6.4980000000000000e+03" nBuw="1.3775000000000000e+04" nEvuw="2.0273000000000000e+04" sepI="2.4942082166671753e-01" sepG="1.4972367858886719e+02" res="-9.9000000000000000e+01" rms="0.0000000000000000e+00" nType="0" CC="0.0000000000000000e+00">
            <Node pos="l" depth="3" Seq="0" IVar="-1" Cut="0.0000000000000000e+00" cType="1" nS="9.7260058593750000e+03" nB="7.5283803710937500e+03" nEv="1.7254386718750000e+04" nSuw="6.0950000000000000e+03" nBuw="8.7690000000000000e+03" nEvuw="1.4864000000000000e+04" sepI="2.4594445526599884e-01" sepG="-1.0000000000000000e+00" res="-9.9000000000000000e+01" rms="0.0000000000000000e+00" nType="1" CC="0.0000000000000000e+00"/>
            <Node pos="r" depth="3" Seq="4" IVar="-1" Cut="0.0000000000000000e+00" cType="1" nS="1.3131129150390625e+03" nB="2.4968684082031250e+03" nEv="3.8099812011718750e+03" nSuw="4.0300000000000000e+02" nBuw="5.0060000000000000e+03" nEvuw="5.4090000000000000e+03" sepI="2.2586661577224731e-01" sepG="-1.0000000000000000e+00" res="-9.9000000000000000e+01" rms="0.0000000000000000e+00" nType="-1" CC="0.0000000000000000e+00"/>
          </Node>
          <Node pos="r" depth="2" Seq="2" IVar="11" Cut="3.9735816419124603e-02" cType="0" nS="2.9616474609375000e+04" nB="3.5168527343750000e+04" nEv="6.4785003906250000e+04" nSuw="3.7306000000000000e+04" nBuw="2.2536000000000000e+04" nEvuw="5.9842000000000000e+04" sepI="2.4816389381885529e-01" sepG="9.8834419250488281e+01" res="-9.9000000000000000e+01" rms="0.0000000000000000e+00" nType="0" CC="0.0000000000000000e+00">
            <Node pos="l" depth="3" Seq="2" IVar="-1" Cut="0.0000000000000000e+00" cType="1" nS="6.0288505859375000e+03" nB="5.0732231445312500e+03" nEv="1.1102074218750000e+04" nSuw="2.5010000000000000e+03" nBuw="8.1820000000000000e+03" nEvuw="1.0683000000000000e+04" sepI="2.4814771115779877e-01" sepG="-1.0000000000000000e+00" res="-9.9000000000000000e+01" rms="0.0000000000000000e+00" nType="1" CC="0.0000000000000000e+00"/>
            <Node pos="r" depth="3" Seq="6" IVar="-1" Cut="0.0000000000000000e+00" cType="1" nS="2.3587625000000000e+04" nB="3.0095304687500000e+04" nEv="5.3682929687500000e+04" nSuw="3.4805000000000000e+04" nBuw="1.4354000000000000e+04" nEvuw="4.9159000000000000e+04" sepI="2.4632616341114044e-01" sepG="-1.0000000000000000e+00" res="-9.9000000000000000e+01" rms="0.0000000000000000e+00" nType="-1" CC="0.0000000000000000e+00"/>
          </Node>
        </Node>
        <Node pos="r" depth="1" Seq="1" IVar="-1" Cut="3.5285770893096924e-02" cType="1" nS="2.0634764099121094e+02" nB="1.4372137451171875e+03" nEv="1.6435612792968750e+03" nSuw="3.7000000000000000e+01" nBuw="7.2890000000000000e+03" nEvuw="7.3260000000000000e+03" sepI="1.0978651791810989e-01" sepG="-1.0000000000000000e+00" res="-9.9000000000000000e+01" rms="0.0000000000000000e+00" nType="-1" CC="0.0000000000000000e+00"/>
      </Node>
    </BinaryTree>
    <BinaryTree type="DecisionTree" boostWeight="3.3904962396479982e-01" itree="10">
      <Node pos="s" depth="0" Seq="0" IVar="5" Cut="7.4652761220932007e-01" cType="0" nS="4.2971265625000000e+04" nB="4.4521667968750000e+04" nEv="8.7492929687500000e+04" nSuw="4.3841000000000000e+04" nBuw="4.3600000000000000e+04" nEvuw="8.7441000000000000e+04" sepI="2.4992150068283081e-01" sepG="1.8901927185058594e+02" res="-9.9000000000000000e+01" rms="0.0000000000000000e+00" nType="0" CC="0.0000000000000000e+00">
        <Node pos="l" depth="1" Seq="0" IVar="3" Cut="1.9016209840774536e+00" cType="1" nS="3.4307046875000000e+04" nB="3.1997685546875000e+04" nEv="6.6304734375000000e+04" nSuw="3.8722000000000000e+04" nBuw="2.3350000000000000e+04" nEvuw="6.2072000000000000e+04" sepI="2.4969673156738281e-01" sepG="1.0786569213867188e+02" res="-9.9000000000000000e+01" rms="0.0000000000000000e+00" nType="0" CC="0.0000000000000000e+00">
          <Node pos="l" depth="2" Seq="0" IVar="4" Cut="4.3104481697082520e+00" cType="1" nS="3.2087623046875000e+04" nB="2.8473849609375000e+04" nEv="6.0561472656250000e+04" nSuw="3.7261000000000000e+04" nBuw="1.9372000000000000e+04" nEvuw="5.6633000000000000e+04" sepI="2.4910983443260193e-01" sepG="6.1668445587158203e+01" res="-9.9000000000000000e+01" rms="0.0000000000000000e+00" nType="0" CC="0.0000000000000000e+00">
            <Node pos="l" depth="3" Seq="0" IVar="-1" Cut="0.0000000000000000e+00" cType="1" nS="2.9599900390625000e+04" nB="2.5195779296875000e+04" nEv="5.4795679687500000e+04" nSuw="3.5972000000000000e+04" nBuw="1.5116000000000000e+04" nEvuw="5.1088000000000000e+04" sepI="2.4838502705097198e-01" sepG="-1.0000000000000000e+00" res="-9.9000000000000000e+01" rms="0.0000000000000000e+00" nType="1" CC="0.0000000000000000e+00"/>
            <Node pos="r" depth="3" Seq="4" IVar="-1" Cut="0.0000000000000000e+00" cType="1" nS="2.4877226562500000e+03" nB="3.2780703125000000e+03" nEv="5.7657929687500000e+03" nSuw="1.2890000000000000e+03" nBuw="4.2560000000000000e+03" nEvuw="5.5450000000000000e+03" sepI="2.4530258774757385e-01" sepG="-1.0000000000000000e+00" res="-9.9000000000000000e+01" rms="0.0000000000000000e+00" nType="-1" CC="0.0000000000000000e+00"/>
          </Node>
          <Node pos="r" depth="2" Seq="2" IVar="-1" Cut="9.3204838037490845e-01" cType="1" nS="2.2194240722656250e+03" nB="3.5238359375000000e+03" nEv="5.7432602539062500e+03" nSuw="1.4610000000000000e+03" nBuw="3.9780000000000000e+03" nEvuw="5.4390000000000000e+03" sepI="2.3710407316684723e-01" sepG="-1.0000000000000000e+00" res="-9.9000000000000000e+01" rms="0.0000000000000000e+00" nType="-1" CC="0.0000000000000000e+00"/>
        </Node>
        <Node pos="r" depth="1" Seq="1" IVar="4" Cut="1.2798695564270020e+00" cType="0" nS="8.6642187500000000e+03" nB="1.2523982421875000e+04" nEv="2.1188201171875000e+04" nSuw="5.1190000000000000e+03" nBuw="2.0250000000000000e+04" nEvuw="2.5369000000000000e+04" sepI="2.4170391261577606e-01" sepG="2.9647869873046875e+02" res="-9.9000000000000000e+01" rms="0.0000000000000000e+00" nType="0" CC="0.0000000000000000e+00">
          <Node pos="l" depth="2" Seq="1" IVar="1" Cut="9.2347888275980949e-03" cType="1" nS="5.1241440429687500e+03" nB="4.3591245117187500e+03" nEv="9.4832685546875000e+03" nSuw="1.2570000000000000e+03" nBuw="1.3135000000000000e+04" nEvuw="1.4392000000000000e+04" sepI="2.4837307631969452e-01" sepG="3.4275424194335938e+02" res="-9.9000000000000000e+01" rms="0.0000000000000000e+00" nType="0" CC="0.0000000000000000e+00">
            <Node pos="l" depth="3" Seq="1" IVar="-1" Cut="0.0000000000000000e+00" cType="1" nS="4.5124257812500000e+03" nB="2.3458725585937500e+03" nEv="6.8582983398437500e+03" nSuw="1.1530000000000000e+03" nBuw="4.8500000000000000e+03" nEvuw="6.0030000000000000e+03" sepI="2.2505141794681549e-01" sepG="-1.0000000000000000e+00" res="-9.9000000000000000e+01" rms="0.0000000000000000e+00" nType="1" CC="0.0000000000000000e+00"/>
            <Node pos="r" depth="3" Seq="5" IVar="-1" Cut="0.0000000000000000e+00" cType="1" nS="6.1171813964843750e+02" nB="2.0132517089843750e+03" nEv="2.6249699707031250e+03" nSuw="1.0400000000000000e+02" nBuw="8.2850000000000000e+03" nEvuw="8.3890000000000000e+03" sepI="1.7873136699199677e-01" sepG="-1.0000000000000000e+00" res="-9.9000000000000000e+01" rms="0.0000000000000000e+00" nType="-1" CC="0.0000000000000000e+00"/>
          </Node>
          <Node pos="r" depth="2" Seq="3" IVar="-1" Cut="9.3773631379008293e-03" cType="0" nS="3.5400747070312500e+03" nB="8.1648583984375000e+03" nEv="1.1704932617187500e+04" nSuw="3.8620000000000000e+03" nBuw="7.1150000000000000e+03" nEvuw="1.0977000000000000e+04" sepI="2.1097122132778168e-01" sepG="-1.0000000000000000e+00" res="-9.9000000000000000e+01" rms="0.0000000000000000e+00" nType="-1" CC="0.0000000000000000e+00"/>
        </Node>
      </Node>
    </BinaryTree>
    <BinaryTree type="DecisionTree" boostWeight="2.3875234201770659e-01" itree="11">
      <Node pos="s" depth="0" Seq="0" IVar="10" Cut="1.4019817113876343e-02" cType="1" nS="3.9854507812500000e+04" nB="4.7638425781250000e+04" nEv="8.7492929687500000e+04" nSuw="4.3841000000000000e+04" nBuw="4.3600000000000000e+04" nEvuw="8.7441000000000000e+04" sepI="2.4802124500274658e-01" sepG="1.2613924407958984e+02" res="-9.9000000000000000e+01" rms="0.0000000000000000e+00" nType="0" CC="0.0000000000000000e+00">
        <Node pos="l" depth="1" Seq="0" IVar="0" Cut="1.9769338890910149e-02" cType="1" nS="3.9730785156250000e+04" nB="4.6687113281250000e+04" nEv="8.6417898437500000e+04" nSuw="4.3823000000000000e+04" nBuw="3.7547000000000000e+04" nEvuw="8.1370000000000000e+04" sepI="2.4838007986545563e-01" sepG="5.6886047363281250e+01" res="-9.9000000000000000e+01" rms="0.0000000000000000e+00" nType="0" CC="0.0000000000000000e+00">
          <Node pos="l" depth="2" Seq="0" IVar="0" Cut="9.8794180303229950e-06" cType="0" nS="3.7318839843750000e+04" nB="4.2579171875000000e+04" nEv="7.9898007812500000e+04" nSuw="4.1580000000000000e+04" nBuw="3.3402000000000000e+04" nEvuw="7.4982000000000000e+04" sepI="2.4891634285449982e-01" sepG="1.0560527038574219e+02" res="-9.9000000000000000e+01" rms="0.0000000000000000e+00" nType="0" CC="0.0000000000000000e+00">
            <Node pos="l" depth="3" Seq="0" IVar="-1" Cut="0.0000000000000000e+00" cType="1" nS="4.0703977050781250e+03" nB="2.8903278808593750e+03" nEv="6.9607255859375000e+03" nSuw="4.6280000000000000e+03" nBuw="2.4960000000000000e+03" nEvuw="7.1240000000000000e+03" sepI="2.4281467497348785e-01" sepG="-1.0000000000000000e+00" res="-9.9000000000000000e+01" rms="0.0000000000000000e+00" nType="1" CC="0.0000000000000000e+00"/>
            <Node pos="r" depth="3" Seq="4" IVar="-1" Cut="0.0000000000000000e+00" cType="1" nS="3.3248441406250000e+04" nB="3.9688843750000000e+04" nEv="7.2937289062500000e+04" nSuw="3.6952000000000000e+04" nBuw="3.0906000000000000e+04" nEvuw="6.7858000000000000e+04" sepI="2.4805074930191040e-01" sepG="-1.0000000000000000e+00" res="-9.9000000000000000e+01" rms="0.0000000000000000e+00" nType="-1" CC="0.0000000000000000e+00"/>
          </Node>
          <Node pos="r" depth="2" Seq="2" IVar="10" Cut="1.1907485313713551e-02" cType="0" nS="2.4119460449218750e+03" nB="4.1079409179687500e+03" nEv="6.5198867187500000e+03" nSuw="2.2430000000000000e+03" nBuw="4.1450000000000000e+03" nEvuw="6.3880000000000000e+03" sepI="2.3308356106281281e-01" sepG="4.3862087249755859e+01" res="-9.9000000000000000e+01" rms="0.0000000000000000e+00" nType="0" CC="0.0000000000000000e+00">
            <Node pos="l" depth="3" Seq="2" IVar="-1" Cut="0.0000000000000000e+00" cType="1" nS="5.6127905273437500e+02" nB="4.3568865966796875e+02" nEv="9.9696771240234375e+02" nSuw="2.0400000000000000e+02" nBuw="1.2450000000000000e+03" nEvuw="1.4490000000000000e+03" sepI="2.4603274464607239e-01" sepG="-1.0000000000000000e+00" res="-9.9000000000000000e+01" rms="0.0000000000000000e+00" nType="1" CC="0.0000000000000000e+00"/>
            <Node pos="r" depth="3" Seq="6" IVar="-1" Cut="0.0000000000000000e+00" cType="1" nS="1.8506669921875000e+03" nB="3.6722519531250000e+03" nEv="5.5229189453125000e+03" nSuw="2.0390000000000000e+03" nBuw="2.9000000000000000e+03" nEvuw="4.9390000000000000e+03" sepI="2.2280421853065491e-01" sepG="-1.0000000000000000e+00" res="-9.9000000000000000e+01" rms="0.0000000000000000e+00" nType="-1" CC="0.0000000000000000e+00"/>
          </Node>
        </Node>
        <Node pos="r" depth="1" Seq="1" IVar="-1" Cut="3.1379491090774536e-02" cType="1" nS="1.2372125244140625e+02" nB="9.5131365966796875e+02" nEv="1.0750349121093750e+03" nSuw="1.8000000000000000e+01" nBuw="6.0530000000000000e+03" nEvuw="6.0710000000000000e+03" sepI="1.0184106230735779e-01" sepG="-1.0000000000000000e+00" res="-9.9000000000000000e+01" rms="0.0000000000000000e+00" nType="-1" CC="0.0000000000000000e+00"/>
      </Node>
    </BinaryTree>
    <BinaryTree type="DecisionTree" boostWeight="1.6152810308181945e-01" itree="12">
      <Node pos="s" depth="0" Seq="0" IVar="10" Cut="1.4019817113876343e-02" cType="1" nS="4.4111812500000000e+04" nB="4.3381121093750000e+04" nEv="8.7492929687500000e+04" nSuw="4.3841000000000000e+04" nBuw="4.3600000000000000e+04" nEvuw="8.7441000000000000e+04" sepI="2.4998256564140320e-01" sepG="1.3164038085937500e+02" res="-9.9000000000000000e+01" rms="0.0000000000000000e+00" nType="0" CC="0.0000000000000000e+00">
        <Node pos="l" depth="1" Seq="0" IVar="0" Cut="1.5307935886085033e-02" cType="1" nS="4.3971410156250000e+04" nB="4.2530832031250000e+04" nEv="8.6502242187500000e+04" nSuw="4.3823000000000000e+04" nBuw="3.7547000000000000e+04" nEvuw="8.1370000000000000e+04" sepI="2.4993066489696503e-01" sepG="1.0603813171386719e+02" res="-9.9000000000000000e+01" rms="0.0000000000000000e+00" nType="0" CC="0.0000000000000000e+00">
          <Node pos="l" depth="2" Seq="0" IVar="10" Cut="1.2276467867195606e-02" cType="1" nS="4.0498058593750000e+04" nB="3.7386898437500000e+04" nEv="7.7884960937500000e+04" nSuw="4.0562000000000000e+04" nBuw="3.2423000000000000e+04" nEvuw="7.2985000000000000e+04" sepI="2.4960108101367950e-01" sepG="5.8600555419921875e+01" res="-9.9000000000000000e+01" rms="0.0000000000000000e+00" nType="0" CC="0.0000000000000000e+00">
            <Node pos="l" depth="3" Seq="0" IVar="-1" Cut="0.0000000000000000e+00" cType="1" nS="3.9321300781250000e+04" nB="3.5502121093750000e+04" nEv="7.4823421875000000e+04" nSuw="4.0240000000000000e+04" nBuw="2.5994000000000000e+04" nEvuw="6.6234000000000000e+04" sepI="2.4934867024421692e-01" sepG="-1.0000000000000000e+00" res="-9.9000000000000000e+01" rms="0.0000000000000000e+00" nType="1" CC="0.0000000000000000e+00"/>
            <Node pos="r" depth="3" Seq="4" IVar="-1" Cut="0.0000000000000000e+00" cType="1" nS="1.1767592773437500e+03" nB="1.8847789306640625e+03" nEv="3.0615383300781250e+03" nSuw="3.2200000000000000e+02" nBuw="6.4290000000000000e+03" nEvuw="6.7510000000000000e+03" sepI="2.3662938177585602e-01" sepG="-1.0000000000000000e+00" res="-9.9000000000000000e+01" rms="0.0000000000000000e+00" nType="-1" CC="0.0000000000000000e+00"/>
          </Node>
          <Node pos="r" depth="2" Seq="2" IVar="10" Cut="1.2118056416511536e-02" cType="0" nS="3.4733496093750000e+03" nB="5.1439326171875000e+03" nEv="8.6172822265625000e+03" nSuw="3.2610000000000000e+03" nBuw="5.1240000000000000e+03" nEvuw="8.3850000000000000e+03" sepI="2.4060416221618652e-01" sepG="1.8610490798950195e+01" res="-9.9000000000000000e+01" rms="0.0000000000000000e+00" nType="0" CC="0.0000000000000000e+00">
            <Node pos="l" depth="3" Seq="2" IVar="-1" Cut="0.0000000000000000e+00" cType="1" nS="5.3534991455078125e+02" nB="4.7341867065429688e+02" nEv="1.0087685546875000e+03" nSuw="1.9800000000000000e+02" nBuw="1.2870000000000000e+03" nEvuw="1.4850000000000000e+03" sepI="2.4905772507190704e-01" sepG="-1.0000000000000000e+00" res="-9.9000000000000000e+01" rms="0.0000000000000000e+00" nType="1" CC="0.0000000000000000e+00"/>
            <Node pos="r" depth="3" Seq="6" IVar="-1" Cut="0.0000000000000000e+00" cType="1" nS="2.9379997558593750e+03" nB="4.6705136718750000e+03" nEv="7.6085136718750000e+03" nSuw="3.0630000000000000e+03" nBuw="3.8370000000000000e+03" nEvuw="6.9000000000000000e+03" sepI="2.3703734576702118e-01" sepG="-1.0000000000000000e+00" res="-9.9000000000000000e+01" rms="0.0000000000000000e+00" nType="-1" CC="0.0000000000000000e+00"/>
          </Node>
        </Node>
        <Node pos="r" depth="1" Seq="1" IVar="11" Cut="3.1379491090774536e-02" cType="1" nS="1.4040284729003906e+02" nB="8.5028881835937500e+02" nEv="9.9069165039062500e+02" nSuw="1.8000000000000000e+01" nBuw="6.0530000000000000e+03" nEvuw="6.0710000000000000e+03" sepI="1.2163690477609634e-01" sepG="1.4443446159362793e+01" res="-9.9000000000000000e+01" rms="0.0000000000000000e+00" nType="0" CC="0.0000000000000000e+00">
          <Node pos="l" depth="2" Seq="1" IVar="7" Cut="6.9132864475250244e-01" cType="0" nS="9.3664978027343750e+01" nB="1.8693728637695312e+02" nEv="2.8060226440429688e+02" nSuw="8.0000000000000000e+00" nBuw="1.2340000000000000e+03" nEvuw="1.2420000000000000e+03" sepI="2.2237749397754669e-01" sepG="1.1487278938293457e+01" res="-9.9000000000000000e+01" rms="0.0000000000000000e+00" nType="0" CC="0.0000000000000000e+00">
            <Node pos="l" depth="3" Seq="1" IVar="-1" Cut="0.0000000000000000e+00" cType="1" nS="7.5642173767089844e+01" nB="6.5927803039550781e+01" nEv="1.4156997680664062e+02" nSuw="5.0000000000000000e+00" nBuw="4.8500000000000000e+02" nEvuw="4.9000000000000000e+02" sepI="2.4882286787033081e-01" sepG="-1.0000000000000000e+00" res="-9.9000000000000000e+01" rms="0.0000000000000000e+00" nType="1" CC="0.0000000000000000e+00"/>
            <Node pos="r" depth="3" Seq="5" IVar="-1" Cut="0.0000000000000000e+00" cType="1" nS="1.8022806167602539e+01" nB="1.2100948333740234e+02" nEv="1.3903228759765625e+02" nSuw="3.0000000000000000e+00" nBuw="7.4900000000000000e+02" nEvuw="7.5200000000000000e+02" sepI="1.1282633244991302e-01" sepG="-1.0000000000000000e+00" res="-9.9000000000000000e+01" rms="0.0000000000000000e+00" nType="-1" CC="0.0000000000000000e+00"/>
          </Node>
          <Node pos="r" depth="2" Seq="3" IVar="-1" Cut="1.1003498077392578e+01" cType="0" nS="4.6737861633300781e+01" nB="6.6335156250000000e+02" nEv="7.1008941650390625e+02" nSuw="1.0000000000000000e+01" nBuw="4.8190000000000000e+03" nEvuw="4.8290000000000000e+03" sepI="6.1487454921007156e-02" sepG="-1.0000000000000000e+00" res="-9.9000000000000000e+01" rms="0.0000000000000000e+00" nType="-1" CC="0.0000000000000000e+00"/>
        </Node>
      </Node>
    </BinaryTree>
    <BinaryTree type="DecisionTree" boostWeight="1.2547715229986281e-01" itree="13">
      <Node pos="s" depth="0" Seq="0" IVar="10" Cut="1.4019817113876343e-02" cType="1" nS="4.1500058593750000e+04" nB="4.5992871093750000e+04" nEv="8.7492929687500000e+04" nSuw="4.3841000000000000e+04" nBuw="4.3600000000000000e+04" nEvuw="8.7441000000000000e+04" sepI="2.4934077262878418e-01" sepG="9.9907905578613281e+01" res="-9.9000000000000000e+01" rms="0.0000000000000000e+00" nType="0" CC="0.0000000000000000e+00">
        <Node pos="l" depth="1" Seq="0" IVar="11" Cut="7.1721136569976807e-02" cType="1" nS="4.1359621093750000e+04" nB="4.5195300781250000e+04" nEv="8.6554921875000000e+04" nSuw="4.3823000000000000e+04" nBuw="3.7547000000000000e+04" nEvuw="8.1370000000000000e+04" sepI="2.4950905144214630e-01" sepG="5.3608039855957031e+01" res="-9.9000000000000000e+01" rms="0.0000000000000000e+00" nType="0" CC="0.0000000000000000e+00">
          <Node pos="l" depth="2" Seq="0" IVar="7" Cut="3.8446674346923828e+00" cType="0" nS="4.0954753906250000e+04" nB="4.4180265625000000e+04" nEv="8.5135015625000000e+04" nSuw="4.3721000000000000e+04" nBuw="3.5038000000000000e+04" nEvuw="7.8759000000000000e+04" sepI="2.4964115023612976e-01" sepG="5.0872684478759766e+01" res="-9.9000000000000000e+01" rms="0.0000000000000000e+00" nType="0" CC="0.0000000000000000e+00">
            <Node pos="l" depth="3" Seq="0" IVar="-1" Cut="0.0000000000000000e+00" cType="1" nS="1.0109126586914062e+03" nB="5.1632299804687500e+02" nEv="1.5272355957031250e+03" nSuw="7.6100000000000000e+02" nBuw="9.7900000000000000e+02" nEvuw="1.7400000000000000e+03" sepI="2.2378088533878326e-01" sepG="-1.0000000000000000e+00" res="-9.9000000000000000e+01" rms="0.0000000000000000e+00" nType="1" CC="0.0000000000000000e+00"/>
            <Node pos="r" depth="3" Seq="4" IVar="-1" Cut="0.0000000000000000e+00" cType="1" nS="3.9943839843750000e+04" nB="4.3663941406250000e+04" nEv="8.3607781250000000e+04" nSuw="4.2960000000000000e+04" nBuw="3.4059000000000000e+04" nEvuw="7.7019000000000000e+04" sepI="2.4950505793094635e-01" sepG="-1.0000000000000000e+00" res="-9.9000000000000000e+01" rms="0.0000000000000000e+00" nType="-1" CC="0.0000000000000000e+00"/>
          </Node>
          <Node pos="r" depth="2" Seq="2" IVar="-1" Cut="1.0949310846626759e-02" cType="1" nS="4.0486776733398438e+02" nB="1.0150370483398438e+03" nEv="1.4199047851562500e+03" nSuw="1.0200000000000000e+02" nBuw="2.5090000000000000e+03" nEvuw="2.6110000000000000e+03" sepI="2.0383399724960327e-01" sepG="-1.0000000000000000e+00" res="-9.9000000000000000e+01" rms="0.0000000000000000e+00" nType="-1" CC="0.0000000000000000e+00"/>
        </Node>
        <Node pos="r" depth="1" Seq="1" IVar="-1" Cut="3.1379491090774536e-02" cType="1" nS="1.4043800354003906e+02" nB="7.9757098388671875e+02" nEv="9.3800897216796875e+02" nSuw="1.8000000000000000e+01" nBuw="6.0530000000000000e+03" nEvuw="6.0710000000000000e+03" sepI="1.2730339169502258e-01" sepG="-1.0000000000000000e+00" res="-9.9000000000000000e+01" rms="0.0000000000000000e+00" nType="-1" CC="0.0000000000000000e+00"/>
      </Node>
    </BinaryTree>
    <BinaryTree type="DecisionTree" boostWeight="1.2179879577483226e-01" itree="14">
      <Node pos="s" depth="0" Seq="0" IVar="10" Cut="1.4019817113876343e-02" cType="1" nS="4.4146937500000000e+04" nB="4.3345996093750000e+04" nEv="8.7492929687500000e+04" nSuw="4.3841000000000000e+04" nBuw="4.3600000000000000e+04" nEvuw="8.7441000000000000e+04" sepI="2.4997904896736145e-01" sepG="1.0403770446777344e+02" res="-9.9000000000000000e+01" rms="0.0000000000000000e+00" nType="0" CC="0.0000000000000000e+00">
        <Node pos="l" depth="1" Seq="0" IVar="11" Cut="7.1721136569976807e-02" cType="1" nS="4.3997113281250000e+04" nB="4.2595449218750000e+04" nEv="8.6592562500000000e+04" nSuw="4.3823000000000000e+04" nBuw="3.7547000000000000e+04" nEvuw="8.1370000000000000e+04" sepI="2.4993449449539185e-01" sepG="5.4546138763427734e+01" res="-9.9000000000000000e+01" rms="0.0000000000000000e+00" nType="0" CC="0.0000000000000000e+00">
          <Node pos="l" depth="2" Seq="0" IVar="5" Cut="9.3177276849746704e-01" cType="1" nS="4.3565179687500000e+04" nB="4.1640261718750000e+04" nEv="8.5205445312500000e+04" nSuw="4.3721000000000000e+04" nBuw="3.5038000000000000e+04" nEvuw="7.8759000000000000e+04" sepI="2.4987240135669708e-01" sepG="4.8399616241455078e+01" res="-9.9000000000000000e+01" rms="0.0000000000000000e+00" nType="0" CC="0.0000000000000000e+00">
            <Node pos="l" depth="3" Seq="0" IVar="-1" Cut="0.0000000000000000e+00" cType="1" nS="2.4403535156250000e+04" nB="2.1344814453125000e+04" nEv="4.5748347656250000e+04" nSuw="1.4471000000000000e+04" nBuw="2.6716000000000000e+04" nEvuw="4.1187000000000000e+04" sepI="2.4888244271278381e-01" sepG="-1.0000000000000000e+00" res="-9.9000000000000000e+01" rms="0.0000000000000000e+00" nType="1" CC="0.0000000000000000e+00"/>
            <Node pos="r" depth="3" Seq="4" IVar="-1" Cut="0.0000000000000000e+00" cType="1" nS="1.9161644531250000e+04" nB="2.0295449218750000e+04" nEv="3.9457093750000000e+04" nSuw="2.9250000000000000e+04" nBuw="8.3220000000000000e+03" nEvuw="3.7572000000000000e+04" sepI="2.4979357421398163e-01" sepG="-1.0000000000000000e+00" res="-9.9000000000000000e+01" rms="0.0000000000000000e+00" nType="-1" CC="0.0000000000000000e+00"/>
          </Node>
          <Node pos="r" depth="2" Seq="2" IVar="-1" Cut="1.0949310846626759e-02" cType="1" nS="4.3193099975585938e+02" nB="9.5518841552734375e+02" nEv="1.3871193847656250e+03" nSuw="1.0200000000000000e+02" nBuw="2.5090000000000000e+03" nEvuw="2.6110000000000000e+03" sepI="2.1442514657974243e-01" sepG="-1.0000000000000000e+00" res="-9.9000000000000000e+01" rms="0.0000000000000000e+00" nType="-1" CC="0.0000000000000000e+00"/>
        </Node>
        <Node pos="r" depth="1" Seq="1" IVar="11" Cut="3.1379491090774536e-02" cType="1" nS="1.4982553100585938e+02" nB="7.5054455566406250e+02" nEv="9.0037011718750000e+02" nSuw="1.8000000000000000e+01" nBuw="6.0530000000000000e+03" nEvuw="6.0710000000000000e+03" sepI="1.3871397078037262e-01" sepG="1.3762209892272949e+01" res="-9.9000000000000000e+01" rms="0.0000000000000000e+00" nType="0" CC="0.0000000000000000e+00">
          <Node pos="l" depth="2" Seq="1" IVar="7" Cut="4.1778135299682617e-01" cType="0" nS="9.5592948913574219e+01" nB="1.7286048889160156e+02" nEv="2.6845343017578125e+02" nSuw="8.0000000000000000e+00" nBuw="1.2340000000000000e+03" nEvuw="1.2420000000000000e+03" sepI="2.2928923368453979e-01" sepG="9.2855081558227539e+00" res="-9.9000000000000000e+01" rms="0.0000000000000000e+00" nType="0" CC="0.0000000000000000e+00">
            <Node pos="l" depth="3" Seq="1" IVar="-1" Cut="0.0000000000000000e+00" cType="1" nS="8.1783523559570312e+01" nB="7.9189582824707031e+01" nEv="1.6097311401367188e+02" nSuw="7.0000000000000000e+00" nBuw="5.8000000000000000e+02" nEvuw="5.8700000000000000e+02" sepI="2.4993509054183960e-01" sepG="-1.0000000000000000e+00" res="-9.9000000000000000e+01" rms="0.0000000000000000e+00" nType="1" CC="0.0000000000000000e+00"/>
            <Node pos="r" depth="3" Seq="5" IVar="-1" Cut="0.0000000000000000e+00" cType="1" nS="1.3809428215026855e+01" nB="9.3670906066894531e+01" nEv="1.0748033142089844e+02" nSuw="1.0000000000000000e+00" nBuw="6.5400000000000000e+02" nEvuw="6.5500000000000000e+02" sepI="1.1197534203529358e-01" sepG="-1.0000000000000000e+00" res="-9.9000000000000000e+01" rms="0.0000000000000000e+00" nType="-1" CC="0.0000000000000000e+00"/>
          </Node>
          <Node pos="r" depth="2" Seq="3" IVar="-1" Cut="1.1003498077392578e+01" cType="0" nS="5.4232582092285156e+01" nB="5.7768408203125000e+02" nEv="6.3191662597656250e+02" nSuw="1.0000000000000000e+01" nBuw="4.8190000000000000e+03" nEvuw="4.8290000000000000e+03" sepI="7.8456886112689972e-02" sepG="-1.0000000000000000e+00" res="-9.9000000000000000e+01" rms="0.0000000000000000e+00" nType="-1" CC="0.0000000000000000e+00"/>
        </Node>
      </Node>
    </BinaryTree>
    <BinaryTree type="DecisionTree" boostWeight="1.6707922572310527e-01" itree="15">
      <Node pos="s" depth="0" Seq="0" IVar="10" Cut="1.4526880346238613e-02" cType="1" nS="4.4016382812500000e+04" nB="4.3476550781250000e+04" nEv="8.7492929687500000e+04" nSuw="4.3841000000000000e+04" nBuw="4.3600000000000000e+04" nEvuw="8.7441000000000000e+04" sepI="2.4999047815799713e-01" sepG="9.6772361755371094e+01" res="-9.9000000000000000e+01" rms="0.0000000000000000e+00" nType="0" CC="0.0000000000000000e+00">
        <Node pos="l" depth="1" Seq="0" IVar="11" Cut="2.4770610034465790e-02" cType="1" nS="4.3955265625000000e+04" nB="4.2939636718750000e+04" nEv="8.6894906250000000e+04" nSuw="4.3834000000000000e+04" nBuw="3.8969000000000000e+04" nEvuw="8.2803000000000000e+04" sepI="2.4996584653854370e-01" sepG="6.3220169067382812e+01" res="-9.9000000000000000e+01" rms="0.0000000000000000e+00" nType="0" CC="0.0000000000000000e+00">
          <Node pos="l" depth="2" Seq="0" IVar="-1" Cut="9.9155949428677559e-03" cType="0" nS="2.8488058593750000e+04" nB="2.5583398437500000e+04" nEv="5.4071457031250000e+04" nSuw="3.4996000000000000e+04" nBuw="1.5040000000000000e+04" nEvuw="5.0036000000000000e+04" sepI="2.4927857518196106e-01" sepG="-1.0000000000000000e+00" res="-9.9000000000000000e+01" rms="0.0000000000000000e+00" nType="1" CC="0.0000000000000000e+00"/>
          <Node pos="r" depth="2" Seq="2" IVar="4" Cut="1.8926385641098022e+00" cType="0" nS="1.5467208007812500e+04" nB="1.7356240234375000e+04" nEv="3.2823445312500000e+04" nSuw="8.8380000000000000e+03" nBuw="2.3929000000000000e+04" nEvuw="3.2767000000000000e+04" sepI="2.4917195737361908e-01" sepG="9.3446517944335938e+01" res="-9.9000000000000000e+01" rms="0.0000000000000000e+00" nType="0" CC="0.0000000000000000e+00">
            <Node pos="l" depth="3" Seq="2" IVar="-1" Cut="0.0000000000000000e+00" cType="1" nS="6.2133857421875000e+03" nB="5.2021386718750000e+03" nEv="1.1415524414062500e+04" nSuw="1.5140000000000000e+03" nBuw="1.3142000000000000e+04" nEvuw="1.4656000000000000e+04" sepI="2.4803815782070160e-01" sepG="-1.0000000000000000e+00" res="-9.9000000000000000e+01" rms="0.0000000000000000e+00" nType="1" CC="0.0000000000000000e+00"/>
            <Node pos="r" depth="3" Seq="6" IVar="-1" Cut="0.0000000000000000e+00" cType="1" nS="9.2538222656250000e+03" nB="1.2154100585937500e+04" nEv="2.1407921875000000e+04" nSuw="7.3240000000000000e+03" nBuw="1.0787000000000000e+04" nEvuw="1.8111000000000000e+04" sepI="2.4541150033473969e-01" sepG="-1.0000000000000000e+00" res="-9.9000000000000000e+01" rms="0.0000000000000000e+00" nType="-1" CC="0.0000000000000000e+00"/>
          </Node>
        </Node>
        <Node pos="r" depth="1" Seq="1" IVar="11" Cut="3.1379491090774536e-02" cType="1" nS="6.1115055084228516e+01" nB="5.3691223144531250e+02" nEv="5.9802728271484375e+02" nSuw="7.0000000000000000e+00" nBuw="4.6310000000000000e+03" nEvuw="4.6380000000000000e+03" sepI="9.1750726103782654e-02" sepG="5.3543510437011719e+00" res="-9.9000000000000000e+01" rms="0.0000000000000000e+00" nType="0" CC="0.0000000000000000e+00">
          <Node pos="l" depth="2" Seq="1" IVar="-1" Cut="1.5682844445109367e-02" cType="0" nS="4.1516319274902344e+01" nB="1.1924472808837891e+02" nEv="1.6076104736328125e+02" nSuw="2.0000000000000000e+00" nBuw="8.9900000000000000e+02" nEvuw="9.0100000000000000e+02" sepI="1.9155627489089966e-01" sepG="-1.0000000000000000e+00" res="-9.9000000000000000e+01" rms="0.0000000000000000e+00" nType="-1" CC="0.0000000000000000e+00"/>
          <Node pos="r" depth="2" Seq="3" IVar="8" Cut="1.6014492034912109e+01" cType="0" nS="1.9598733901977539e+01" nB="4.1766748046875000e+02" nEv="4.3726623535156250e+02" nSuw="5.0000000000000000e+00" nBuw="3.7320000000000000e+03" nEvuw="3.7370000000000000e+03" sepI="4.2812127619981766e-02" sepG="4.4711656570434570e+00" res="-9.9000000000000000e+01" rms="0.0000000000000000e+00" nType="0" CC="0.0000000000000000e+00">
            <Node pos="l" depth="3" Seq="3" IVar="-1" Cut="0.0000000000000000e+00" cType="1" nS="1.0231108665466309e+01" nB="1.0137309074401855e+01" nEv="2.0368417739868164e+01" nSuw="3.0000000000000000e+00" nBuw="4.3700000000000000e+02" nEvuw="4.4000000000000000e+02" sepI="2.4999469518661499e-01" sepG="-1.0000000000000000e+00" res="-9.9000000000000000e+01" rms="0.0000000000000000e+00" nType="1" CC="0.0000000000000000e+00"/>
            <Node pos="r" depth="3" Seq="7" IVar="-1" Cut="0.0000000000000000e+00" cType="1" nS="9.3676252365112305e+00" nB="4.0753018188476562e+02" nEv="4.1689779663085938e+02" nSuw="2.0000000000000000e+00" nBuw="3.2950000000000000e+03" nEvuw="3.2970000000000000e+03" sepI="2.1964941173791885e-02" sepG="-1.0000000000000000e+00" res="-9.9000000000000000e+01" rms="0.0000000000000000e+00" nType="-1" CC="0.0000000000000000e+00"/>
          </Node>
        </Node>
      </Node>
    </BinaryTree>
    <BinaryTree type="DecisionTree" boostWeight="8.9612124149164529e-02" itree="16">
      <Node pos="s" depth="0" Seq="0" IVar="10" Cut="1.4526880346238613e-02" cType="1" nS="4.2191902343750000e+04" nB="4.5301027343750000e+04" nEv="8.7492929687500000e+04" nSuw="4.3841000000000000e+04" nBuw="4.3600000000000000e+04" nEvuw="8.7441000000000000e+04" sepI="2.4968430399894714e-01" sepG="7.6099266052246094e+01" res="-9.9000000000000000e+01" rms="0.0000000000000000e+00" nType="0" CC="0.0000000000000000e+00">
        <Node pos="l" depth="1" Seq="0" IVar="6" Cut="2.7767882347106934e+00" cType="1" nS="4.2126949218750000e+04" nB="4.4803722656250000e+04" nEv="8.6930671875000000e+04" nSuw="4.3834000000000000e+04" nBuw="3.8969000000000000e+04" nEvuw="8.2803000000000000e+04" sepI="2.4976296722888947e-01" sepG="4.6508533477783203e+01" res="-9.9000000000000000e+01" rms="0.0000000000000000e+00" nType="0" CC="0.0000000000000000e+00">
          <Node pos="l" depth="2" Seq="0" IVar="8" Cut="1.1019490242004395e+01" cType="1" nS="3.8706429687500000e+04" nB="3.9948082031250000e+04" nEv="7.8654515625000000e+04" nSuw="4.0478000000000000e+04" nBuw="3.0234000000000000e+04" nEvuw="7.0712000000000000e+04" sepI="2.4993769824504852e-01" sepG="3.1806074142456055e+01" res="-9.9000000000000000e+01" rms="0.0000000000000000e+00" nType="0" CC="0.0000000000000000e+00">
            <Node pos="l" depth="3" Seq="0" IVar="-1" Cut="0.0000000000000000e+00" cType="1" nS="3.2866582031250000e+04" nB="3.2724759765625000e+04" nEv="6.5591343750000000e+04" nSuw="2.9431000000000000e+04" nBuw="2.1877000000000000e+04" nEvuw="5.1308000000000000e+04" sepI="2.4999883770942688e-01" sepG="-1.0000000000000000e+00" res="-9.9000000000000000e+01" rms="0.0000000000000000e+00" nType="1" CC="0.0000000000000000e+00"/>
            <Node pos="r" depth="3" Seq="4" IVar="-1" Cut="0.0000000000000000e+00" cType="1" nS="5.8398486328125000e+03" nB="7.2233212890625000e+03" nEv="1.3063169921875000e+04" nSuw="1.1047000000000000e+04" nBuw="8.3570000000000000e+03" nEvuw="1.9404000000000000e+04" sepI="2.4719595909118652e-01" sepG="-1.0000000000000000e+00" res="-9.9000000000000000e+01" rms="0.0000000000000000e+00" nType="-1" CC="0.0000000000000000e+00"/>
          </Node>
          <Node pos="r" depth="2" Seq="2" IVar="10" Cut="9.5493020489811897e-03" cType="1" nS="3.4205183105468750e+03" nB="4.8556406250000000e+03" nEv="8.2761591796875000e+03" nSuw="3.3560000000000000e+03" nBuw="8.7350000000000000e+03" nEvuw="1.2091000000000000e+04" sepI="2.4248272180557251e-01" sepG="8.1699409484863281e+01" res="-9.9000000000000000e+01" rms="0.0000000000000000e+00" nType="0" CC="0.0000000000000000e+00">
            <Node pos="l" depth="3" Seq="2" IVar="-1" Cut="0.0000000000000000e+00" cType="1" nS="1.6648023681640625e+03" nB="1.4023913574218750e+03" nEv="3.0671936035156250e+03" nSuw="1.7160000000000000e+03" nBuw="1.5860000000000000e+03" nEvuw="3.3020000000000000e+03" sepI="2.4817012250423431e-01" sepG="-1.0000000000000000e+00" res="-9.9000000000000000e+01" rms="0.0000000000000000e+00" nType="1" CC="0.0000000000000000e+00"/>
            <Node pos="r" depth="3" Seq="6" IVar="-1" Cut="0.0000000000000000e+00" cType="1" nS="1.7557159423828125e+03" nB="3.4532492675781250e+03" nEv="5.2089653320312500e+03" nSuw="1.6400000000000000e+03" nBuw="7.1490000000000000e+03" nEvuw="8.7890000000000000e+03" sepI="2.2344943881034851e-01" sepG="-1.0000000000000000e+00" res="-9.9000000000000000e+01" rms="0.0000000000000000e+00" nType="-1" CC="0.0000000000000000e+00"/>
          </Node>
        </Node>
        <Node pos="r" depth="1" Seq="1" IVar="-1" Cut="3.1379491090774536e-02" cType="1" nS="6.4954505920410156e+01" nB="4.9730718994140625e+02" nEv="5.6226171875000000e+02" nSuw="7.0000000000000000e+00" nBuw="4.6310000000000000e+03" nEvuw="4.6380000000000000e+03" sepI="1.0217791050672531e-01" sepG="-1.0000000000000000e+00" res="-9.9000000000000000e+01" rms="0.0000000000000000e+00" nType="-1" CC="0.0000000000000000e+00"/>
      </Node>
    </BinaryTree>
    <BinaryTree type="DecisionTree" boostWeight="1.5009727979025272e-01" itree="17">
      <Node pos="s" depth="0" Seq="0" IVar="10" Cut="1.4526880346238613e-02" cType="1" nS="4.1071074218750000e+04" nB="4.6421859375000000e+04" nEv="8.7492929687500000e+04" nSuw="4.3841000000000000e+04" nBuw="4.3600000000000000e+04" nEvuw="8.7441000000000000e+04" sepI="2.4906496703624725e-01" sepG="6.4935569763183594e+01" res="-9.9000000000000000e+01" rms="0.0000000000000000e+00" nType="0" CC="0.0000000000000000e+00">
        <Node pos="l" depth="1" Seq="0" IVar="1" Cut="1.1130711995065212e-02" cType="1" nS="4.1003074218750000e+04" nB="4.5945863281250000e+04" nEv="8.6948937500000000e+04" nSuw="4.3834000000000000e+04" nBuw="3.8969000000000000e+04" nEvuw="8.2803000000000000e+04" sepI="2.4919210374355316e-01" sepG="2.9024734497070312e+01" res="-9.9000000000000000e+01" rms="0.0000000000000000e+00" nType="0" CC="0.0000000000000000e+00">
          <Node pos="l" depth="2" Seq="0" IVar="1" Cut="9.9147576838731766e-03" cType="0" nS="4.0351980468750000e+04" nB="4.4727683593750000e+04" nEv="8.5079664062500000e+04" nSuw="4.3756000000000000e+04" nBuw="3.2629000000000000e+04" nEvuw="7.6385000000000000e+04" sepI="2.4933871626853943e-01" sepG="3.0203207015991211e+01" res="-9.9000000000000000e+01" rms="0.0000000000000000e+00" nType="0" CC="0.0000000000000000e+00">
            <Node pos="l" depth="3" Seq="0" IVar="-1" Cut="0.0000000000000000e+00" cType="1" nS="3.4895217285156250e+03" nB="2.9725156250000000e+03" nEv="6.4620375976562500e+03" nSuw="1.1920000000000000e+03" nBuw="7.2740000000000000e+03" nEvuw="8.4660000000000000e+03" sepI="2.4839973449707031e-01" sepG="-1.0000000000000000e+00" res="-9.9000000000000000e+01" rms="0.0000000000000000e+00" nType="1" CC="0.0000000000000000e+00"/>
            <Node pos="r" depth="3" Seq="4" IVar="-1" Cut="0.0000000000000000e+00" cType="1" nS="3.6862457031250000e+04" nB="4.1755167968750000e+04" nEv="7.8617625000000000e+04" nSuw="4.2564000000000000e+04" nBuw="2.5355000000000000e+04" nEvuw="6.7919000000000000e+04" sepI="2.4903172254562378e-01" sepG="-1.0000000000000000e+00" res="-9.9000000000000000e+01" rms="0.0000000000000000e+00" nType="-1" CC="0.0000000000000000e+00"/>
          </Node>
          <Node pos="r" depth="2" Seq="2" IVar="4" Cut="8.0385023355484009e-01" cType="1" nS="6.5109637451171875e+02" nB="1.2181794433593750e+03" nEv="1.8692757568359375e+03" nSuw="7.8000000000000000e+01" nBuw="6.3400000000000000e+03" nEvuw="6.4180000000000000e+03" sepI="2.2699159383773804e-01" sepG="5.3466732025146484e+01" res="-9.9000000000000000e+01" rms="0.0000000000000000e+00" nType="0" CC="0.0000000000000000e+00">
            <Node pos="l" depth="3" Seq="2" IVar="-1" Cut="0.0000000000000000e+00" cType="1" nS="4.1835162353515625e+02" nB="3.3730758666992188e+02" nEv="7.5565917968750000e+02" nSuw="5.0000000000000000e+01" nBuw="1.7840000000000000e+03" nEvuw="1.8340000000000000e+03" sepI="2.4712438881397247e-01" sepG="-1.0000000000000000e+00" res="-9.9000000000000000e+01" rms="0.0000000000000000e+00" nType="1" CC="0.0000000000000000e+00"/>
            <Node pos="r" depth="3" Seq="6" IVar="-1" Cut="0.0000000000000000e+00" cType="1" nS="2.3274476623535156e+02" nB="8.8087182617187500e+02" nEv="1.1136165771484375e+03" nSuw="2.8000000000000000e+01" nBuw="4.5560000000000000e+03" nEvuw="4.5840000000000000e+03" sepI="1.6531842947006226e-01" sepG="-1.0000000000000000e+00" res="-9.9000000000000000e+01" rms="0.0000000000000000e+00" nType="-1" CC="0.0000000000000000e+00"/>
          </Node>
        </Node>
        <Node pos="r" depth="1" Seq="1" IVar="11" Cut="3.1379491090774536e-02" cType="1" nS="6.7999252319335938e+01" nB="4.7599404907226562e+02" nEv="5.4399328613281250e+02" nSuw="7.0000000000000000e+00" nBuw="4.6310000000000000e+03" nEvuw="4.6380000000000000e+03" sepI="1.0937511920928955e-01" sepG="7.2990417480468750e+00" res="-9.9000000000000000e+01" rms="0.0000000000000000e+00" nType="0" CC="0.0000000000000000e+00">
          <Node pos="l" depth="2" Seq="1" IVar="10" Cut="1.5682844445109367e-02" cType="0" nS="4.7414169311523438e+01" nB="1.0535346984863281e+02" nEv="1.5276763916015625e+02" nSuw="2.0000000000000000e+00" nBuw="8.9900000000000000e+02" nEvuw="9.0100000000000000e+02" sepI="2.1403966844081879e-01" sepG="9.9054841995239258e+00" res="-9.9000000000000000e+01" rms="0.0000000000000000e+00" nType="0" CC="0.0000000000000000e+00">
            <Node pos="l" depth="3" Seq="1" IVar="-1" Cut="0.0000000000000000e+00" cType="1" nS="4.7414169311523438e+01" nB="4.3893020629882812e+01" nEv="9.1307189941406250e+01" nSuw="2.0000000000000000e+00" nBuw="3.9800000000000000e+02" nEvuw="4.0000000000000000e+02" sepI="2.4962821602821350e-01" sepG="-1.0000000000000000e+00" res="-9.9000000000000000e+01" rms="0.0000000000000000e+00" nType="1" CC="0.0000000000000000e+00"/>
            <Node pos="r" depth="3" Seq="5" IVar="-1" Cut="0.0000000000000000e+00" cType="1" nS="0.0000000000000000e+00" nB="6.1460453033447266e+01" nEv="6.1460453033447266e+01" nSuw="0.0000000000000000e+00" nBuw="5.0100000000000000e+02" nEvuw="5.0100000000000000e+02" sepI="0.0000000000000000e+00" sepG="-1.0000000000000000e+00" res="-9.9000000000000000e+01" rms="0.0000000000000000e+00" nType="-1" CC="0.0000000000000000e+00"/>
          </Node>
          <Node pos="r" depth="2" Seq="3" IVar="-1" Cut="1.6014492034912109e+01" cType="0" nS="2.0585077285766602e+01" nB="3.7064056396484375e+02" nEv="3.9122564697265625e+02" nSuw="5.0000000000000000e+00" nBuw="3.7320000000000000e+03" nEvuw="3.7370000000000000e+03" sepI="4.9848355352878571e-02" sepG="-1.0000000000000000e+00" res="-9.9000000000000000e+01" rms="0.0000000000000000e+00" nType="-1" CC="0.0000000000000000e+00"/>
        </Node>
      </Node>
    </BinaryTree>
    <BinaryTree type="DecisionTree" boostWeight="7.7283402483513383e-02" itree="18">
      <Node pos="s" depth="0" Seq="0" IVar="1" Cut="1.0270641185343266e-02" cType="1" nS="4.3800839843750000e+04" nB="4.3692093750000000e+04" nEv="8.7492929687500000e+04" nSuw="4.3841000000000000e+04" nBuw="4.3600000000000000e+04" nEvuw="8.7441000000000000e+04" sepI="2.4999961256980896e-01" sepG="9.5022209167480469e+01" res="-9.9000000000000000e+01" rms="0.0000000000000000e+00" nType="0" CC="0.0000000000000000e+00">
        <Node pos="l" depth="1" Seq="0" IVar="10" Cut="1.4568273909389973e-02" cType="1" nS="4.2070542968750000e+04" nB="4.0659351562500000e+04" nEv="8.2729890625000000e+04" nSuw="4.3501000000000000e+04" nBuw="2.9408000000000000e+04" nEvuw="7.2909000000000000e+04" sepI="2.4992725253105164e-01" sepG="3.0868362426757812e+01" res="-9.9000000000000000e+01" rms="0.0000000000000000e+00" nType="0" CC="0.0000000000000000e+00">
          <Node pos="l" depth="2" Seq="0" IVar="-1" Cut="2.8174662590026855e+00" cType="0" nS="4.2054300781250000e+04" nB="4.0498359375000000e+04" nEv="8.2552664062500000e+04" nSuw="4.3498000000000000e+04" nBuw="2.8253000000000000e+04" nEvuw="7.1751000000000000e+04" sepI="2.4991118907928467e-01" sepG="-1.0000000000000000e+00" res="-9.9000000000000000e+01" rms="0.0000000000000000e+00" nType="1" CC="0.0000000000000000e+00"/>
          <Node pos="r" depth="2" Seq="2" IVar="-1" Cut="4.8998826742172241e-01" cType="1" nS="1.6241899490356445e+01" nB="1.6099110412597656e+02" nEv="1.7723301696777344e+02" nSuw="3.0000000000000000e+00" nBuw="1.1550000000000000e+03" nEvuw="1.1580000000000000e+03" sepI="8.3243332803249359e-02" sepG="-1.0000000000000000e+00" res="-9.9000000000000000e+01" rms="0.0000000000000000e+00" nType="-1" CC="0.0000000000000000e+00"/>
        </Node>
        <Node pos="r" depth="1" Seq="1" IVar="4" Cut="4.3591547012329102e-01" cType="1" nS="1.7302963867187500e+03" nB="3.0327426757812500e+03" nEv="4.7630390625000000e+03" nSuw="3.4000000000000000e+02" nBuw="1.4192000000000000e+04" nEvuw="1.4532000000000000e+04" sepI="2.3130646347999573e-01" sepG="8.1694252014160156e+01" res="-9.9000000000000000e+01" rms="0.0000000000000000e+00" nType="0" CC="0.0000000000000000e+00">
          <Node pos="l" depth="2" Seq="1" IVar="11" Cut="6.4952544867992401e-02" cType="1" nS="9.0805914306640625e+02" nB="7.7119757080078125e+02" nEv="1.6792567138671875e+03" nSuw="2.0000000000000000e+02" nBuw="3.2720000000000000e+03" nEvuw="3.4720000000000000e+03" sepI="2.4833938479423523e-01" sepG="1.5431917190551758e+01" res="-9.9000000000000000e+01" rms="0.0000000000000000e+00" nType="0" CC="0.0000000000000000e+00">
            <Node pos="l" depth="3" Seq="1" IVar="-1" Cut="0.0000000000000000e+00" cType="1" nS="9.0805914306640625e+02" nB="7.2003088378906250e+02" nEv="1.6280899658203125e+03" nSuw="2.0000000000000000e+02" nBuw="2.7890000000000000e+03" nEvuw="2.9890000000000000e+03" sepI="2.4666550755500793e-01" sepG="-1.0000000000000000e+00" res="-9.9000000000000000e+01" rms="0.0000000000000000e+00" nType="1" CC="0.0000000000000000e+00"/>
            <Node pos="r" depth="3" Seq="5" IVar="-1" Cut="0.0000000000000000e+00" cType="1" nS="0.0000000000000000e+00" nB="5.1166671752929688e+01" nEv="5.1166671752929688e+01" nSuw="0.0000000000000000e+00" nBuw="4.8300000000000000e+02" nEvuw="4.8300000000000000e+02" sepI="0.0000000000000000e+00" sepG="-1.0000000000000000e+00" res="-9.9000000000000000e+01" rms="0.0000000000000000e+00" nType="-1" CC="0.0000000000000000e+00"/>
          </Node>
          <Node pos="r" depth="2" Seq="3" IVar="-1" Cut="9.0324020385742188e-01" cType="0" nS="8.2223730468750000e+02" nB="2.2615451660156250e+03" nEv="3.0837824707031250e+03" nSuw="1.4000000000000000e+02" nBuw="1.0920000000000000e+04" nEvuw="1.1060000000000000e+04" sepI="1.9553971290588379e-01" sepG="-1.0000000000000000e+00" res="-9.9000000000000000e+01" rms="0.0000000000000000e+00" nType="-1" CC="0.0000000000000000e+00"/>
        </Node>
      </Node>
    </BinaryTree>
    <BinaryTree type="DecisionTree" boostWeight="9.7932434492047110e-02" itree="19">
      <Node pos="s" depth="0" Seq="0" IVar="1" Cut="1.0270641185343266e-02" cType="1" nS="4.2236914062500000e+04" nB="4.5256015625000000e+04" nEv="8.7492929687500000e+04" nSuw="4.3841000000000000e+04" nBuw="4.3600000000000000e+04" nEvuw="8.7441000000000000e+04" sepI="2.4970231950283051e-01" sepG="6.5950744628906250e+01" res="-9.9000000000000000e+01" rms="0.0000000000000000e+00" nType="0" CC="0.0000000000000000e+00">
        <Node pos="l" depth="1" Seq="0" IVar="10" Cut="1.4568273909389973e-02" cType="1" nS="4.0507355468750000e+04" nB="4.2280347656250000e+04" nEv="8.2787703125000000e+04" nSuw="4.3501000000000000e+04" nBuw="2.9408000000000000e+04" nEvuw="7.2909000000000000e+04" sepI="2.4988533556461334e-01" sepG="2.6336212158203125e+01" res="-9.9000000000000000e+01" rms="0.0000000000000000e+00" nType="0" CC="0.0000000000000000e+00">
          <Node pos="l" depth="2" Seq="0" IVar="7" Cut="2.8174662590026855e+00" cType="0" nS="4.0490460937500000e+04" nB="4.2125343750000000e+04" nEv="8.2615804687500000e+04" nSuw="4.3498000000000000e+04" nBuw="2.8253000000000000e+04" nEvuw="7.1751000000000000e+04" sepI="2.4990209937095642e-01" sepG="2.5028718948364258e+01" res="-9.9000000000000000e+01" rms="0.0000000000000000e+00" nType="0" CC="0.0000000000000000e+00">
            <Node pos="l" depth="3" Seq="0" IVar="-1" Cut="0.0000000000000000e+00" cType="1" nS="1.9650541992187500e+03" nB="1.4595507812500000e+03" nEv="3.4246049804687500e+03" nSuw="1.8300000000000000e+03" nBuw="1.8180000000000000e+03" nEvuw="3.6480000000000000e+03" sepI="2.4455288052558899e-01" sepG="-1.0000000000000000e+00" res="-9.9000000000000000e+01" rms="0.0000000000000000e+00" nType="1" CC="0.0000000000000000e+00"/>
            <Node pos="r" depth="3" Seq="4" IVar="-1" Cut="0.0000000000000000e+00" cType="1" nS="3.8525406250000000e+04" nB="4.0665792968750000e+04" nEv="7.9191195312500000e+04" nSuw="4.1668000000000000e+04" nBuw="2.6435000000000000e+04" nEvuw="6.8103000000000000e+04" sepI="2.4981737136840820e-01" sepG="-1.0000000000000000e+00" res="-9.9000000000000000e+01" rms="0.0000000000000000e+00" nType="-1" CC="0.0000000000000000e+00"/>
          </Node>
          <Node pos="r" depth="2" Seq="2" IVar="-1" Cut="4.8998826742172241e-01" cType="1" nS="1.6894401550292969e+01" nB="1.5500445556640625e+02" nEv="1.7189884948730469e+02" nSuw="3.0000000000000000e+00" nBuw="1.1550000000000000e+03" nEvuw="1.1580000000000000e+03" sepI="8.8621892035007477e-02" sepG="-1.0000000000000000e+00" res="-9.9000000000000000e+01" rms="0.0000000000000000e+00" nType="-1" CC="0.0000000000000000e+00"/>
        </Node>
        <Node pos="r" depth="1" Seq="1" IVar="4" Cut="4.3591547012329102e-01" cType="1" nS="1.7295617675781250e+03" nB="2.9756682128906250e+03" nEv="4.7052299804687500e+03" nSuw="3.4000000000000000e+02" nBuw="1.4192000000000000e+04" nEvuw="1.4532000000000000e+04" sepI="2.3246569931507111e-01" sepG="6.2469734191894531e+01" res="-9.9000000000000000e+01" rms="0.0000000000000000e+00" nType="0" CC="0.0000000000000000e+00">
          <Node pos="l" depth="2" Seq="1" IVar="11" Cut="6.4952544867992401e-02" cType="1" nS="8.7429180908203125e+02" nB="7.9822149658203125e+02" nEv="1.6725133056640625e+03" nSuw="2.0000000000000000e+02" nBuw="3.2720000000000000e+03" nEvuw="3.4720000000000000e+03" sepI="2.4948282539844513e-01" sepG="1.3870350837707520e+01" res="-9.9000000000000000e+01" rms="0.0000000000000000e+00" nType="0" CC="0.0000000000000000e+00">
            <Node pos="l" depth="3" Seq="1" IVar="-1" Cut="0.0000000000000000e+00" cType="1" nS="8.7429180908203125e+02" nB="7.4895751953125000e+02" nEv="1.6232492675781250e+03" nSuw="2.0000000000000000e+02" nBuw="2.7890000000000000e+03" nEvuw="2.9890000000000000e+03" sepI="2.4850957095623016e-01" sepG="-1.0000000000000000e+00" res="-9.9000000000000000e+01" rms="0.0000000000000000e+00" nType="1" CC="0.0000000000000000e+00"/>
            <Node pos="r" depth="3" Seq="5" IVar="-1" Cut="0.0000000000000000e+00" cType="1" nS="0.0000000000000000e+00" nB="4.9263973236083984e+01" nEv="4.9263973236083984e+01" nSuw="0.0000000000000000e+00" nBuw="4.8300000000000000e+02" nEvuw="4.8300000000000000e+02" sepI="0.0000000000000000e+00" sepG="-1.0000000000000000e+00" res="-9.9000000000000000e+01" rms="0.0000000000000000e+00" nType="-1" CC="0.0000000000000000e+00"/>
          </Node>
          <Node pos="r" depth="2" Seq="3" IVar="-1" Cut="9.0324020385742188e-01" cType="0" nS="8.5526995849609375e+02" nB="2.1774467773437500e+03" nEv="3.0327165527343750e+03" nSuw="1.4000000000000000e+02" nBuw="1.0920000000000000e+04" nEvuw="1.1060000000000000e+04" sepI="2.0248229801654816e-01" sepG="-1.0000000000000000e+00" res="-9.9000000000000000e+01" rms="0.0000000000000000e+00" nType="-1" CC="0.0000000000000000e+00"/>
        </Node>
      </Node>
    </BinaryTree>
    <BinaryTree type="DecisionTree" boostWeight="1.0795617557706690e-01" itree="20">
      <Node pos="s" depth="0" Seq="0" IVar="1" Cut="1.0270641185343266e-02" cType="1" nS="4.4131246093750000e+04" nB="4.3361683593750000e+04" nEv="8.7492929687500000e+04" nSuw="4.3841000000000000e+04" nBuw="4.3600000000000000e+04" nEvuw="8.7441000000000000e+04" sepI="2.4998065829277039e-01" sepG="8.4408721923828125e+01" res="-9.9000000000000000e+01" rms="0.0000000000000000e+00" nType="0" CC="0.0000000000000000e+00">
        <Node pos="l" depth="1" Seq="0" IVar="10" Cut="1.4568273909389973e-02" cType="1" nS="4.2398468750000000e+04" nB="4.0451351562500000e+04" nEv="8.2849820312500000e+04" nSuw="4.3501000000000000e+04" nBuw="2.9408000000000000e+04" nEvuw="7.2909000000000000e+04" sepI="2.4986191093921661e-01" sepG="2.7131908416748047e+01" res="-9.9000000000000000e+01" rms="0.0000000000000000e+00" nType="0" CC="0.0000000000000000e+00">
          <Node pos="l" depth="2" Seq="0" IVar="0" Cut="1.4571190811693668e-02" cType="1" nS="4.2380707031250000e+04" nB="4.0303578125000000e+04" nEv="8.2684281250000000e+04" nSuw="4.3498000000000000e+04" nBuw="2.8253000000000000e+04" nEvuw="7.1751000000000000e+04" sepI="2.4984222650527954e-01" sepG="2.5616764068603516e+01" res="-9.9000000000000000e+01" rms="0.0000000000000000e+00" nType="0" CC="0.0000000000000000e+00">
            <Node pos="l" depth="3" Seq="0" IVar="-1" Cut="0.0000000000000000e+00" cType="1" nS="3.8552117187500000e+04" nB="3.5808277343750000e+04" nEv="7.4360390625000000e+04" nSuw="4.0041000000000000e+04" nBuw="2.4305000000000000e+04" nEvuw="6.4346000000000000e+04" sepI="2.4965961277484894e-01" sepG="-1.0000000000000000e+00" res="-9.9000000000000000e+01" rms="0.0000000000000000e+00" nType="1" CC="0.0000000000000000e+00"/>
            <Node pos="r" depth="3" Seq="4" IVar="-1" Cut="0.0000000000000000e+00" cType="1" nS="3.8285881347656250e+03" nB="4.4953017578125000e+03" nEv="8.3238896484375000e+03" nSuw="3.4570000000000000e+03" nBuw="3.9480000000000000e+03" nEvuw="7.4050000000000000e+03" sepI="2.4839614331722260e-01" sepG="-1.0000000000000000e+00" res="-9.9000000000000000e+01" rms="0.0000000000000000e+00" nType="-1" CC="0.0000000000000000e+00"/>
          </Node>
          <Node pos="r" depth="2" Seq="2" IVar="-1" Cut="4.8998826742172241e-01" cType="1" nS="1.7763519287109375e+01" nB="1.4777429199218750e+02" nEv="1.6553781127929688e+02" nSuw="3.0000000000000000e+00" nBuw="1.1550000000000000e+03" nEvuw="1.1580000000000000e+03" sepI="9.5792941749095917e-02" sepG="-1.0000000000000000e+00" res="-9.9000000000000000e+01" rms="0.0000000000000000e+00" nType="-1" CC="0.0000000000000000e+00"/>
        </Node>
        <Node pos="r" depth="1" Seq="1" IVar="-1" Cut="9.6856874227523804e-01" cType="1" nS="1.7327790527343750e+03" nB="2.9103330078125000e+03" nEv="4.6431118164062500e+03" nSuw="3.4000000000000000e+02" nBuw="1.4192000000000000e+04" nEvuw="1.4532000000000000e+04" sepI="2.3392009735107422e-01" sepG="-1.0000000000000000e+00" res="-9.9000000000000000e+01" rms="0.0000000000000000e+00" nType="-1" CC="0.0000000000000000e+00"/>
      </Node>
    </BinaryTree>
    <BinaryTree type="DecisionTree" boostWeight="1.3079943791289519e-01" itree="21">
      <Node pos="s" depth="0" Seq="0" IVar="10" Cut="1.4568273909389973e-02" cType="1" nS="4.2476675781250000e+04" nB="4.5016253906250000e+04" nEv="8.7492929687500000e+04" nSuw="4.3841000000000000e+04" nBuw="4.3600000000000000e+04" nEvuw="8.7441000000000000e+04" sepI="2.4978937208652496e-01" sepG="5.3052051544189453e+01" res="-9.9000000000000000e+01" rms="0.0000000000000000e+00" nType="0" CC="0.0000000000000000e+00">
        <Node pos="l" depth="1" Seq="0" IVar="1" Cut="9.6867969259619713e-03" cType="1" nS="4.2410726562500000e+04" nB="4.4627152343750000e+04" nEv="8.7037882812500000e+04" nSuw="4.3835000000000000e+04" nBuw="3.9073000000000000e+04" nEvuw="8.2908000000000000e+04" sepI="2.4983787536621094e-01" sepG="3.0778892517089844e+01" res="-9.9000000000000000e+01" rms="0.0000000000000000e+00" nType="0" CC="0.0000000000000000e+00">
          <Node pos="l" depth="2" Seq="0" IVar="1" Cut="9.3773519620299339e-03" cType="0" nS="3.6414964843750000e+04" nB="3.7101269531250000e+04" nEv="7.3516234375000000e+04" nSuw="4.0349000000000000e+04" nBuw="2.2870000000000000e+04" nEvuw="6.3219000000000000e+04" sepI="2.4997821450233459e-01" sepG="4.4746444702148438e+01" res="-9.9000000000000000e+01" rms="0.0000000000000000e+00" nType="0" CC="0.0000000000000000e+00">
            <Node pos="l" depth="3" Seq="0" IVar="-1" Cut="0.0000000000000000e+00" cType="1" nS="7.3888237304687500e+03" nB="6.1103857421875000e+03" nEv="1.3499209960937500e+04" nSuw="8.4160000000000000e+03" nBuw="4.6080000000000000e+03" nEvuw="1.3024000000000000e+04" sepI="2.4775776267051697e-01" sepG="-1.0000000000000000e+00" res="-9.9000000000000000e+01" rms="0.0000000000000000e+00" nType="1" CC="0.0000000000000000e+00"/>
            <Node pos="r" depth="3" Seq="4" IVar="-1" Cut="0.0000000000000000e+00" cType="1" nS="2.9026138671875000e+04" nB="3.0990882812500000e+04" nEv="6.0017019531250000e+04" nSuw="3.1933000000000000e+04" nBuw="1.8262000000000000e+04" nEvuw="5.0195000000000000e+04" sepI="2.4973207712173462e-01" sepG="-1.0000000000000000e+00" res="-9.9000000000000000e+01" rms="0.0000000000000000e+00" nType="-1" CC="0.0000000000000000e+00"/>
          </Node>
          <Node pos="r" depth="2" Seq="2" IVar="4" Cut="1.1470844745635986e+00" cType="1" nS="5.9957626953125000e+03" nB="7.5258857421875000e+03" nEv="1.3521648437500000e+04" nSuw="3.4860000000000000e+03" nBuw="1.6203000000000000e+04" nEvuw="1.9689000000000000e+04" sepI="2.4679864943027496e-01" sepG="8.8623901367187500e+01" res="-9.9000000000000000e+01" rms="0.0000000000000000e+00" nType="0" CC="0.0000000000000000e+00">
            <Node pos="l" depth="3" Seq="2" IVar="-1" Cut="0.0000000000000000e+00" cType="1" nS="3.6254541015625000e+03" nB="3.3167465820312500e+03" nEv="6.9422006835937500e+03" nSuw="2.5020000000000000e+03" nBuw="5.6240000000000000e+03" nEvuw="8.1260000000000000e+03" sepI="2.4950563907623291e-01" sepG="-1.0000000000000000e+00" res="-9.9000000000000000e+01" rms="0.0000000000000000e+00" nType="1" CC="0.0000000000000000e+00"/>
            <Node pos="r" depth="3" Seq="6" IVar="-1" Cut="0.0000000000000000e+00" cType="1" nS="2.3703088378906250e+03" nB="4.2091391601562500e+03" nEv="6.5794482421875000e+03" nSuw="9.8400000000000000e+02" nBuw="1.0579000000000000e+04" nEvuw="1.1563000000000000e+04" sepI="2.3047259449958801e-01" sepG="-1.0000000000000000e+00" res="-9.9000000000000000e+01" rms="0.0000000000000000e+00" nType="-1" CC="0.0000000000000000e+00"/>
          </Node>
        </Node>
        <Node pos="r" depth="1" Seq="1" IVar="-1" Cut="1.5818998217582703e-02" cType="0" nS="6.5951400756835938e+01" nB="3.8910116577148438e+02" nEv="4.5505255126953125e+02" nSuw="6.0000000000000000e+00" nBuw="4.5270000000000000e+03" nEvuw="4.5330000000000000e+03" sepI="1.2392628192901611e-01" sepG="-1.0000000000000000e+00" res="-9.9000000000000000e+01" rms="0.0000000000000000e+00" nType="-1" CC="0.0000000000000000e+00"/>
      </Node>
    </BinaryTree>
    <BinaryTree type="DecisionTree" boostWeight="1.3894106302427545e-01" itree="22">
      <Node pos="s" depth="0" Seq="0" IVar="1" Cut="9.5926290377974510e-03" cType="1" nS="4.3999730468750000e+04" nB="4.3493199218750000e+04" nEv="8.7492929687500000e+04" nSuw="4.3841000000000000e+04" nBuw="4.3600000000000000e+04" nEvuw="8.7441000000000000e+04" sepI="2.4999162554740906e-01" sepG="8.6460388183593750e+01" res="-9.9000000000000000e+01" rms="0.0000000000000000e+00" nType="0" CC="0.0000000000000000e+00">
        <Node pos="l" depth="1" Seq="0" IVar="10" Cut="1.3906254433095455e-02" cType="1" nS="3.6504964843750000e+04" nB="3.3917382812500000e+04" nEv="7.0422343750000000e+04" nSuw="3.8522000000000000e+04" nBuw="2.2352000000000000e+04" nEvuw="6.0874000000000000e+04" sepI="2.4966247379779816e-01" sepG="2.3695123672485352e+01" res="-9.9000000000000000e+01" rms="0.0000000000000000e+00" nType="0" CC="0.0000000000000000e+00">
          <Node pos="l" depth="2" Seq="0" IVar="5" Cut="9.3173527717590332e-01" cType="1" nS="3.6460679687500000e+04" nB="3.3735125000000000e+04" nEv="7.0195804687500000e+04" nSuw="3.8512000000000000e+04" nBuw="2.1259000000000000e+04" nEvuw="5.9771000000000000e+04" sepI="2.4962310492992401e-01" sepG="2.3129802703857422e+01" res="-9.9000000000000000e+01" rms="0.0000000000000000e+00" nType="0" CC="0.0000000000000000e+00">
            <Node pos="l" depth="3" Seq="0" IVar="-1" Cut="0.0000000000000000e+00" cType="1" nS="2.1559839843750000e+04" nB="1.8735107421875000e+04" nEv="4.0294945312500000e+04" nSuw="1.3839000000000000e+04" nBuw="1.6442000000000000e+04" nEvuw="3.0281000000000000e+04" sepI="2.4877144396305084e-01" sepG="-1.0000000000000000e+00" res="-9.9000000000000000e+01" rms="0.0000000000000000e+00" nType="1" CC="0.0000000000000000e+00"/>
            <Node pos="r" depth="3" Seq="4" IVar="-1" Cut="0.0000000000000000e+00" cType="1" nS="1.4900838867187500e+04" nB="1.5000018554687500e+04" nEv="2.9900857421875000e+04" nSuw="2.4673000000000000e+04" nBuw="4.8170000000000000e+03" nEvuw="2.9490000000000000e+04" sepI="2.4999724328517914e-01" sepG="-1.0000000000000000e+00" res="-9.9000000000000000e+01" rms="0.0000000000000000e+00" nType="-1" CC="0.0000000000000000e+00"/>
          </Node>
          <Node pos="r" depth="2" Seq="2" IVar="-1" Cut="1.8143143653869629e+00" cType="1" nS="4.4284912109375000e+01" nB="1.8225767517089844e+02" nEv="2.2654258728027344e+02" nSuw="1.0000000000000000e+01" nBuw="1.0930000000000000e+03" nEvuw="1.1030000000000000e+03" sepI="1.5726856887340546e-01" sepG="-1.0000000000000000e+00" res="-9.9000000000000000e+01" rms="0.0000000000000000e+00" nType="-1" CC="0.0000000000000000e+00"/>
        </Node>
        <Node pos="r" depth="1" Seq="1" IVar="4" Cut="1.6958884894847870e-01" cType="1" nS="7.4947695312500000e+03" nB="9.5758154296875000e+03" nEv="1.7070585937500000e+04" nSuw="5.3190000000000000e+03" nBuw="2.1248000000000000e+04" nEvuw="2.6567000000000000e+04" sepI="2.4628458917140961e-01" sepG="7.2605903625488281e+01" res="-9.9000000000000000e+01" rms="0.0000000000000000e+00" nType="0" CC="0.0000000000000000e+00">
          <Node pos="l" depth="2" Seq="1" IVar="10" Cut="9.5111224800348282e-03" cType="0" nS="3.0155480957031250e+03" nB="2.6583750000000000e+03" nEv="5.6739233398437500e+03" nSuw="2.8020000000000000e+03" nBuw="4.3760000000000000e+03" nEvuw="7.1780000000000000e+03" sepI="2.4900932610034943e-01" sepG="9.7302465438842773e+00" res="-9.9000000000000000e+01" rms="0.0000000000000000e+00" nType="0" CC="0.0000000000000000e+00">
            <Node pos="l" depth="3" Seq="1" IVar="-1" Cut="0.0000000000000000e+00" cType="1" nS="2.1712373046875000e+03" nB="1.7084913330078125e+03" nEv="3.8797287597656250e+03" nSuw="1.5790000000000000e+03" nBuw="3.9320000000000000e+03" nEvuw="5.5110000000000000e+03" sepI="2.4644351005554199e-01" sepG="-1.0000000000000000e+00" res="-9.9000000000000000e+01" rms="0.0000000000000000e+00" nType="1" CC="0.0000000000000000e+00"/>
            <Node pos="r" depth="3" Seq="5" IVar="-1" Cut="0.0000000000000000e+00" cType="1" nS="8.4431085205078125e+02" nB="9.4988360595703125e+02" nEv="1.7941944580078125e+03" nSuw="1.2230000000000000e+03" nBuw="4.4400000000000000e+02" nEvuw="1.6670000000000000e+03" sepI="2.4913442134857178e-01" sepG="-1.0000000000000000e+00" res="-9.9000000000000000e+01" rms="0.0000000000000000e+00" nType="-1" CC="0.0000000000000000e+00"/>
          </Node>
          <Node pos="r" depth="2" Seq="3" IVar="-1" Cut="6.7501652240753174e-01" cType="0" nS="4.4792211914062500e+03" nB="6.9174404296875000e+03" nEv="1.1396662109375000e+04" nSuw="2.5170000000000000e+03" nBuw="1.6872000000000000e+04" nEvuw="1.9389000000000000e+04" sepI="2.3855724930763245e-01" sepG="-1.0000000000000000e+00" res="-9.9000000000000000e+01" rms="0.0000000000000000e+00" nType="-1" CC="0.0000000000000000e+00"/>
        </Node>
      </Node>
    </BinaryTree>
    <BinaryTree type="DecisionTree" boostWeight="1.9096103236747297e-01" itree="23">
